digraph Tree {
node [shape=box] ;
0 [label="X[15] <= 0.5\ngini = 0.552\nsamples = 47520\nvalue = [25825, 3441, 18254]"] ;
1 [label="X[9] <= 2011.567\ngini = 0.059\nsamples = 4956\nvalue = [119, 31, 4806]"] ;
0 -> 1 [labeldistance=2.5, labelangle=45, headlabel="True"] ;
2 [label="X[9] <= 3.206\ngini = 0.044\nsamples = 4555\nvalue = [75, 28, 4452]"] ;
1 -> 2 ;
3 [label="X[6] <= 1.5\ngini = 0.196\nsamples = 265\nvalue = [28, 1, 236]"] ;
2 -> 3 ;
4 [label="X[1] <= -22.5\ngini = 0.155\nsamples = 225\nvalue = [18, 1, 206]"] ;
3 -> 4 ;
5 [label="X[9] <= 0.681\ngini = 0.48\nsamples = 5\nvalue = [2, 0, 3]"] ;
4 -> 5 ;
6 [label="gini = 0.0\nsamples = 2\nvalue = [2, 0, 0]"] ;
5 -> 6 ;
7 [label="gini = 0.0\nsamples = 3\nvalue = [0, 0, 3]"] ;
5 -> 7 ;
8 [label="X[7] <= 9.5\ngini = 0.143\nsamples = 220\nvalue = [16, 1, 203]"] ;
4 -> 8 ;
9 [label="X[7] <= 3.5\ngini = 0.119\nsamples = 205\nvalue = [12, 1, 192]"] ;
8 -> 9 ;
10 [label="X[0] <= 0.5\ngini = 0.56\nsamples = 5\nvalue = [1, 1, 3]"] ;
9 -> 10 ;
11 [label="X[9] <= 1.094\ngini = 0.5\nsamples = 2\nvalue = [1, 1, 0]"] ;
10 -> 11 ;
12 [label="gini = 0.0\nsamples = 1\nvalue = [1, 0, 0]"] ;
11 -> 12 ;
13 [label="gini = 0.0\nsamples = 1\nvalue = [0, 1, 0]"] ;
11 -> 13 ;
14 [label="gini = 0.0\nsamples = 3\nvalue = [0, 0, 3]"] ;
10 -> 14 ;
15 [label="X[9] <= 2.548\ngini = 0.104\nsamples = 200\nvalue = [11, 0, 189]"] ;
9 -> 15 ;
16 [label="X[0] <= 1.5\ngini = 0.044\nsamples = 133\nvalue = [3, 0, 130]"] ;
15 -> 16 ;
17 [label="gini = 0.0\nsamples = 96\nvalue = [0, 0, 96]"] ;
16 -> 17 ;
18 [label="X[13] <= 1.5\ngini = 0.149\nsamples = 37\nvalue = [3, 0, 34]"] ;
16 -> 18 ;
19 [label="X[1] <= 1043.5\ngini = 0.444\nsamples = 6\nvalue = [2, 0, 4]"] ;
18 -> 19 ;
20 [label="gini = 0.0\nsamples = 4\nvalue = [0, 0, 4]"] ;
19 -> 20 ;
21 [label="gini = 0.0\nsamples = 2\nvalue = [2, 0, 0]"] ;
19 -> 21 ;
22 [label="X[9] <= 2.147\ngini = 0.062\nsamples = 31\nvalue = [1, 0, 30]"] ;
18 -> 22 ;
23 [label="gini = 0.0\nsamples = 26\nvalue = [0, 0, 26]"] ;
22 -> 23 ;
24 [label="X[5] <= 1.5\ngini = 0.32\nsamples = 5\nvalue = [1, 0, 4]"] ;
22 -> 24 ;
25 [label="gini = 0.0\nsamples = 4\nvalue = [0, 0, 4]"] ;
24 -> 25 ;
26 [label="gini = 0.0\nsamples = 1\nvalue = [1, 0, 0]"] ;
24 -> 26 ;
27 [label="X[9] <= 2.59\ngini = 0.21\nsamples = 67\nvalue = [8, 0, 59]"] ;
15 -> 27 ;
28 [label="X[7] <= 8.0\ngini = 0.444\nsamples = 3\nvalue = [2, 0, 1]"] ;
27 -> 28 ;
29 [label="gini = 0.0\nsamples = 2\nvalue = [2, 0, 0]"] ;
28 -> 29 ;
30 [label="gini = 0.0\nsamples = 1\nvalue = [0, 0, 1]"] ;
28 -> 30 ;
31 [label="X[11] <= 0.5\ngini = 0.17\nsamples = 64\nvalue = [6, 0, 58]"] ;
27 -> 31 ;
32 [label="X[4] <= 19.0\ngini = 0.5\nsamples = 4\nvalue = [2, 0, 2]"] ;
31 -> 32 ;
33 [label="X[14] <= 5.0\ngini = 0.444\nsamples = 3\nvalue = [2, 0, 1]"] ;
32 -> 33 ;
34 [label="gini = 0.0\nsamples = 1\nvalue = [0, 0, 1]"] ;
33 -> 34 ;
35 [label="gini = 0.0\nsamples = 2\nvalue = [2, 0, 0]"] ;
33 -> 35 ;
36 [label="gini = 0.0\nsamples = 1\nvalue = [0, 0, 1]"] ;
32 -> 36 ;
37 [label="X[5] <= 7.5\ngini = 0.124\nsamples = 60\nvalue = [4, 0, 56]"] ;
31 -> 37 ;
38 [label="X[1] <= 4.0\ngini = 0.041\nsamples = 48\nvalue = [1, 0, 47]"] ;
37 -> 38 ;
39 [label="X[8] <= 0.5\ngini = 0.444\nsamples = 3\nvalue = [1, 0, 2]"] ;
38 -> 39 ;
40 [label="gini = 0.0\nsamples = 1\nvalue = [1, 0, 0]"] ;
39 -> 40 ;
41 [label="gini = 0.0\nsamples = 2\nvalue = [0, 0, 2]"] ;
39 -> 41 ;
42 [label="gini = 0.0\nsamples = 45\nvalue = [0, 0, 45]"] ;
38 -> 42 ;
43 [label="X[2] <= 223.0\ngini = 0.375\nsamples = 12\nvalue = [3, 0, 9]"] ;
37 -> 43 ;
44 [label="X[1] <= 1031.5\ngini = 0.48\nsamples = 5\nvalue = [3, 0, 2]"] ;
43 -> 44 ;
45 [label="gini = 0.0\nsamples = 3\nvalue = [3, 0, 0]"] ;
44 -> 45 ;
46 [label="gini = 0.0\nsamples = 2\nvalue = [0, 0, 2]"] ;
44 -> 46 ;
47 [label="gini = 0.0\nsamples = 7\nvalue = [0, 0, 7]"] ;
43 -> 47 ;
48 [label="X[4] <= 12.5\ngini = 0.391\nsamples = 15\nvalue = [4, 0, 11]"] ;
8 -> 48 ;
49 [label="gini = 0.0\nsamples = 3\nvalue = [3, 0, 0]"] ;
48 -> 49 ;
50 [label="X[16] <= 5.5\ngini = 0.153\nsamples = 12\nvalue = [1, 0, 11]"] ;
48 -> 50 ;
51 [label="gini = 0.0\nsamples = 11\nvalue = [0, 0, 11]"] ;
50 -> 51 ;
52 [label="gini = 0.0\nsamples = 1\nvalue = [1, 0, 0]"] ;
50 -> 52 ;
53 [label="X[0] <= 1.5\ngini = 0.375\nsamples = 40\nvalue = [10, 0, 30]"] ;
3 -> 53 ;
54 [label="X[12] <= 3.5\ngini = 0.074\nsamples = 26\nvalue = [1, 0, 25]"] ;
53 -> 54 ;
55 [label="X[1] <= 605.0\ngini = 0.375\nsamples = 4\nvalue = [1, 0, 3]"] ;
54 -> 55 ;
56 [label="gini = 0.0\nsamples = 3\nvalue = [0, 0, 3]"] ;
55 -> 56 ;
57 [label="gini = 0.0\nsamples = 1\nvalue = [1, 0, 0]"] ;
55 -> 57 ;
58 [label="gini = 0.0\nsamples = 22\nvalue = [0, 0, 22]"] ;
54 -> 58 ;
59 [label="X[1] <= 530.5\ngini = 0.459\nsamples = 14\nvalue = [9, 0, 5]"] ;
53 -> 59 ;
60 [label="gini = 0.0\nsamples = 5\nvalue = [0, 0, 5]"] ;
59 -> 60 ;
61 [label="gini = 0.0\nsamples = 9\nvalue = [9, 0, 0]"] ;
59 -> 61 ;
62 [label="X[7] <= 1.0\ngini = 0.034\nsamples = 4290\nvalue = [47, 27, 4216]"] ;
2 -> 62 ;
63 [label="X[13] <= 3.5\ngini = 0.5\nsamples = 4\nvalue = [0, 2, 2]"] ;
62 -> 63 ;
64 [label="gini = 0.0\nsamples = 2\nvalue = [0, 2, 0]"] ;
63 -> 64 ;
65 [label="gini = 0.0\nsamples = 2\nvalue = [0, 0, 2]"] ;
63 -> 65 ;
66 [label="X[9] <= 16.23\ngini = 0.033\nsamples = 4286\nvalue = [47, 25, 4214]"] ;
62 -> 66 ;
67 [label="X[9] <= 16.222\ngini = 0.083\nsamples = 1073\nvalue = [29, 17, 1027]"] ;
66 -> 67 ;
68 [label="X[8] <= 1.5\ngini = 0.078\nsamples = 1070\nvalue = [26, 17, 1027]"] ;
67 -> 68 ;
69 [label="X[1] <= -37.0\ngini = 0.063\nsamples = 1026\nvalue = [25, 8, 993]"] ;
68 -> 69 ;
70 [label="X[11] <= 4.5\ngini = 0.5\nsamples = 2\nvalue = [1, 0, 1]"] ;
69 -> 70 ;
71 [label="gini = 0.0\nsamples = 1\nvalue = [0, 0, 1]"] ;
70 -> 71 ;
72 [label="gini = 0.0\nsamples = 1\nvalue = [1, 0, 0]"] ;
70 -> 72 ;
73 [label="X[7] <= 8.5\ngini = 0.061\nsamples = 1024\nvalue = [24, 8, 992]"] ;
69 -> 73 ;
74 [label="X[12] <= 0.5\ngini = 0.044\nsamples = 846\nvalue = [15, 4, 827]"] ;
73 -> 74 ;
75 [label="X[1] <= 1021.0\ngini = 0.278\nsamples = 6\nvalue = [0, 1, 5]"] ;
74 -> 75 ;
76 [label="gini = 0.0\nsamples = 5\nvalue = [0, 0, 5]"] ;
75 -> 76 ;
77 [label="gini = 0.0\nsamples = 1\nvalue = [0, 1, 0]"] ;
75 -> 77 ;
78 [label="X[11] <= 11.5\ngini = 0.042\nsamples = 840\nvalue = [15, 3, 822]"] ;
74 -> 78 ;
79 [label="X[1] <= 1635.5\ngini = 0.04\nsamples = 832\nvalue = [15, 2, 815]"] ;
78 -> 79 ;
80 [label="X[4] <= 17.5\ngini = 0.034\nsamples = 763\nvalue = [12, 1, 750]"] ;
79 -> 80 ;
81 [label="X[4] <= 4.5\ngini = 0.021\nsamples = 566\nvalue = [5, 1, 560]"] ;
80 -> 81 ;
82 [label="X[1] <= 357.5\ngini = 0.074\nsamples = 104\nvalue = [4, 0, 100]"] ;
81 -> 82 ;
83 [label="gini = 0.0\nsamples = 62\nvalue = [0, 0, 62]"] ;
82 -> 83 ;
84 [label="X[1] <= 363.5\ngini = 0.172\nsamples = 42\nvalue = [4, 0, 38]"] ;
82 -> 84 ;
85 [label="gini = 0.0\nsamples = 1\nvalue = [1, 0, 0]"] ;
84 -> 85 ;
86 [label="X[5] <= 2.5\ngini = 0.136\nsamples = 41\nvalue = [3, 0, 38]"] ;
84 -> 86 ;
87 [label="X[13] <= 4.5\ngini = 0.062\nsamples = 31\nvalue = [1, 0, 30]"] ;
86 -> 87 ;
88 [label="gini = 0.0\nsamples = 26\nvalue = [0, 0, 26]"] ;
87 -> 88 ;
89 [label="X[9] <= 13.677\ngini = 0.32\nsamples = 5\nvalue = [1, 0, 4]"] ;
87 -> 89 ;
90 [label="gini = 0.0\nsamples = 3\nvalue = [0, 0, 3]"] ;
89 -> 90 ;
91 [label="X[1] <= 428.0\ngini = 0.5\nsamples = 2\nvalue = [1, 0, 1]"] ;
89 -> 91 ;
92 [label="gini = 0.0\nsamples = 1\nvalue = [0, 0, 1]"] ;
91 -> 92 ;
93 [label="gini = 0.0\nsamples = 1\nvalue = [1, 0, 0]"] ;
91 -> 93 ;
94 [label="X[1] <= 384.0\ngini = 0.32\nsamples = 10\nvalue = [2, 0, 8]"] ;
86 -> 94 ;
95 [label="gini = 0.0\nsamples = 1\nvalue = [1, 0, 0]"] ;
94 -> 95 ;
96 [label="X[13] <= 2.5\ngini = 0.198\nsamples = 9\nvalue = [1, 0, 8]"] ;
94 -> 96 ;
97 [label="gini = 0.0\nsamples = 7\nvalue = [0, 0, 7]"] ;
96 -> 97 ;
98 [label="X[5] <= 5.5\ngini = 0.5\nsamples = 2\nvalue = [1, 0, 1]"] ;
96 -> 98 ;
99 [label="gini = 0.0\nsamples = 1\nvalue = [1, 0, 0]"] ;
98 -> 99 ;
100 [label="gini = 0.0\nsamples = 1\nvalue = [0, 0, 1]"] ;
98 -> 100 ;
101 [label="X[2] <= 723.0\ngini = 0.009\nsamples = 462\nvalue = [1, 1, 460]"] ;
81 -> 101 ;
102 [label="gini = 0.0\nsamples = 398\nvalue = [0, 0, 398]"] ;
101 -> 102 ;
103 [label="X[1] <= 1492.5\ngini = 0.061\nsamples = 64\nvalue = [1, 1, 62]"] ;
101 -> 103 ;
104 [label="X[10] <= 1999.5\ngini = 0.031\nsamples = 63\nvalue = [1, 0, 62]"] ;
103 -> 104 ;
105 [label="X[9] <= 13.032\ngini = 0.198\nsamples = 9\nvalue = [1, 0, 8]"] ;
104 -> 105 ;
106 [label="X[11] <= 6.0\ngini = 0.5\nsamples = 2\nvalue = [1, 0, 1]"] ;
105 -> 106 ;
107 [label="gini = 0.0\nsamples = 1\nvalue = [1, 0, 0]"] ;
106 -> 107 ;
108 [label="gini = 0.0\nsamples = 1\nvalue = [0, 0, 1]"] ;
106 -> 108 ;
109 [label="gini = 0.0\nsamples = 7\nvalue = [0, 0, 7]"] ;
105 -> 109 ;
110 [label="gini = 0.0\nsamples = 54\nvalue = [0, 0, 54]"] ;
104 -> 110 ;
111 [label="gini = 0.0\nsamples = 1\nvalue = [0, 1, 0]"] ;
103 -> 111 ;
112 [label="X[9] <= 3.852\ngini = 0.069\nsamples = 197\nvalue = [7, 0, 190]"] ;
80 -> 112 ;
113 [label="X[13] <= 4.0\ngini = 0.5\nsamples = 2\nvalue = [1, 0, 1]"] ;
112 -> 113 ;
114 [label="gini = 0.0\nsamples = 1\nvalue = [1, 0, 0]"] ;
113 -> 114 ;
115 [label="gini = 0.0\nsamples = 1\nvalue = [0, 0, 1]"] ;
113 -> 115 ;
116 [label="X[2] <= 691.0\ngini = 0.06\nsamples = 195\nvalue = [6, 0, 189]"] ;
112 -> 116 ;
117 [label="X[3] <= 5.5\ngini = 0.043\nsamples = 184\nvalue = [4, 0, 180]"] ;
116 -> 117 ;
118 [label="X[3] <= 4.5\ngini = 0.093\nsamples = 82\nvalue = [4, 0, 78]"] ;
117 -> 118 ;
119 [label="X[9] <= 15.59\ngini = 0.072\nsamples = 80\nvalue = [3, 0, 77]"] ;
118 -> 119 ;
120 [label="X[2] <= 306.0\ngini = 0.05\nsamples = 78\nvalue = [2, 0, 76]"] ;
119 -> 120 ;
121 [label="X[9] <= 7.84\ngini = 0.028\nsamples = 71\nvalue = [1, 0, 70]"] ;
120 -> 121 ;
122 [label="X[10] <= 2005.0\ngini = 0.111\nsamples = 17\nvalue = [1, 0, 16]"] ;
121 -> 122 ;
123 [label="X[1] <= 122.0\ngini = 0.5\nsamples = 2\nvalue = [1, 0, 1]"] ;
122 -> 123 ;
124 [label="gini = 0.0\nsamples = 1\nvalue = [0, 0, 1]"] ;
123 -> 124 ;
125 [label="gini = 0.0\nsamples = 1\nvalue = [1, 0, 0]"] ;
123 -> 125 ;
126 [label="gini = 0.0\nsamples = 15\nvalue = [0, 0, 15]"] ;
122 -> 126 ;
127 [label="gini = 0.0\nsamples = 54\nvalue = [0, 0, 54]"] ;
121 -> 127 ;
128 [label="X[5] <= 6.0\ngini = 0.245\nsamples = 7\nvalue = [1, 0, 6]"] ;
120 -> 128 ;
129 [label="gini = 0.0\nsamples = 6\nvalue = [0, 0, 6]"] ;
128 -> 129 ;
130 [label="gini = 0.0\nsamples = 1\nvalue = [1, 0, 0]"] ;
128 -> 130 ;
131 [label="X[2] <= 205.5\ngini = 0.5\nsamples = 2\nvalue = [1, 0, 1]"] ;
119 -> 131 ;
132 [label="gini = 0.0\nsamples = 1\nvalue = [0, 0, 1]"] ;
131 -> 132 ;
133 [label="gini = 0.0\nsamples = 1\nvalue = [1, 0, 0]"] ;
131 -> 133 ;
134 [label="X[11] <= 5.5\ngini = 0.5\nsamples = 2\nvalue = [1, 0, 1]"] ;
118 -> 134 ;
135 [label="gini = 0.0\nsamples = 1\nvalue = [1, 0, 0]"] ;
134 -> 135 ;
136 [label="gini = 0.0\nsamples = 1\nvalue = [0, 0, 1]"] ;
134 -> 136 ;
137 [label="gini = 0.0\nsamples = 102\nvalue = [0, 0, 102]"] ;
117 -> 137 ;
138 [label="X[1] <= 72.0\ngini = 0.298\nsamples = 11\nvalue = [2, 0, 9]"] ;
116 -> 138 ;
139 [label="X[11] <= 8.0\ngini = 0.444\nsamples = 3\nvalue = [2, 0, 1]"] ;
138 -> 139 ;
140 [label="gini = 0.0\nsamples = 1\nvalue = [0, 0, 1]"] ;
139 -> 140 ;
141 [label="gini = 0.0\nsamples = 2\nvalue = [2, 0, 0]"] ;
139 -> 141 ;
142 [label="gini = 0.0\nsamples = 8\nvalue = [0, 0, 8]"] ;
138 -> 142 ;
143 [label="X[11] <= 0.5\ngini = 0.11\nsamples = 69\nvalue = [3, 1, 65]"] ;
79 -> 143 ;
144 [label="gini = 0.0\nsamples = 1\nvalue = [1, 0, 0]"] ;
143 -> 144 ;
145 [label="X[9] <= 4.16\ngini = 0.085\nsamples = 68\nvalue = [2, 1, 65]"] ;
143 -> 145 ;
146 [label="X[2] <= 141.5\ngini = 0.444\nsamples = 3\nvalue = [1, 0, 2]"] ;
145 -> 146 ;
147 [label="gini = 0.0\nsamples = 1\nvalue = [1, 0, 0]"] ;
146 -> 147 ;
148 [label="gini = 0.0\nsamples = 2\nvalue = [0, 0, 2]"] ;
146 -> 148 ;
149 [label="X[11] <= 10.5\ngini = 0.06\nsamples = 65\nvalue = [1, 1, 63]"] ;
145 -> 149 ;
150 [label="X[9] <= 15.149\ngini = 0.033\nsamples = 59\nvalue = [1, 0, 58]"] ;
149 -> 150 ;
151 [label="gini = 0.0\nsamples = 48\nvalue = [0, 0, 48]"] ;
150 -> 151 ;
152 [label="X[9] <= 15.16\ngini = 0.165\nsamples = 11\nvalue = [1, 0, 10]"] ;
150 -> 152 ;
153 [label="gini = 0.0\nsamples = 1\nvalue = [1, 0, 0]"] ;
152 -> 153 ;
154 [label="gini = 0.0\nsamples = 10\nvalue = [0, 0, 10]"] ;
152 -> 154 ;
155 [label="X[7] <= 7.5\ngini = 0.278\nsamples = 6\nvalue = [0, 1, 5]"] ;
149 -> 155 ;
156 [label="gini = 0.0\nsamples = 5\nvalue = [0, 0, 5]"] ;
155 -> 156 ;
157 [label="gini = 0.0\nsamples = 1\nvalue = [0, 1, 0]"] ;
155 -> 157 ;
158 [label="X[5] <= 1.5\ngini = 0.219\nsamples = 8\nvalue = [0, 1, 7]"] ;
78 -> 158 ;
159 [label="X[13] <= 4.5\ngini = 0.5\nsamples = 2\nvalue = [0, 1, 1]"] ;
158 -> 159 ;
160 [label="gini = 0.0\nsamples = 1\nvalue = [0, 1, 0]"] ;
159 -> 160 ;
161 [label="gini = 0.0\nsamples = 1\nvalue = [0, 0, 1]"] ;
159 -> 161 ;
162 [label="gini = 0.0\nsamples = 6\nvalue = [0, 0, 6]"] ;
158 -> 162 ;
163 [label="X[9] <= 6.813\ngini = 0.138\nsamples = 178\nvalue = [9, 4, 165]"] ;
73 -> 163 ;
164 [label="X[11] <= 5.5\ngini = 0.417\nsamples = 22\nvalue = [5, 1, 16]"] ;
163 -> 164 ;
165 [label="X[0] <= 1.5\ngini = 0.579\nsamples = 11\nvalue = [5, 1, 5]"] ;
164 -> 165 ;
166 [label="gini = 0.0\nsamples = 3\nvalue = [3, 0, 0]"] ;
165 -> 166 ;
167 [label="X[14] <= 1.5\ngini = 0.531\nsamples = 8\nvalue = [2, 1, 5]"] ;
165 -> 167 ;
168 [label="gini = 0.0\nsamples = 1\nvalue = [0, 1, 0]"] ;
167 -> 168 ;
169 [label="X[2] <= 100.5\ngini = 0.408\nsamples = 7\nvalue = [2, 0, 5]"] ;
167 -> 169 ;
170 [label="gini = 0.0\nsamples = 1\nvalue = [1, 0, 0]"] ;
169 -> 170 ;
171 [label="X[1] <= 1529.0\ngini = 0.278\nsamples = 6\nvalue = [1, 0, 5]"] ;
169 -> 171 ;
172 [label="gini = 0.0\nsamples = 4\nvalue = [0, 0, 4]"] ;
171 -> 172 ;
173 [label="X[10] <= 2008.5\ngini = 0.5\nsamples = 2\nvalue = [1, 0, 1]"] ;
171 -> 173 ;
174 [label="gini = 0.0\nsamples = 1\nvalue = [1, 0, 0]"] ;
173 -> 174 ;
175 [label="gini = 0.0\nsamples = 1\nvalue = [0, 0, 1]"] ;
173 -> 175 ;
176 [label="gini = 0.0\nsamples = 11\nvalue = [0, 0, 11]"] ;
164 -> 176 ;
177 [label="X[4] <= 5.0\ngini = 0.087\nsamples = 156\nvalue = [4, 3, 149]"] ;
163 -> 177 ;
178 [label="X[11] <= 8.5\ngini = 0.172\nsamples = 21\nvalue = [2, 0, 19]"] ;
177 -> 178 ;
179 [label="gini = 0.0\nsamples = 11\nvalue = [0, 0, 11]"] ;
178 -> 179 ;
180 [label="X[1] <= 314.5\ngini = 0.32\nsamples = 10\nvalue = [2, 0, 8]"] ;
178 -> 180 ;
181 [label="gini = 0.0\nsamples = 1\nvalue = [1, 0, 0]"] ;
180 -> 181 ;
182 [label="X[1] <= 381.0\ngini = 0.198\nsamples = 9\nvalue = [1, 0, 8]"] ;
180 -> 182 ;
183 [label="gini = 0.0\nsamples = 7\nvalue = [0, 0, 7]"] ;
182 -> 183 ;
184 [label="X[12] <= 3.5\ngini = 0.5\nsamples = 2\nvalue = [1, 0, 1]"] ;
182 -> 184 ;
185 [label="gini = 0.0\nsamples = 1\nvalue = [0, 0, 1]"] ;
184 -> 185 ;
186 [label="gini = 0.0\nsamples = 1\nvalue = [1, 0, 0]"] ;
184 -> 186 ;
187 [label="X[9] <= 12.07\ngini = 0.072\nsamples = 135\nvalue = [2, 3, 130]"] ;
177 -> 187 ;
188 [label="X[9] <= 11.669\ngini = 0.166\nsamples = 45\nvalue = [2, 2, 41]"] ;
187 -> 188 ;
189 [label="X[9] <= 8.05\ngini = 0.094\nsamples = 41\nvalue = [1, 1, 39]"] ;
188 -> 189 ;
190 [label="X[1] <= 1512.5\ngini = 0.278\nsamples = 6\nvalue = [0, 1, 5]"] ;
189 -> 190 ;
191 [label="gini = 0.0\nsamples = 5\nvalue = [0, 0, 5]"] ;
190 -> 191 ;
192 [label="gini = 0.0\nsamples = 1\nvalue = [0, 1, 0]"] ;
190 -> 192 ;
193 [label="X[0] <= 0.5\ngini = 0.056\nsamples = 35\nvalue = [1, 0, 34]"] ;
189 -> 193 ;
194 [label="X[3] <= 3.5\ngini = 0.32\nsamples = 5\nvalue = [1, 0, 4]"] ;
193 -> 194 ;
195 [label="gini = 0.0\nsamples = 1\nvalue = [1, 0, 0]"] ;
194 -> 195 ;
196 [label="gini = 0.0\nsamples = 4\nvalue = [0, 0, 4]"] ;
194 -> 196 ;
197 [label="gini = 0.0\nsamples = 30\nvalue = [0, 0, 30]"] ;
193 -> 197 ;
198 [label="X[9] <= 11.769\ngini = 0.625\nsamples = 4\nvalue = [1, 1, 2]"] ;
188 -> 198 ;
199 [label="gini = 0.0\nsamples = 1\nvalue = [1, 0, 0]"] ;
198 -> 199 ;
200 [label="X[13] <= 4.0\ngini = 0.444\nsamples = 3\nvalue = [0, 1, 2]"] ;
198 -> 200 ;
201 [label="gini = 0.5\nsamples = 2\nvalue = [0, 1, 1]"] ;
200 -> 201 ;
202 [label="gini = 0.0\nsamples = 1\nvalue = [0, 0, 1]"] ;
200 -> 202 ;
203 [label="X[1] <= 0.5\ngini = 0.022\nsamples = 90\nvalue = [0, 1, 89]"] ;
187 -> 203 ;
204 [label="X[10] <= 1998.5\ngini = 0.056\nsamples = 35\nvalue = [0, 1, 34]"] ;
203 -> 204 ;
205 [label="gini = 0.0\nsamples = 24\nvalue = [0, 0, 24]"] ;
204 -> 205 ;
206 [label="X[9] <= 14.07\ngini = 0.165\nsamples = 11\nvalue = [0, 1, 10]"] ;
204 -> 206 ;
207 [label="gini = 0.0\nsamples = 8\nvalue = [0, 0, 8]"] ;
206 -> 207 ;
208 [label="X[9] <= 14.09\ngini = 0.444\nsamples = 3\nvalue = [0, 1, 2]"] ;
206 -> 208 ;
209 [label="gini = 0.0\nsamples = 1\nvalue = [0, 1, 0]"] ;
208 -> 209 ;
210 [label="gini = 0.0\nsamples = 2\nvalue = [0, 0, 2]"] ;
208 -> 210 ;
211 [label="gini = 0.0\nsamples = 55\nvalue = [0, 0, 55]"] ;
203 -> 211 ;
212 [label="X[11] <= 9.5\ngini = 0.361\nsamples = 44\nvalue = [1, 9, 34]"] ;
68 -> 212 ;
213 [label="X[16] <= 3.5\ngini = 0.116\nsamples = 33\nvalue = [1, 1, 31]"] ;
212 -> 213 ;
214 [label="X[14] <= 6.5\ngini = 0.292\nsamples = 12\nvalue = [1, 1, 10]"] ;
213 -> 214 ;
215 [label="gini = 0.0\nsamples = 7\nvalue = [0, 0, 7]"] ;
214 -> 215 ;
216 [label="X[9] <= 13.09\ngini = 0.56\nsamples = 5\nvalue = [1, 1, 3]"] ;
214 -> 216 ;
217 [label="X[16] <= 2.0\ngini = 0.667\nsamples = 3\nvalue = [1, 1, 1]"] ;
216 -> 217 ;
218 [label="gini = 0.0\nsamples = 1\nvalue = [0, 1, 0]"] ;
217 -> 218 ;
219 [label="X[1] <= 1543.0\ngini = 0.5\nsamples = 2\nvalue = [1, 0, 1]"] ;
217 -> 219 ;
220 [label="gini = 0.0\nsamples = 1\nvalue = [1, 0, 0]"] ;
219 -> 220 ;
221 [label="gini = 0.0\nsamples = 1\nvalue = [0, 0, 1]"] ;
219 -> 221 ;
222 [label="gini = 0.0\nsamples = 2\nvalue = [0, 0, 2]"] ;
216 -> 222 ;
223 [label="gini = 0.0\nsamples = 21\nvalue = [0, 0, 21]"] ;
213 -> 223 ;
224 [label="X[9] <= 13.046\ngini = 0.397\nsamples = 11\nvalue = [0, 8, 3]"] ;
212 -> 224 ;
225 [label="X[1] <= 1596.0\ngini = 0.198\nsamples = 9\nvalue = [0, 8, 1]"] ;
224 -> 225 ;
226 [label="gini = 0.0\nsamples = 1\nvalue = [0, 0, 1]"] ;
225 -> 226 ;
227 [label="gini = 0.0\nsamples = 8\nvalue = [0, 8, 0]"] ;
225 -> 227 ;
228 [label="gini = 0.0\nsamples = 2\nvalue = [0, 0, 2]"] ;
224 -> 228 ;
229 [label="gini = 0.0\nsamples = 3\nvalue = [3, 0, 0]"] ;
67 -> 229 ;
230 [label="X[11] <= 11.5\ngini = 0.016\nsamples = 3213\nvalue = [18, 8, 3187]"] ;
66 -> 230 ;
231 [label="X[11] <= 0.5\ngini = 0.015\nsamples = 3207\nvalue = [18, 7, 3182]"] ;
230 -> 231 ;
232 [label="X[7] <= 7.5\ngini = 0.215\nsamples = 17\nvalue = [1, 1, 15]"] ;
231 -> 232 ;
233 [label="X[1] <= 1502.0\ngini = 0.117\nsamples = 16\nvalue = [0, 1, 15]"] ;
232 -> 233 ;
234 [label="gini = 0.0\nsamples = 14\nvalue = [0, 0, 14]"] ;
233 -> 234 ;
235 [label="X[1] <= 1628.0\ngini = 0.5\nsamples = 2\nvalue = [0, 1, 1]"] ;
233 -> 235 ;
236 [label="gini = 0.0\nsamples = 1\nvalue = [0, 1, 0]"] ;
235 -> 236 ;
237 [label="gini = 0.0\nsamples = 1\nvalue = [0, 0, 1]"] ;
235 -> 237 ;
238 [label="gini = 0.0\nsamples = 1\nvalue = [1, 0, 0]"] ;
232 -> 238 ;
239 [label="X[2] <= 49.0\ngini = 0.014\nsamples = 3190\nvalue = [17, 6, 3167]"] ;
231 -> 239 ;
240 [label="X[9] <= 2011.534\ngini = 0.245\nsamples = 7\nvalue = [1, 0, 6]"] ;
239 -> 240 ;
241 [label="gini = 0.0\nsamples = 6\nvalue = [0, 0, 6]"] ;
240 -> 241 ;
242 [label="gini = 0.0\nsamples = 1\nvalue = [1, 0, 0]"] ;
240 -> 242 ;
243 [label="X[11] <= 10.5\ngini = 0.014\nsamples = 3183\nvalue = [16, 6, 3161]"] ;
239 -> 243 ;
244 [label="X[1] <= 1460.0\ngini = 0.013\nsamples = 3128\nvalue = [14, 6, 3108]"] ;
243 -> 244 ;
245 [label="X[13] <= 0.5\ngini = 0.009\nsamples = 2655\nvalue = [9, 3, 2643]"] ;
244 -> 245 ;
246 [label="X[4] <= 21.0\ngini = 0.055\nsamples = 71\nvalue = [0, 2, 69]"] ;
245 -> 246 ;
247 [label="X[9] <= 19.19\ngini = 0.028\nsamples = 70\nvalue = [0, 1, 69]"] ;
246 -> 247 ;
248 [label="X[1] <= 888.5\ngini = 0.124\nsamples = 15\nvalue = [0, 1, 14]"] ;
247 -> 248 ;
249 [label="X[1] <= 875.0\ngini = 0.278\nsamples = 6\nvalue = [0, 1, 5]"] ;
248 -> 249 ;
250 [label="gini = 0.0\nsamples = 5\nvalue = [0, 0, 5]"] ;
249 -> 250 ;
251 [label="gini = 0.0\nsamples = 1\nvalue = [0, 1, 0]"] ;
249 -> 251 ;
252 [label="gini = 0.0\nsamples = 9\nvalue = [0, 0, 9]"] ;
248 -> 252 ;
253 [label="gini = 0.0\nsamples = 55\nvalue = [0, 0, 55]"] ;
247 -> 253 ;
254 [label="gini = 0.0\nsamples = 1\nvalue = [0, 1, 0]"] ;
246 -> 254 ;
255 [label="X[10] <= 1974.5\ngini = 0.008\nsamples = 2584\nvalue = [9, 1, 2574]"] ;
245 -> 255 ;
256 [label="X[13] <= 1.5\ngini = 0.018\nsamples = 659\nvalue = [6, 0, 653]"] ;
255 -> 256 ;
257 [label="X[4] <= 3.5\ngini = 0.198\nsamples = 9\nvalue = [1, 0, 8]"] ;
256 -> 257 ;
258 [label="gini = 0.0\nsamples = 1\nvalue = [1, 0, 0]"] ;
257 -> 258 ;
259 [label="gini = 0.0\nsamples = 8\nvalue = [0, 0, 8]"] ;
257 -> 259 ;
260 [label="X[9] <= 37.157\ngini = 0.015\nsamples = 650\nvalue = [5, 0, 645]"] ;
256 -> 260 ;
261 [label="X[17] <= 2.0\ngini = 0.153\nsamples = 12\nvalue = [1, 0, 11]"] ;
260 -> 261 ;
262 [label="gini = 0.0\nsamples = 11\nvalue = [0, 0, 11]"] ;
261 -> 262 ;
263 [label="gini = 0.0\nsamples = 1\nvalue = [1, 0, 0]"] ;
261 -> 263 ;
264 [label="X[0] <= 0.5\ngini = 0.012\nsamples = 638\nvalue = [4, 0, 634]"] ;
260 -> 264 ;
265 [label="X[9] <= 37.591\ngini = 0.04\nsamples = 98\nvalue = [2, 0, 96]"] ;
264 -> 265 ;
266 [label="X[4] <= 17.5\ngini = 0.375\nsamples = 4\nvalue = [1, 0, 3]"] ;
265 -> 266 ;
267 [label="gini = 0.0\nsamples = 3\nvalue = [0, 0, 3]"] ;
266 -> 267 ;
268 [label="gini = 0.0\nsamples = 1\nvalue = [1, 0, 0]"] ;
266 -> 268 ;
269 [label="X[17] <= 2.0\ngini = 0.021\nsamples = 94\nvalue = [1, 0, 93]"] ;
265 -> 269 ;
270 [label="gini = 0.0\nsamples = 66\nvalue = [0, 0, 66]"] ;
269 -> 270 ;
271 [label="X[1] <= 0.5\ngini = 0.069\nsamples = 28\nvalue = [1, 0, 27]"] ;
269 -> 271 ;
272 [label="X[2] <= 273.0\ngini = 0.245\nsamples = 7\nvalue = [1, 0, 6]"] ;
271 -> 272 ;
273 [label="X[9] <= 2011.527\ngini = 0.444\nsamples = 3\nvalue = [1, 0, 2]"] ;
272 -> 273 ;
274 [label="gini = 0.0\nsamples = 2\nvalue = [0, 0, 2]"] ;
273 -> 274 ;
275 [label="gini = 0.0\nsamples = 1\nvalue = [1, 0, 0]"] ;
273 -> 275 ;
276 [label="gini = 0.0\nsamples = 4\nvalue = [0, 0, 4]"] ;
272 -> 276 ;
277 [label="gini = 0.0\nsamples = 21\nvalue = [0, 0, 21]"] ;
271 -> 277 ;
278 [label="X[16] <= 5.5\ngini = 0.007\nsamples = 540\nvalue = [2, 0, 538]"] ;
264 -> 278 ;
279 [label="X[12] <= 0.5\ngini = 0.004\nsamples = 504\nvalue = [1, 0, 503]"] ;
278 -> 279 ;
280 [label="X[1] <= 5.5\ngini = 0.036\nsamples = 55\nvalue = [1, 0, 54]"] ;
279 -> 280 ;
281 [label="X[1] <= 4.5\ngini = 0.165\nsamples = 11\nvalue = [1, 0, 10]"] ;
280 -> 281 ;
282 [label="gini = 0.0\nsamples = 7\nvalue = [0, 0, 7]"] ;
281 -> 282 ;
283 [label="X[9] <= 2011.271\ngini = 0.375\nsamples = 4\nvalue = [1, 0, 3]"] ;
281 -> 283 ;
284 [label="X[3] <= 7.0\ngini = 0.5\nsamples = 2\nvalue = [1, 0, 1]"] ;
283 -> 284 ;
285 [label="gini = 0.0\nsamples = 1\nvalue = [0, 0, 1]"] ;
284 -> 285 ;
286 [label="gini = 0.0\nsamples = 1\nvalue = [1, 0, 0]"] ;
284 -> 286 ;
287 [label="gini = 0.0\nsamples = 2\nvalue = [0, 0, 2]"] ;
283 -> 287 ;
288 [label="gini = 0.0\nsamples = 44\nvalue = [0, 0, 44]"] ;
280 -> 288 ;
289 [label="gini = 0.0\nsamples = 449\nvalue = [0, 0, 449]"] ;
279 -> 289 ;
290 [label="X[9] <= 2011.23\ngini = 0.054\nsamples = 36\nvalue = [1, 0, 35]"] ;
278 -> 290 ;
291 [label="gini = 0.0\nsamples = 35\nvalue = [0, 0, 35]"] ;
290 -> 291 ;
292 [label="gini = 0.0\nsamples = 1\nvalue = [1, 0, 0]"] ;
290 -> 292 ;
293 [label="X[2] <= 771.5\ngini = 0.004\nsamples = 1925\nvalue = [3, 1, 1921]"] ;
255 -> 293 ;
294 [label="X[9] <= 17.566\ngini = 0.003\nsamples = 1850\nvalue = [2, 1, 1847]"] ;
293 -> 294 ;
295 [label="X[9] <= 17.563\ngini = 0.029\nsamples = 69\nvalue = [1, 0, 68]"] ;
294 -> 295 ;
296 [label="gini = 0.0\nsamples = 67\nvalue = [0, 0, 67]"] ;
295 -> 296 ;
297 [label="X[16] <= 5.5\ngini = 0.5\nsamples = 2\nvalue = [1, 0, 1]"] ;
295 -> 297 ;
298 [label="gini = 0.0\nsamples = 1\nvalue = [0, 0, 1]"] ;
297 -> 298 ;
299 [label="gini = 0.0\nsamples = 1\nvalue = [1, 0, 0]"] ;
297 -> 299 ;
300 [label="X[1] <= 744.5\ngini = 0.002\nsamples = 1781\nvalue = [1, 1, 1779]"] ;
294 -> 300 ;
301 [label="gini = 0.0\nsamples = 1485\nvalue = [0, 0, 1485]"] ;
300 -> 301 ;
302 [label="X[1] <= 747.5\ngini = 0.013\nsamples = 296\nvalue = [1, 1, 294]"] ;
300 -> 302 ;
303 [label="gini = 0.0\nsamples = 1\nvalue = [1, 0, 0]"] ;
302 -> 303 ;
304 [label="X[9] <= 35.118\ngini = 0.007\nsamples = 295\nvalue = [0, 1, 294]"] ;
302 -> 304 ;
305 [label="gini = 0.0\nsamples = 246\nvalue = [0, 0, 246]"] ;
304 -> 305 ;
306 [label="X[1] <= 1017.0\ngini = 0.04\nsamples = 49\nvalue = [0, 1, 48]"] ;
304 -> 306 ;
307 [label="gini = 0.0\nsamples = 45\nvalue = [0, 0, 45]"] ;
306 -> 307 ;
308 [label="X[9] <= 35.676\ngini = 0.375\nsamples = 4\nvalue = [0, 1, 3]"] ;
306 -> 308 ;
309 [label="gini = 0.0\nsamples = 1\nvalue = [0, 1, 0]"] ;
308 -> 309 ;
310 [label="gini = 0.0\nsamples = 3\nvalue = [0, 0, 3]"] ;
308 -> 310 ;
311 [label="X[4] <= 15.0\ngini = 0.026\nsamples = 75\nvalue = [1, 0, 74]"] ;
293 -> 311 ;
312 [label="gini = 0.0\nsamples = 66\nvalue = [0, 0, 66]"] ;
311 -> 312 ;
313 [label="X[9] <= 21.597\ngini = 0.198\nsamples = 9\nvalue = [1, 0, 8]"] ;
311 -> 313 ;
314 [label="gini = 0.0\nsamples = 5\nvalue = [0, 0, 5]"] ;
313 -> 314 ;
315 [label="X[9] <= 21.601\ngini = 0.375\nsamples = 4\nvalue = [1, 0, 3]"] ;
313 -> 315 ;
316 [label="X[14] <= 6.5\ngini = 0.5\nsamples = 2\nvalue = [1, 0, 1]"] ;
315 -> 316 ;
317 [label="gini = 0.0\nsamples = 1\nvalue = [1, 0, 0]"] ;
316 -> 317 ;
318 [label="gini = 0.0\nsamples = 1\nvalue = [0, 0, 1]"] ;
316 -> 318 ;
319 [label="gini = 0.0\nsamples = 2\nvalue = [0, 0, 2]"] ;
315 -> 319 ;
320 [label="X[1] <= 1461.5\ngini = 0.033\nsamples = 473\nvalue = [5, 3, 465]"] ;
244 -> 320 ;
321 [label="gini = 0.0\nsamples = 1\nvalue = [1, 0, 0]"] ;
320 -> 321 ;
322 [label="X[11] <= 4.5\ngini = 0.029\nsamples = 472\nvalue = [4, 3, 465]"] ;
320 -> 322 ;
323 [label="X[16] <= 5.5\ngini = 0.013\nsamples = 317\nvalue = [2, 0, 315]"] ;
322 -> 323 ;
324 [label="gini = 0.0\nsamples = 219\nvalue = [0, 0, 219]"] ;
323 -> 324 ;
325 [label="X[1] <= 1687.5\ngini = 0.04\nsamples = 98\nvalue = [2, 0, 96]"] ;
323 -> 325 ;
326 [label="X[1] <= 1683.0\ngini = 0.078\nsamples = 49\nvalue = [2, 0, 47]"] ;
325 -> 326 ;
327 [label="X[9] <= 26.677\ngini = 0.042\nsamples = 47\nvalue = [1, 0, 46]"] ;
326 -> 327 ;
328 [label="gini = 0.0\nsamples = 36\nvalue = [0, 0, 36]"] ;
327 -> 328 ;
329 [label="X[1] <= 1607.5\ngini = 0.165\nsamples = 11\nvalue = [1, 0, 10]"] ;
327 -> 329 ;
330 [label="gini = 0.0\nsamples = 8\nvalue = [0, 0, 8]"] ;
329 -> 330 ;
331 [label="X[1] <= 1626.0\ngini = 0.444\nsamples = 3\nvalue = [1, 0, 2]"] ;
329 -> 331 ;
332 [label="gini = 0.0\nsamples = 1\nvalue = [1, 0, 0]"] ;
331 -> 332 ;
333 [label="gini = 0.0\nsamples = 2\nvalue = [0, 0, 2]"] ;
331 -> 333 ;
334 [label="X[2] <= 144.5\ngini = 0.5\nsamples = 2\nvalue = [1, 0, 1]"] ;
326 -> 334 ;
335 [label="gini = 0.0\nsamples = 1\nvalue = [0, 0, 1]"] ;
334 -> 335 ;
336 [label="gini = 0.0\nsamples = 1\nvalue = [1, 0, 0]"] ;
334 -> 336 ;
337 [label="gini = 0.0\nsamples = 49\nvalue = [0, 0, 49]"] ;
325 -> 337 ;
338 [label="X[11] <= 5.5\ngini = 0.063\nsamples = 155\nvalue = [2, 3, 150]"] ;
322 -> 338 ;
339 [label="X[1] <= 1678.0\ngini = 0.314\nsamples = 11\nvalue = [1, 1, 9]"] ;
338 -> 339 ;
340 [label="X[9] <= 33.054\ngini = 0.18\nsamples = 10\nvalue = [1, 0, 9]"] ;
339 -> 340 ;
341 [label="gini = 0.0\nsamples = 6\nvalue = [0, 0, 6]"] ;
340 -> 341 ;
342 [label="X[9] <= 33.11\ngini = 0.375\nsamples = 4\nvalue = [1, 0, 3]"] ;
340 -> 342 ;
343 [label="gini = 0.0\nsamples = 1\nvalue = [1, 0, 0]"] ;
342 -> 343 ;
344 [label="gini = 0.0\nsamples = 3\nvalue = [0, 0, 3]"] ;
342 -> 344 ;
345 [label="gini = 0.0\nsamples = 1\nvalue = [0, 1, 0]"] ;
339 -> 345 ;
346 [label="X[16] <= 3.5\ngini = 0.041\nsamples = 144\nvalue = [1, 2, 141]"] ;
338 -> 346 ;
347 [label="X[16] <= 2.5\ngini = 0.18\nsamples = 20\nvalue = [0, 2, 18]"] ;
346 -> 347 ;
348 [label="gini = 0.0\nsamples = 18\nvalue = [0, 0, 18]"] ;
347 -> 348 ;
349 [label="gini = 0.0\nsamples = 2\nvalue = [0, 2, 0]"] ;
347 -> 349 ;
350 [label="X[9] <= 33.087\ngini = 0.016\nsamples = 124\nvalue = [1, 0, 123]"] ;
346 -> 350 ;
351 [label="gini = 0.0\nsamples = 113\nvalue = [0, 0, 113]"] ;
350 -> 351 ;
352 [label="X[9] <= 33.102\ngini = 0.165\nsamples = 11\nvalue = [1, 0, 10]"] ;
350 -> 352 ;
353 [label="X[1] <= 1547.0\ngini = 0.375\nsamples = 4\nvalue = [1, 0, 3]"] ;
352 -> 353 ;
354 [label="gini = 0.0\nsamples = 2\nvalue = [0, 0, 2]"] ;
353 -> 354 ;
355 [label="X[1] <= 1557.0\ngini = 0.5\nsamples = 2\nvalue = [1, 0, 1]"] ;
353 -> 355 ;
356 [label="gini = 0.0\nsamples = 1\nvalue = [1, 0, 0]"] ;
355 -> 356 ;
357 [label="gini = 0.0\nsamples = 1\nvalue = [0, 0, 1]"] ;
355 -> 357 ;
358 [label="gini = 0.0\nsamples = 7\nvalue = [0, 0, 7]"] ;
352 -> 358 ;
359 [label="X[2] <= 771.5\ngini = 0.07\nsamples = 55\nvalue = [2, 0, 53]"] ;
243 -> 359 ;
360 [label="X[7] <= 10.5\ngini = 0.038\nsamples = 51\nvalue = [1, 0, 50]"] ;
359 -> 360 ;
361 [label="gini = 0.0\nsamples = 42\nvalue = [0, 0, 42]"] ;
360 -> 361 ;
362 [label="X[9] <= 28.527\ngini = 0.198\nsamples = 9\nvalue = [1, 0, 8]"] ;
360 -> 362 ;
363 [label="gini = 0.0\nsamples = 6\nvalue = [0, 0, 6]"] ;
362 -> 363 ;
364 [label="X[13] <= 1.5\ngini = 0.444\nsamples = 3\nvalue = [1, 0, 2]"] ;
362 -> 364 ;
365 [label="gini = 0.0\nsamples = 2\nvalue = [0, 0, 2]"] ;
364 -> 365 ;
366 [label="gini = 0.0\nsamples = 1\nvalue = [1, 0, 0]"] ;
364 -> 366 ;
367 [label="X[9] <= 37.402\ngini = 0.375\nsamples = 4\nvalue = [1, 0, 3]"] ;
359 -> 367 ;
368 [label="gini = 0.0\nsamples = 1\nvalue = [1, 0, 0]"] ;
367 -> 368 ;
369 [label="gini = 0.0\nsamples = 3\nvalue = [0, 0, 3]"] ;
367 -> 369 ;
370 [label="X[2] <= 302.0\ngini = 0.278\nsamples = 6\nvalue = [0, 1, 5]"] ;
230 -> 370 ;
371 [label="gini = 0.0\nsamples = 1\nvalue = [0, 1, 0]"] ;
370 -> 371 ;
372 [label="gini = 0.0\nsamples = 5\nvalue = [0, 0, 5]"] ;
370 -> 372 ;
373 [label="X[3] <= 3.5\ngini = 0.209\nsamples = 401\nvalue = [44, 3, 354]"] ;
1 -> 373 ;
374 [label="X[9] <= 2011.598\ngini = 0.08\nsamples = 265\nvalue = [9, 2, 254]"] ;
373 -> 374 ;
375 [label="X[11] <= 8.0\ngini = 0.5\nsamples = 4\nvalue = [0, 2, 2]"] ;
374 -> 375 ;
376 [label="X[9] <= 2011.574\ngini = 0.444\nsamples = 3\nvalue = [0, 1, 2]"] ;
375 -> 376 ;
377 [label="gini = 0.0\nsamples = 2\nvalue = [0, 0, 2]"] ;
376 -> 377 ;
378 [label="gini = 0.0\nsamples = 1\nvalue = [0, 1, 0]"] ;
376 -> 378 ;
379 [label="gini = 0.0\nsamples = 1\nvalue = [0, 1, 0]"] ;
375 -> 379 ;
380 [label="X[9] <= 2013.13\ngini = 0.067\nsamples = 261\nvalue = [9, 0, 252]"] ;
374 -> 380 ;
381 [label="X[3] <= 0.5\ngini = 0.06\nsamples = 259\nvalue = [8, 0, 251]"] ;
380 -> 381 ;
382 [label="X[1] <= 6.5\ngini = 0.142\nsamples = 65\nvalue = [5, 0, 60]"] ;
381 -> 382 ;
383 [label="X[13] <= 3.0\ngini = 0.391\nsamples = 15\nvalue = [4, 0, 11]"] ;
382 -> 383 ;
384 [label="X[2] <= 628.5\ngini = 0.494\nsamples = 9\nvalue = [4, 0, 5]"] ;
383 -> 384 ;
385 [label="X[4] <= 14.5\ngini = 0.49\nsamples = 7\nvalue = [4, 0, 3]"] ;
384 -> 385 ;
386 [label="gini = 0.0\nsamples = 1\nvalue = [0, 0, 1]"] ;
385 -> 386 ;
387 [label="X[1] <= 0.5\ngini = 0.444\nsamples = 6\nvalue = [4, 0, 2]"] ;
385 -> 387 ;
388 [label="X[0] <= 1.5\ngini = 0.444\nsamples = 3\nvalue = [1, 0, 2]"] ;
387 -> 388 ;
389 [label="gini = 0.0\nsamples = 2\nvalue = [0, 0, 2]"] ;
388 -> 389 ;
390 [label="gini = 0.0\nsamples = 1\nvalue = [1, 0, 0]"] ;
388 -> 390 ;
391 [label="gini = 0.0\nsamples = 3\nvalue = [3, 0, 0]"] ;
387 -> 391 ;
392 [label="gini = 0.0\nsamples = 2\nvalue = [0, 0, 2]"] ;
384 -> 392 ;
393 [label="gini = 0.0\nsamples = 6\nvalue = [0, 0, 6]"] ;
383 -> 393 ;
394 [label="X[11] <= 0.5\ngini = 0.039\nsamples = 50\nvalue = [1, 0, 49]"] ;
382 -> 394 ;
395 [label="X[1] <= 423.0\ngini = 0.444\nsamples = 3\nvalue = [1, 0, 2]"] ;
394 -> 395 ;
396 [label="gini = 0.0\nsamples = 2\nvalue = [0, 0, 2]"] ;
395 -> 396 ;
397 [label="gini = 0.0\nsamples = 1\nvalue = [1, 0, 0]"] ;
395 -> 397 ;
398 [label="gini = 0.0\nsamples = 47\nvalue = [0, 0, 47]"] ;
394 -> 398 ;
399 [label="X[8] <= 0.5\ngini = 0.03\nsamples = 194\nvalue = [3, 0, 191]"] ;
381 -> 399 ;
400 [label="X[0] <= 1.0\ngini = 0.32\nsamples = 5\nvalue = [1, 0, 4]"] ;
399 -> 400 ;
401 [label="gini = 0.0\nsamples = 4\nvalue = [0, 0, 4]"] ;
400 -> 401 ;
402 [label="gini = 0.0\nsamples = 1\nvalue = [1, 0, 0]"] ;
400 -> 402 ;
403 [label="X[6] <= 1.5\ngini = 0.021\nsamples = 189\nvalue = [2, 0, 187]"] ;
399 -> 403 ;
404 [label="X[12] <= 3.5\ngini = 0.011\nsamples = 181\nvalue = [1, 0, 180]"] ;
403 -> 404 ;
405 [label="X[12] <= 2.5\ngini = 0.083\nsamples = 23\nvalue = [1, 0, 22]"] ;
404 -> 405 ;
406 [label="gini = 0.0\nsamples = 15\nvalue = [0, 0, 15]"] ;
405 -> 406 ;
407 [label="X[7] <= 8.0\ngini = 0.219\nsamples = 8\nvalue = [1, 0, 7]"] ;
405 -> 407 ;
408 [label="X[11] <= 2.5\ngini = 0.444\nsamples = 3\nvalue = [1, 0, 2]"] ;
407 -> 408 ;
409 [label="gini = 0.0\nsamples = 1\nvalue = [0, 0, 1]"] ;
408 -> 409 ;
410 [label="X[11] <= 5.5\ngini = 0.5\nsamples = 2\nvalue = [1, 0, 1]"] ;
408 -> 410 ;
411 [label="gini = 0.0\nsamples = 1\nvalue = [1, 0, 0]"] ;
410 -> 411 ;
412 [label="gini = 0.0\nsamples = 1\nvalue = [0, 0, 1]"] ;
410 -> 412 ;
413 [label="gini = 0.0\nsamples = 5\nvalue = [0, 0, 5]"] ;
407 -> 413 ;
414 [label="gini = 0.0\nsamples = 158\nvalue = [0, 0, 158]"] ;
404 -> 414 ;
415 [label="X[11] <= 2.5\ngini = 0.219\nsamples = 8\nvalue = [1, 0, 7]"] ;
403 -> 415 ;
416 [label="X[14] <= 5.0\ngini = 0.5\nsamples = 2\nvalue = [1, 0, 1]"] ;
415 -> 416 ;
417 [label="gini = 0.0\nsamples = 1\nvalue = [0, 0, 1]"] ;
416 -> 417 ;
418 [label="gini = 0.0\nsamples = 1\nvalue = [1, 0, 0]"] ;
416 -> 418 ;
419 [label="gini = 0.0\nsamples = 6\nvalue = [0, 0, 6]"] ;
415 -> 419 ;
420 [label="X[11] <= 3.0\ngini = 0.5\nsamples = 2\nvalue = [1, 0, 1]"] ;
380 -> 420 ;
421 [label="gini = 0.0\nsamples = 1\nvalue = [0, 0, 1]"] ;
420 -> 421 ;
422 [label="gini = 0.0\nsamples = 1\nvalue = [1, 0, 0]"] ;
420 -> 422 ;
423 [label="X[2] <= 624.0\ngini = 0.393\nsamples = 136\nvalue = [35, 1, 100]"] ;
373 -> 423 ;
424 [label="X[7] <= 8.0\ngini = 0.259\nsamples = 85\nvalue = [13, 0, 72]"] ;
423 -> 424 ;
425 [label="X[13] <= 1.0\ngini = 0.036\nsamples = 55\nvalue = [1, 0, 54]"] ;
424 -> 425 ;
426 [label="gini = 0.0\nsamples = 1\nvalue = [1, 0, 0]"] ;
425 -> 426 ;
427 [label="gini = 0.0\nsamples = 54\nvalue = [0, 0, 54]"] ;
425 -> 427 ;
428 [label="X[9] <= 2012.789\ngini = 0.48\nsamples = 30\nvalue = [12, 0, 18]"] ;
424 -> 428 ;
429 [label="X[17] <= 2.0\ngini = 0.32\nsamples = 15\nvalue = [12, 0, 3]"] ;
428 -> 429 ;
430 [label="gini = 0.0\nsamples = 2\nvalue = [0, 0, 2]"] ;
429 -> 430 ;
431 [label="X[1] <= 19.0\ngini = 0.142\nsamples = 13\nvalue = [12, 0, 1]"] ;
429 -> 431 ;
432 [label="gini = 0.0\nsamples = 11\nvalue = [11, 0, 0]"] ;
431 -> 432 ;
433 [label="X[1] <= 28.5\ngini = 0.5\nsamples = 2\nvalue = [1, 0, 1]"] ;
431 -> 433 ;
434 [label="gini = 0.0\nsamples = 1\nvalue = [0, 0, 1]"] ;
433 -> 434 ;
435 [label="gini = 0.0\nsamples = 1\nvalue = [1, 0, 0]"] ;
433 -> 435 ;
436 [label="gini = 0.0\nsamples = 15\nvalue = [0, 0, 15]"] ;
428 -> 436 ;
437 [label="X[9] <= 2011.574\ngini = 0.512\nsamples = 51\nvalue = [22, 1, 28]"] ;
423 -> 437 ;
438 [label="gini = 0.0\nsamples = 4\nvalue = [4, 0, 0]"] ;
437 -> 438 ;
439 [label="X[1] <= 269.0\ngini = 0.498\nsamples = 47\nvalue = [18, 1, 28]"] ;
437 -> 439 ;
440 [label="X[1] <= 2.5\ngini = 0.521\nsamples = 40\nvalue = [18, 1, 21]"] ;
439 -> 440 ;
441 [label="X[0] <= 1.0\ngini = 0.375\nsamples = 4\nvalue = [3, 1, 0]"] ;
440 -> 441 ;
442 [label="gini = 0.0\nsamples = 3\nvalue = [3, 0, 0]"] ;
441 -> 442 ;
443 [label="gini = 0.0\nsamples = 1\nvalue = [0, 1, 0]"] ;
441 -> 443 ;
444 [label="X[1] <= 21.5\ngini = 0.486\nsamples = 36\nvalue = [15, 0, 21]"] ;
440 -> 444 ;
445 [label="X[1] <= 3.5\ngini = 0.18\nsamples = 10\nvalue = [1, 0, 9]"] ;
444 -> 445 ;
446 [label="X[9] <= 2011.595\ngini = 0.5\nsamples = 2\nvalue = [1, 0, 1]"] ;
445 -> 446 ;
447 [label="gini = 0.0\nsamples = 1\nvalue = [1, 0, 0]"] ;
446 -> 447 ;
448 [label="gini = 0.0\nsamples = 1\nvalue = [0, 0, 1]"] ;
446 -> 448 ;
449 [label="gini = 0.0\nsamples = 8\nvalue = [0, 0, 8]"] ;
445 -> 449 ;
450 [label="X[1] <= 34.0\ngini = 0.497\nsamples = 26\nvalue = [14, 0, 12]"] ;
444 -> 450 ;
451 [label="gini = 0.0\nsamples = 4\nvalue = [4, 0, 0]"] ;
450 -> 451 ;
452 [label="X[14] <= 5.0\ngini = 0.496\nsamples = 22\nvalue = [10, 0, 12]"] ;
450 -> 452 ;
453 [label="gini = 0.0\nsamples = 3\nvalue = [0, 0, 3]"] ;
452 -> 453 ;
454 [label="X[9] <= 2011.579\ngini = 0.499\nsamples = 19\nvalue = [10, 0, 9]"] ;
452 -> 454 ;
455 [label="X[9] <= 2011.577\ngini = 0.32\nsamples = 5\nvalue = [4, 0, 1]"] ;
454 -> 455 ;
456 [label="gini = 0.0\nsamples = 1\nvalue = [0, 0, 1]"] ;
455 -> 456 ;
457 [label="gini = 0.0\nsamples = 4\nvalue = [4, 0, 0]"] ;
455 -> 457 ;
458 [label="X[9] <= 2011.587\ngini = 0.49\nsamples = 14\nvalue = [6, 0, 8]"] ;
454 -> 458 ;
459 [label="gini = 0.0\nsamples = 3\nvalue = [0, 0, 3]"] ;
458 -> 459 ;
460 [label="X[9] <= 2011.591\ngini = 0.496\nsamples = 11\nvalue = [6, 0, 5]"] ;
458 -> 460 ;
461 [label="gini = 0.0\nsamples = 2\nvalue = [2, 0, 0]"] ;
460 -> 461 ;
462 [label="X[9] <= 2011.598\ngini = 0.494\nsamples = 9\nvalue = [4, 0, 5]"] ;
460 -> 462 ;
463 [label="gini = 0.0\nsamples = 2\nvalue = [0, 0, 2]"] ;
462 -> 463 ;
464 [label="X[1] <= 45.5\ngini = 0.49\nsamples = 7\nvalue = [4, 0, 3]"] ;
462 -> 464 ;
465 [label="gini = 0.0\nsamples = 2\nvalue = [0, 0, 2]"] ;
464 -> 465 ;
466 [label="X[16] <= 2.5\ngini = 0.32\nsamples = 5\nvalue = [4, 0, 1]"] ;
464 -> 466 ;
467 [label="gini = 0.0\nsamples = 1\nvalue = [0, 0, 1]"] ;
466 -> 467 ;
468 [label="gini = 0.0\nsamples = 4\nvalue = [4, 0, 0]"] ;
466 -> 468 ;
469 [label="gini = 0.0\nsamples = 7\nvalue = [0, 0, 7]"] ;
439 -> 469 ;
470 [label="X[17] <= 4.5\ngini = 0.529\nsamples = 42564\nvalue = [25706, 3410, 13448]"] ;
0 -> 470 [labeldistance=2.5, labelangle=-45, headlabel="False"] ;
471 [label="X[9] <= 19.609\ngini = 0.5\nsamples = 38573\nvalue = [25034, 3166, 10373]"] ;
470 -> 471 ;
472 [label="X[15] <= 1.5\ngini = 0.441\nsamples = 25158\nvalue = [17920, 1824, 5414]"] ;
471 -> 472 ;
473 [label="X[4] <= 10.5\ngini = 0.382\nsamples = 16355\nvalue = [12508, 1062, 2785]"] ;
472 -> 473 ;
474 [label="X[17] <= 2.5\ngini = 0.295\nsamples = 8597\nvalue = [7116, 314, 1167]"] ;
473 -> 474 ;
475 [label="X[4] <= 7.5\ngini = 0.262\nsamples = 6949\nvalue = [5916, 282, 751]"] ;
474 -> 475 ;
476 [label="X[7] <= 10.5\ngini = 0.327\nsamples = 4425\nvalue = [3566, 205, 654]"] ;
475 -> 476 ;
477 [label="X[5] <= 1.5\ngini = 0.298\nsamples = 4097\nvalue = [3384, 150, 563]"] ;
476 -> 477 ;
478 [label="X[0] <= 1.5\ngini = 0.43\nsamples = 972\nvalue = [697, 52, 223]"] ;
477 -> 478 ;
479 [label="X[13] <= 1.5\ngini = 0.369\nsamples = 855\nvalue = [661, 45, 149]"] ;
478 -> 479 ;
480 [label="X[1] <= 1705.5\ngini = 0.204\nsamples = 423\nvalue = [375, 5, 43]"] ;
479 -> 480 ;
481 [label="X[11] <= 5.5\ngini = 0.156\nsamples = 404\nvalue = [370, 5, 29]"] ;
480 -> 481 ;
482 [label="X[10] <= 2002.5\ngini = 0.118\nsamples = 383\nvalue = [359, 3, 21]"] ;
481 -> 482 ;
483 [label="X[9] <= 11.208\ngini = 0.205\nsamples = 166\nvalue = [147, 2, 17]"] ;
482 -> 483 ;
484 [label="X[4] <= 2.5\ngini = 0.426\nsamples = 39\nvalue = [27, 0, 12]"] ;
483 -> 484 ;
485 [label="X[1] <= 1292.0\ngini = 0.394\nsamples = 37\nvalue = [27, 0, 10]"] ;
484 -> 485 ;
486 [label="X[1] <= 1211.0\ngini = 0.48\nsamples = 25\nvalue = [15, 0, 10]"] ;
485 -> 486 ;
487 [label="X[1] <= 726.5\ngini = 0.165\nsamples = 11\nvalue = [10, 0, 1]"] ;
486 -> 487 ;
488 [label="X[10] <= 2001.5\ngini = 0.375\nsamples = 4\nvalue = [3, 0, 1]"] ;
487 -> 488 ;
489 [label="gini = 0.0\nsamples = 3\nvalue = [3, 0, 0]"] ;
488 -> 489 ;
490 [label="gini = 0.0\nsamples = 1\nvalue = [0, 0, 1]"] ;
488 -> 490 ;
491 [label="gini = 0.0\nsamples = 7\nvalue = [7, 0, 0]"] ;
487 -> 491 ;
492 [label="X[1] <= 1272.0\ngini = 0.459\nsamples = 14\nvalue = [5, 0, 9]"] ;
486 -> 492 ;
493 [label="X[9] <= 11.206\ngini = 0.346\nsamples = 9\nvalue = [2, 0, 7]"] ;
492 -> 493 ;
494 [label="gini = 0.0\nsamples = 1\nvalue = [1, 0, 0]"] ;
493 -> 494 ;
495 [label="X[1] <= 1260.5\ngini = 0.219\nsamples = 8\nvalue = [1, 0, 7]"] ;
493 -> 495 ;
496 [label="X[1] <= 1256.5\ngini = 0.444\nsamples = 3\nvalue = [1, 0, 2]"] ;
495 -> 496 ;
497 [label="gini = 0.0\nsamples = 2\nvalue = [0, 0, 2]"] ;
496 -> 497 ;
498 [label="gini = 0.0\nsamples = 1\nvalue = [1, 0, 0]"] ;
496 -> 498 ;
499 [label="gini = 0.0\nsamples = 5\nvalue = [0, 0, 5]"] ;
495 -> 499 ;
500 [label="X[1] <= 1289.0\ngini = 0.48\nsamples = 5\nvalue = [3, 0, 2]"] ;
492 -> 500 ;
501 [label="X[1] <= 1278.5\ngini = 0.375\nsamples = 4\nvalue = [3, 0, 1]"] ;
500 -> 501 ;
502 [label="X[1] <= 1276.5\ngini = 0.5\nsamples = 2\nvalue = [1, 0, 1]"] ;
501 -> 502 ;
503 [label="gini = 0.0\nsamples = 1\nvalue = [1, 0, 0]"] ;
502 -> 503 ;
504 [label="gini = 0.0\nsamples = 1\nvalue = [0, 0, 1]"] ;
502 -> 504 ;
505 [label="gini = 0.0\nsamples = 2\nvalue = [2, 0, 0]"] ;
501 -> 505 ;
506 [label="gini = 0.0\nsamples = 1\nvalue = [0, 0, 1]"] ;
500 -> 506 ;
507 [label="gini = 0.0\nsamples = 12\nvalue = [12, 0, 0]"] ;
485 -> 507 ;
508 [label="gini = 0.0\nsamples = 2\nvalue = [0, 0, 2]"] ;
484 -> 508 ;
509 [label="X[9] <= 14.233\ngini = 0.105\nsamples = 127\nvalue = [120, 2, 5]"] ;
483 -> 509 ;
510 [label="X[1] <= 1354.5\ngini = 0.068\nsamples = 86\nvalue = [83, 2, 1]"] ;
509 -> 510 ;
511 [label="gini = 0.0\nsamples = 57\nvalue = [57, 0, 0]"] ;
510 -> 511 ;
512 [label="X[1] <= 1367.5\ngini = 0.19\nsamples = 29\nvalue = [26, 2, 1]"] ;
510 -> 512 ;
513 [label="X[1] <= 1364.0\ngini = 0.625\nsamples = 4\nvalue = [1, 2, 1]"] ;
512 -> 513 ;
514 [label="X[9] <= 12.215\ngini = 0.5\nsamples = 2\nvalue = [1, 0, 1]"] ;
513 -> 514 ;
515 [label="gini = 0.0\nsamples = 1\nvalue = [0, 0, 1]"] ;
514 -> 515 ;
516 [label="gini = 0.0\nsamples = 1\nvalue = [1, 0, 0]"] ;
514 -> 516 ;
517 [label="gini = 0.0\nsamples = 2\nvalue = [0, 2, 0]"] ;
513 -> 517 ;
518 [label="gini = 0.0\nsamples = 25\nvalue = [25, 0, 0]"] ;
512 -> 518 ;
519 [label="X[1] <= 1492.5\ngini = 0.176\nsamples = 41\nvalue = [37, 0, 4]"] ;
509 -> 519 ;
520 [label="X[1] <= 1484.0\ngini = 0.238\nsamples = 29\nvalue = [25, 0, 4]"] ;
519 -> 520 ;
521 [label="X[1] <= 1425.5\ngini = 0.191\nsamples = 28\nvalue = [25, 0, 3]"] ;
520 -> 521 ;
522 [label="X[1] <= 1323.5\ngini = 0.147\nsamples = 25\nvalue = [23, 0, 2]"] ;
521 -> 522 ;
523 [label="X[1] <= 1307.0\ngini = 0.219\nsamples = 16\nvalue = [14, 0, 2]"] ;
522 -> 523 ;
524 [label="X[1] <= 1211.0\ngini = 0.124\nsamples = 15\nvalue = [14, 0, 1]"] ;
523 -> 524 ;
525 [label="gini = 0.0\nsamples = 8\nvalue = [8, 0, 0]"] ;
524 -> 525 ;
526 [label="X[1] <= 1222.5\ngini = 0.245\nsamples = 7\nvalue = [6, 0, 1]"] ;
524 -> 526 ;
527 [label="gini = 0.0\nsamples = 1\nvalue = [0, 0, 1]"] ;
526 -> 527 ;
528 [label="gini = 0.0\nsamples = 6\nvalue = [6, 0, 0]"] ;
526 -> 528 ;
529 [label="gini = 0.0\nsamples = 1\nvalue = [0, 0, 1]"] ;
523 -> 529 ;
530 [label="gini = 0.0\nsamples = 9\nvalue = [9, 0, 0]"] ;
522 -> 530 ;
531 [label="X[1] <= 1454.0\ngini = 0.444\nsamples = 3\nvalue = [2, 0, 1]"] ;
521 -> 531 ;
532 [label="gini = 0.0\nsamples = 1\nvalue = [0, 0, 1]"] ;
531 -> 532 ;
533 [label="gini = 0.0\nsamples = 2\nvalue = [2, 0, 0]"] ;
531 -> 533 ;
534 [label="gini = 0.0\nsamples = 1\nvalue = [0, 0, 1]"] ;
520 -> 534 ;
535 [label="gini = 0.0\nsamples = 12\nvalue = [12, 0, 0]"] ;
519 -> 535 ;
536 [label="X[9] <= 1.208\ngini = 0.045\nsamples = 217\nvalue = [212, 1, 4]"] ;
482 -> 536 ;
537 [label="X[1] <= 1493.5\ngini = 0.305\nsamples = 16\nvalue = [13, 0, 3]"] ;
536 -> 537 ;
538 [label="X[1] <= 1399.5\ngini = 0.245\nsamples = 14\nvalue = [12, 0, 2]"] ;
537 -> 538 ;
539 [label="X[9] <= 0.719\ngini = 0.375\nsamples = 8\nvalue = [6, 0, 2]"] ;
538 -> 539 ;
540 [label="X[1] <= 1393.5\ngini = 0.245\nsamples = 7\nvalue = [6, 0, 1]"] ;
539 -> 540 ;
541 [label="gini = 0.0\nsamples = 6\nvalue = [6, 0, 0]"] ;
540 -> 541 ;
542 [label="gini = 0.0\nsamples = 1\nvalue = [0, 0, 1]"] ;
540 -> 542 ;
543 [label="gini = 0.0\nsamples = 1\nvalue = [0, 0, 1]"] ;
539 -> 543 ;
544 [label="gini = 0.0\nsamples = 6\nvalue = [6, 0, 0]"] ;
538 -> 544 ;
545 [label="X[1] <= 1589.5\ngini = 0.5\nsamples = 2\nvalue = [1, 0, 1]"] ;
537 -> 545 ;
546 [label="gini = 0.0\nsamples = 1\nvalue = [0, 0, 1]"] ;
545 -> 546 ;
547 [label="gini = 0.0\nsamples = 1\nvalue = [1, 0, 0]"] ;
545 -> 547 ;
548 [label="X[7] <= 8.5\ngini = 0.02\nsamples = 201\nvalue = [199, 1, 1]"] ;
536 -> 548 ;
549 [label="X[9] <= 8.231\ngini = 0.101\nsamples = 38\nvalue = [36, 1, 1]"] ;
548 -> 549 ;
550 [label="gini = 0.0\nsamples = 16\nvalue = [16, 0, 0]"] ;
549 -> 550 ;
551 [label="X[1] <= 1522.0\ngini = 0.169\nsamples = 22\nvalue = [20, 1, 1]"] ;
549 -> 551 ;
552 [label="X[1] <= 1338.5\ngini = 0.095\nsamples = 20\nvalue = [19, 0, 1]"] ;
551 -> 552 ;
553 [label="X[1] <= 1325.5\ngini = 0.18\nsamples = 10\nvalue = [9, 0, 1]"] ;
552 -> 553 ;
554 [label="gini = 0.0\nsamples = 9\nvalue = [9, 0, 0]"] ;
553 -> 554 ;
555 [label="gini = 0.0\nsamples = 1\nvalue = [0, 0, 1]"] ;
553 -> 555 ;
556 [label="gini = 0.0\nsamples = 10\nvalue = [10, 0, 0]"] ;
552 -> 556 ;
557 [label="X[1] <= 1527.0\ngini = 0.5\nsamples = 2\nvalue = [1, 1, 0]"] ;
551 -> 557 ;
558 [label="gini = 0.0\nsamples = 1\nvalue = [0, 1, 0]"] ;
557 -> 558 ;
559 [label="gini = 0.0\nsamples = 1\nvalue = [1, 0, 0]"] ;
557 -> 559 ;
560 [label="gini = 0.0\nsamples = 163\nvalue = [163, 0, 0]"] ;
548 -> 560 ;
561 [label="X[9] <= 9.219\ngini = 0.571\nsamples = 21\nvalue = [11, 2, 8]"] ;
481 -> 561 ;
562 [label="X[1] <= 326.5\ngini = 0.508\nsamples = 16\nvalue = [10, 1, 5]"] ;
561 -> 562 ;
563 [label="X[9] <= 6.202\ngini = 0.5\nsamples = 2\nvalue = [1, 1, 0]"] ;
562 -> 563 ;
564 [label="gini = 0.0\nsamples = 1\nvalue = [1, 0, 0]"] ;
563 -> 564 ;
565 [label="gini = 0.0\nsamples = 1\nvalue = [0, 1, 0]"] ;
563 -> 565 ;
566 [label="X[1] <= 328.5\ngini = 0.459\nsamples = 14\nvalue = [9, 0, 5]"] ;
562 -> 566 ;
567 [label="gini = 0.0\nsamples = 1\nvalue = [0, 0, 1]"] ;
566 -> 567 ;
568 [label="X[4] <= 3.0\ngini = 0.426\nsamples = 13\nvalue = [9, 0, 4]"] ;
566 -> 568 ;
569 [label="X[1] <= 789.5\ngini = 0.48\nsamples = 10\nvalue = [6, 0, 4]"] ;
568 -> 569 ;
570 [label="X[1] <= 776.5\ngini = 0.375\nsamples = 4\nvalue = [1, 0, 3]"] ;
569 -> 570 ;
571 [label="X[1] <= 761.5\ngini = 0.5\nsamples = 2\nvalue = [1, 0, 1]"] ;
570 -> 571 ;
572 [label="gini = 0.0\nsamples = 1\nvalue = [0, 0, 1]"] ;
571 -> 572 ;
573 [label="gini = 0.0\nsamples = 1\nvalue = [1, 0, 0]"] ;
571 -> 573 ;
574 [label="gini = 0.0\nsamples = 2\nvalue = [0, 0, 2]"] ;
570 -> 574 ;
575 [label="X[1] <= 805.0\ngini = 0.278\nsamples = 6\nvalue = [5, 0, 1]"] ;
569 -> 575 ;
576 [label="gini = 0.0\nsamples = 3\nvalue = [3, 0, 0]"] ;
575 -> 576 ;
577 [label="X[1] <= 810.5\ngini = 0.444\nsamples = 3\nvalue = [2, 0, 1]"] ;
575 -> 577 ;
578 [label="gini = 0.0\nsamples = 1\nvalue = [0, 0, 1]"] ;
577 -> 578 ;
579 [label="gini = 0.0\nsamples = 2\nvalue = [2, 0, 0]"] ;
577 -> 579 ;
580 [label="gini = 0.0\nsamples = 3\nvalue = [3, 0, 0]"] ;
568 -> 580 ;
581 [label="X[6] <= 0.5\ngini = 0.56\nsamples = 5\nvalue = [1, 1, 3]"] ;
561 -> 581 ;
582 [label="gini = 0.0\nsamples = 1\nvalue = [1, 0, 0]"] ;
581 -> 582 ;
583 [label="X[1] <= 767.0\ngini = 0.375\nsamples = 4\nvalue = [0, 1, 3]"] ;
581 -> 583 ;
584 [label="X[16] <= 2.0\ngini = 0.5\nsamples = 2\nvalue = [0, 1, 1]"] ;
583 -> 584 ;
585 [label="gini = 0.0\nsamples = 1\nvalue = [0, 1, 0]"] ;
584 -> 585 ;
586 [label="gini = 0.0\nsamples = 1\nvalue = [0, 0, 1]"] ;
584 -> 586 ;
587 [label="gini = 0.0\nsamples = 2\nvalue = [0, 0, 2]"] ;
583 -> 587 ;
588 [label="X[2] <= 257.5\ngini = 0.388\nsamples = 19\nvalue = [5, 0, 14]"] ;
480 -> 588 ;
589 [label="X[9] <= 7.691\ngini = 0.124\nsamples = 15\nvalue = [1, 0, 14]"] ;
588 -> 589 ;
590 [label="gini = 0.0\nsamples = 1\nvalue = [1, 0, 0]"] ;
589 -> 590 ;
591 [label="gini = 0.0\nsamples = 14\nvalue = [0, 0, 14]"] ;
589 -> 591 ;
592 [label="gini = 0.0\nsamples = 4\nvalue = [4, 0, 0]"] ;
588 -> 592 ;
593 [label="X[7] <= 9.5\ngini = 0.493\nsamples = 432\nvalue = [286, 40, 106]"] ;
479 -> 593 ;
594 [label="X[9] <= -0.27\ngini = 0.456\nsamples = 380\nvalue = [268, 40, 72]"] ;
593 -> 594 ;
595 [label="gini = 0.0\nsamples = 6\nvalue = [0, 0, 6]"] ;
594 -> 595 ;
596 [label="X[9] <= 5.888\ngini = 0.444\nsamples = 374\nvalue = [268, 40, 66]"] ;
594 -> 596 ;
597 [label="X[2] <= 752.5\ngini = 0.28\nsamples = 126\nvalue = [106, 9, 11]"] ;
596 -> 597 ;
598 [label="X[9] <= 3.206\ngini = 0.245\nsamples = 117\nvalue = [101, 9, 7]"] ;
597 -> 598 ;
599 [label="X[4] <= 2.5\ngini = 0.142\nsamples = 53\nvalue = [49, 3, 1]"] ;
598 -> 599 ;
600 [label="X[13] <= 3.5\ngini = 0.398\nsamples = 16\nvalue = [12, 3, 1]"] ;
599 -> 600 ;
601 [label="X[3] <= 2.5\ngini = 0.594\nsamples = 8\nvalue = [4, 3, 1]"] ;
600 -> 601 ;
602 [label="gini = 0.0\nsamples = 2\nvalue = [0, 2, 0]"] ;
601 -> 602 ;
603 [label="X[1] <= 274.5\ngini = 0.5\nsamples = 6\nvalue = [4, 1, 1]"] ;
601 -> 603 ;
604 [label="gini = 0.0\nsamples = 1\nvalue = [0, 0, 1]"] ;
603 -> 604 ;
605 [label="X[1] <= 861.0\ngini = 0.32\nsamples = 5\nvalue = [4, 1, 0]"] ;
603 -> 605 ;
606 [label="gini = 0.0\nsamples = 3\nvalue = [3, 0, 0]"] ;
605 -> 606 ;
607 [label="X[12] <= 2.0\ngini = 0.5\nsamples = 2\nvalue = [1, 1, 0]"] ;
605 -> 607 ;
608 [label="gini = 0.0\nsamples = 1\nvalue = [0, 1, 0]"] ;
607 -> 608 ;
609 [label="gini = 0.0\nsamples = 1\nvalue = [1, 0, 0]"] ;
607 -> 609 ;
610 [label="gini = 0.0\nsamples = 8\nvalue = [8, 0, 0]"] ;
600 -> 610 ;
611 [label="gini = 0.0\nsamples = 37\nvalue = [37, 0, 0]"] ;
599 -> 611 ;
612 [label="X[11] <= 4.5\ngini = 0.322\nsamples = 64\nvalue = [52, 6, 6]"] ;
598 -> 612 ;
613 [label="X[9] <= 3.238\ngini = 0.266\nsamples = 60\nvalue = [51, 5, 4]"] ;
612 -> 613 ;
614 [label="X[1] <= 1343.0\ngini = 0.41\nsamples = 19\nvalue = [14, 1, 4]"] ;
613 -> 614 ;
615 [label="X[1] <= 1255.5\ngini = 0.346\nsamples = 18\nvalue = [14, 0, 4]"] ;
614 -> 615 ;
616 [label="X[16] <= 2.0\ngini = 0.245\nsamples = 14\nvalue = [12, 0, 2]"] ;
615 -> 616 ;
617 [label="X[8] <= 0.5\ngini = 0.5\nsamples = 2\nvalue = [1, 0, 1]"] ;
616 -> 617 ;
618 [label="gini = 0.0\nsamples = 1\nvalue = [1, 0, 0]"] ;
617 -> 618 ;
619 [label="gini = 0.0\nsamples = 1\nvalue = [0, 0, 1]"] ;
617 -> 619 ;
620 [label="X[1] <= 1175.5\ngini = 0.153\nsamples = 12\nvalue = [11, 0, 1]"] ;
616 -> 620 ;
621 [label="X[4] <= 4.0\ngini = 0.32\nsamples = 5\nvalue = [4, 0, 1]"] ;
620 -> 621 ;
622 [label="gini = 0.0\nsamples = 1\nvalue = [0, 0, 1]"] ;
621 -> 622 ;
623 [label="gini = 0.0\nsamples = 4\nvalue = [4, 0, 0]"] ;
621 -> 623 ;
624 [label="gini = 0.0\nsamples = 7\nvalue = [7, 0, 0]"] ;
620 -> 624 ;
625 [label="X[1] <= 1306.0\ngini = 0.5\nsamples = 4\nvalue = [2, 0, 2]"] ;
615 -> 625 ;
626 [label="gini = 0.0\nsamples = 2\nvalue = [0, 0, 2]"] ;
625 -> 626 ;
627 [label="gini = 0.0\nsamples = 2\nvalue = [2, 0, 0]"] ;
625 -> 627 ;
628 [label="gini = 0.0\nsamples = 1\nvalue = [0, 1, 0]"] ;
614 -> 628 ;
629 [label="X[2] <= 222.0\ngini = 0.176\nsamples = 41\nvalue = [37, 4, 0]"] ;
613 -> 629 ;
630 [label="X[1] <= 1205.5\ngini = 0.142\nsamples = 39\nvalue = [36, 3, 0]"] ;
629 -> 630 ;
631 [label="gini = 0.0\nsamples = 14\nvalue = [14, 0, 0]"] ;
630 -> 631 ;
632 [label="X[1] <= 1236.5\ngini = 0.211\nsamples = 25\nvalue = [22, 3, 0]"] ;
630 -> 632 ;
633 [label="gini = 0.0\nsamples = 1\nvalue = [0, 1, 0]"] ;
632 -> 633 ;
634 [label="X[1] <= 1475.0\ngini = 0.153\nsamples = 24\nvalue = [22, 2, 0]"] ;
632 -> 634 ;
635 [label="X[1] <= 1457.5\ngini = 0.208\nsamples = 17\nvalue = [15, 2, 0]"] ;
634 -> 635 ;
636 [label="X[9] <= 4.265\ngini = 0.117\nsamples = 16\nvalue = [15, 1, 0]"] ;
635 -> 636 ;
637 [label="X[9] <= 4.259\ngini = 0.32\nsamples = 5\nvalue = [4, 1, 0]"] ;
636 -> 637 ;
638 [label="gini = 0.0\nsamples = 2\nvalue = [2, 0, 0]"] ;
637 -> 638 ;
639 [label="X[1] <= 1431.0\ngini = 0.444\nsamples = 3\nvalue = [2, 1, 0]"] ;
637 -> 639 ;
640 [label="gini = 0.5\nsamples = 2\nvalue = [1, 1, 0]"] ;
639 -> 640 ;
641 [label="gini = 0.0\nsamples = 1\nvalue = [1, 0, 0]"] ;
639 -> 641 ;
642 [label="gini = 0.0\nsamples = 11\nvalue = [11, 0, 0]"] ;
636 -> 642 ;
643 [label="gini = 0.0\nsamples = 1\nvalue = [0, 1, 0]"] ;
635 -> 643 ;
644 [label="gini = 0.0\nsamples = 7\nvalue = [7, 0, 0]"] ;
634 -> 644 ;
645 [label="X[8] <= 0.5\ngini = 0.5\nsamples = 2\nvalue = [1, 1, 0]"] ;
629 -> 645 ;
646 [label="gini = 0.0\nsamples = 1\nvalue = [0, 1, 0]"] ;
645 -> 646 ;
647 [label="gini = 0.0\nsamples = 1\nvalue = [1, 0, 0]"] ;
645 -> 647 ;
648 [label="X[9] <= 4.247\ngini = 0.625\nsamples = 4\nvalue = [1, 1, 2]"] ;
612 -> 648 ;
649 [label="X[4] <= 3.5\ngini = 0.444\nsamples = 3\nvalue = [0, 1, 2]"] ;
648 -> 649 ;
650 [label="gini = 0.0\nsamples = 1\nvalue = [0, 0, 1]"] ;
649 -> 650 ;
651 [label="X[1] <= 333.0\ngini = 0.5\nsamples = 2\nvalue = [0, 1, 1]"] ;
649 -> 651 ;
652 [label="gini = 0.0\nsamples = 1\nvalue = [0, 1, 0]"] ;
651 -> 652 ;
653 [label="gini = 0.0\nsamples = 1\nvalue = [0, 0, 1]"] ;
651 -> 653 ;
654 [label="gini = 0.0\nsamples = 1\nvalue = [1, 0, 0]"] ;
648 -> 654 ;
655 [label="X[7] <= 7.5\ngini = 0.494\nsamples = 9\nvalue = [5, 0, 4]"] ;
597 -> 655 ;
656 [label="X[1] <= 71.0\ngini = 0.408\nsamples = 7\nvalue = [5, 0, 2]"] ;
655 -> 656 ;
657 [label="X[6] <= 0.5\ngini = 0.444\nsamples = 3\nvalue = [1, 0, 2]"] ;
656 -> 657 ;
658 [label="gini = 0.0\nsamples = 1\nvalue = [1, 0, 0]"] ;
657 -> 658 ;
659 [label="gini = 0.0\nsamples = 2\nvalue = [0, 0, 2]"] ;
657 -> 659 ;
660 [label="gini = 0.0\nsamples = 4\nvalue = [4, 0, 0]"] ;
656 -> 660 ;
661 [label="gini = 0.0\nsamples = 2\nvalue = [0, 0, 2]"] ;
655 -> 661 ;
662 [label="X[1] <= 1549.5\ngini = 0.508\nsamples = 248\nvalue = [162, 31, 55]"] ;
596 -> 662 ;
663 [label="X[1] <= 315.5\ngini = 0.553\nsamples = 194\nvalue = [116, 26, 52]"] ;
662 -> 663 ;
664 [label="X[9] <= 14.28\ngini = 0.353\nsamples = 62\nvalue = [49, 6, 7]"] ;
663 -> 664 ;
665 [label="X[6] <= 0.5\ngini = 0.188\nsamples = 39\nvalue = [35, 1, 3]"] ;
664 -> 665 ;
666 [label="gini = 0.0\nsamples = 1\nvalue = [0, 1, 0]"] ;
665 -> 666 ;
667 [label="X[1] <= 25.5\ngini = 0.145\nsamples = 38\nvalue = [35, 0, 3]"] ;
665 -> 667 ;
668 [label="X[2] <= 189.0\ngini = 0.444\nsamples = 6\nvalue = [4, 0, 2]"] ;
667 -> 668 ;
669 [label="X[10] <= 2000.5\ngini = 0.444\nsamples = 3\nvalue = [1, 0, 2]"] ;
668 -> 669 ;
670 [label="gini = 0.0\nsamples = 2\nvalue = [0, 0, 2]"] ;
669 -> 670 ;
671 [label="gini = 0.0\nsamples = 1\nvalue = [1, 0, 0]"] ;
669 -> 671 ;
672 [label="gini = 0.0\nsamples = 3\nvalue = [3, 0, 0]"] ;
668 -> 672 ;
673 [label="X[2] <= 304.5\ngini = 0.061\nsamples = 32\nvalue = [31, 0, 1]"] ;
667 -> 673 ;
674 [label="gini = 0.0\nsamples = 24\nvalue = [24, 0, 0]"] ;
673 -> 674 ;
675 [label="X[13] <= 3.5\ngini = 0.219\nsamples = 8\nvalue = [7, 0, 1]"] ;
673 -> 675 ;
676 [label="X[9] <= 11.253\ngini = 0.444\nsamples = 3\nvalue = [2, 0, 1]"] ;
675 -> 676 ;
677 [label="gini = 0.0\nsamples = 1\nvalue = [0, 0, 1]"] ;
676 -> 677 ;
678 [label="gini = 0.0\nsamples = 2\nvalue = [2, 0, 0]"] ;
676 -> 678 ;
679 [label="gini = 0.0\nsamples = 5\nvalue = [5, 0, 0]"] ;
675 -> 679 ;
680 [label="X[2] <= 222.0\ngini = 0.552\nsamples = 23\nvalue = [14, 5, 4]"] ;
664 -> 680 ;
681 [label="X[9] <= 19.255\ngini = 0.445\nsamples = 20\nvalue = [14, 5, 1]"] ;
680 -> 681 ;
682 [label="X[16] <= 3.0\ngini = 0.41\nsamples = 19\nvalue = [14, 4, 1]"] ;
681 -> 682 ;
683 [label="gini = 0.0\nsamples = 5\nvalue = [5, 0, 0]"] ;
682 -> 683 ;
684 [label="X[1] <= 204.5\ngini = 0.5\nsamples = 14\nvalue = [9, 4, 1]"] ;
682 -> 684 ;
685 [label="X[8] <= 0.5\ngini = 0.403\nsamples = 12\nvalue = [9, 2, 1]"] ;
684 -> 685 ;
686 [label="X[10] <= 1993.5\ngini = 0.32\nsamples = 10\nvalue = [8, 2, 0]"] ;
685 -> 686 ;
687 [label="X[1] <= 81.5\ngini = 0.5\nsamples = 2\nvalue = [1, 1, 0]"] ;
686 -> 687 ;
688 [label="gini = 0.0\nsamples = 1\nvalue = [0, 1, 0]"] ;
687 -> 688 ;
689 [label="gini = 0.0\nsamples = 1\nvalue = [1, 0, 0]"] ;
687 -> 689 ;
690 [label="X[1] <= 113.0\ngini = 0.219\nsamples = 8\nvalue = [7, 1, 0]"] ;
686 -> 690 ;
691 [label="gini = 0.0\nsamples = 5\nvalue = [5, 0, 0]"] ;
690 -> 691 ;
692 [label="X[1] <= 157.5\ngini = 0.444\nsamples = 3\nvalue = [2, 1, 0]"] ;
690 -> 692 ;
693 [label="gini = 0.0\nsamples = 1\nvalue = [0, 1, 0]"] ;
692 -> 693 ;
694 [label="gini = 0.0\nsamples = 2\nvalue = [2, 0, 0]"] ;
692 -> 694 ;
695 [label="X[3] <= 7.0\ngini = 0.5\nsamples = 2\nvalue = [1, 0, 1]"] ;
685 -> 695 ;
696 [label="gini = 0.0\nsamples = 1\nvalue = [0, 0, 1]"] ;
695 -> 696 ;
697 [label="gini = 0.0\nsamples = 1\nvalue = [1, 0, 0]"] ;
695 -> 697 ;
698 [label="gini = 0.0\nsamples = 2\nvalue = [0, 2, 0]"] ;
684 -> 698 ;
699 [label="gini = 0.0\nsamples = 1\nvalue = [0, 1, 0]"] ;
681 -> 699 ;
700 [label="gini = 0.0\nsamples = 3\nvalue = [0, 0, 3]"] ;
680 -> 700 ;
701 [label="X[4] <= 1.5\ngini = 0.603\nsamples = 132\nvalue = [67, 20, 45]"] ;
663 -> 701 ;
702 [label="X[9] <= 6.253\ngini = 0.586\nsamples = 100\nvalue = [56, 18, 26]"] ;
701 -> 702 ;
703 [label="X[8] <= 0.5\ngini = 0.32\nsamples = 5\nvalue = [1, 4, 0]"] ;
702 -> 703 ;
704 [label="gini = 0.0\nsamples = 4\nvalue = [0, 4, 0]"] ;
703 -> 704 ;
705 [label="gini = 0.0\nsamples = 1\nvalue = [1, 0, 0]"] ;
703 -> 705 ;
706 [label="X[1] <= 347.5\ngini = 0.568\nsamples = 95\nvalue = [55, 14, 26]"] ;
702 -> 706 ;
707 [label="X[9] <= 15.278\ngini = 0.48\nsamples = 5\nvalue = [0, 2, 3]"] ;
706 -> 707 ;
708 [label="gini = 0.0\nsamples = 3\nvalue = [0, 0, 3]"] ;
707 -> 708 ;
709 [label="gini = 0.0\nsamples = 2\nvalue = [0, 2, 0]"] ;
707 -> 709 ;
710 [label="X[9] <= 19.265\ngini = 0.543\nsamples = 90\nvalue = [55, 12, 23]"] ;
706 -> 710 ;
711 [label="X[2] <= 134.5\ngini = 0.534\nsamples = 88\nvalue = [55, 12, 21]"] ;
710 -> 711 ;
712 [label="X[10] <= 1997.5\ngini = 0.48\nsamples = 5\nvalue = [2, 3, 0]"] ;
711 -> 712 ;
713 [label="gini = 0.0\nsamples = 2\nvalue = [2, 0, 0]"] ;
712 -> 713 ;
714 [label="gini = 0.0\nsamples = 3\nvalue = [0, 3, 0]"] ;
712 -> 714 ;
715 [label="X[1] <= 1087.5\ngini = 0.516\nsamples = 83\nvalue = [53, 9, 21]"] ;
711 -> 715 ;
716 [label="X[1] <= 998.5\ngini = 0.547\nsamples = 75\nvalue = [45, 9, 21]"] ;
715 -> 716 ;
717 [label="X[9] <= 13.208\ngini = 0.502\nsamples = 62\nvalue = [40, 5, 17]"] ;
716 -> 717 ;
718 [label="X[10] <= 1999.5\ngini = 0.381\nsamples = 34\nvalue = [26, 2, 6]"] ;
717 -> 718 ;
719 [label="X[11] <= 2.5\ngini = 0.5\nsamples = 2\nvalue = [0, 1, 1]"] ;
718 -> 719 ;
720 [label="gini = 0.0\nsamples = 1\nvalue = [0, 1, 0]"] ;
719 -> 720 ;
721 [label="gini = 0.0\nsamples = 1\nvalue = [0, 0, 1]"] ;
719 -> 721 ;
722 [label="X[1] <= 371.5\ngini = 0.314\nsamples = 32\nvalue = [26, 1, 5]"] ;
718 -> 722 ;
723 [label="gini = 0.0\nsamples = 1\nvalue = [0, 1, 0]"] ;
722 -> 723 ;
724 [label="X[3] <= 7.0\ngini = 0.271\nsamples = 31\nvalue = [26, 0, 5]"] ;
722 -> 724 ;
725 [label="X[1] <= 960.5\ngini = 0.204\nsamples = 26\nvalue = [23, 0, 3]"] ;
724 -> 725 ;
726 [label="gini = 0.0\nsamples = 10\nvalue = [10, 0, 0]"] ;
725 -> 726 ;
727 [label="X[1] <= 963.0\ngini = 0.305\nsamples = 16\nvalue = [13, 0, 3]"] ;
725 -> 727 ;
728 [label="gini = 0.0\nsamples = 1\nvalue = [0, 0, 1]"] ;
727 -> 728 ;
729 [label="X[1] <= 970.5\ngini = 0.231\nsamples = 15\nvalue = [13, 0, 2]"] ;
727 -> 729 ;
730 [label="X[1] <= 968.5\ngini = 0.375\nsamples = 4\nvalue = [3, 0, 1]"] ;
729 -> 730 ;
731 [label="gini = 0.0\nsamples = 2\nvalue = [2, 0, 0]"] ;
730 -> 731 ;
732 [label="gini = 0.5\nsamples = 2\nvalue = [1, 0, 1]"] ;
730 -> 732 ;
733 [label="X[6] <= 0.5\ngini = 0.165\nsamples = 11\nvalue = [10, 0, 1]"] ;
729 -> 733 ;
734 [label="gini = 0.0\nsamples = 8\nvalue = [8, 0, 0]"] ;
733 -> 734 ;
735 [label="X[10] <= 2001.5\ngini = 0.444\nsamples = 3\nvalue = [2, 0, 1]"] ;
733 -> 735 ;
736 [label="X[1] <= 979.0\ngini = 0.5\nsamples = 2\nvalue = [1, 0, 1]"] ;
735 -> 736 ;
737 [label="gini = 0.0\nsamples = 1\nvalue = [1, 0, 0]"] ;
736 -> 737 ;
738 [label="gini = 0.0\nsamples = 1\nvalue = [0, 0, 1]"] ;
736 -> 738 ;
739 [label="gini = 0.0\nsamples = 1\nvalue = [1, 0, 0]"] ;
735 -> 739 ;
740 [label="X[16] <= 3.0\ngini = 0.48\nsamples = 5\nvalue = [3, 0, 2]"] ;
724 -> 740 ;
741 [label="gini = 0.0\nsamples = 2\nvalue = [0, 0, 2]"] ;
740 -> 741 ;
742 [label="gini = 0.0\nsamples = 3\nvalue = [3, 0, 0]"] ;
740 -> 742 ;
743 [label="X[16] <= 3.0\ngini = 0.584\nsamples = 28\nvalue = [14, 3, 11]"] ;
717 -> 743 ;
744 [label="gini = 0.0\nsamples = 3\nvalue = [0, 0, 3]"] ;
743 -> 744 ;
745 [label="X[2] <= 222.0\ngini = 0.57\nsamples = 25\nvalue = [14, 3, 8]"] ;
743 -> 745 ;
746 [label="X[9] <= 17.224\ngini = 0.375\nsamples = 12\nvalue = [9, 3, 0]"] ;
745 -> 746 ;
747 [label="gini = 0.0\nsamples = 6\nvalue = [6, 0, 0]"] ;
746 -> 747 ;
748 [label="X[9] <= 17.796\ngini = 0.5\nsamples = 6\nvalue = [3, 3, 0]"] ;
746 -> 748 ;
749 [label="gini = 0.0\nsamples = 3\nvalue = [0, 3, 0]"] ;
748 -> 749 ;
750 [label="gini = 0.0\nsamples = 3\nvalue = [3, 0, 0]"] ;
748 -> 750 ;
751 [label="X[10] <= 1998.0\ngini = 0.473\nsamples = 13\nvalue = [5, 0, 8]"] ;
745 -> 751 ;
752 [label="gini = 0.0\nsamples = 3\nvalue = [0, 0, 3]"] ;
751 -> 752 ;
753 [label="X[7] <= 7.5\ngini = 0.5\nsamples = 10\nvalue = [5, 0, 5]"] ;
751 -> 753 ;
754 [label="gini = 0.0\nsamples = 1\nvalue = [1, 0, 0]"] ;
753 -> 754 ;
755 [label="X[1] <= 947.5\ngini = 0.494\nsamples = 9\nvalue = [4, 0, 5]"] ;
753 -> 755 ;
756 [label="gini = 0.0\nsamples = 1\nvalue = [1, 0, 0]"] ;
755 -> 756 ;
757 [label="X[1] <= 960.5\ngini = 0.469\nsamples = 8\nvalue = [3, 0, 5]"] ;
755 -> 757 ;
758 [label="gini = 0.0\nsamples = 2\nvalue = [0, 0, 2]"] ;
757 -> 758 ;
759 [label="X[1] <= 962.0\ngini = 0.5\nsamples = 6\nvalue = [3, 0, 3]"] ;
757 -> 759 ;
760 [label="gini = 0.0\nsamples = 1\nvalue = [1, 0, 0]"] ;
759 -> 760 ;
761 [label="X[1] <= 963.5\ngini = 0.48\nsamples = 5\nvalue = [2, 0, 3]"] ;
759 -> 761 ;
762 [label="gini = 0.0\nsamples = 1\nvalue = [0, 0, 1]"] ;
761 -> 762 ;
763 [label="X[1] <= 965.0\ngini = 0.5\nsamples = 4\nvalue = [2, 0, 2]"] ;
761 -> 763 ;
764 [label="gini = 0.0\nsamples = 1\nvalue = [1, 0, 0]"] ;
763 -> 764 ;
765 [label="X[1] <= 966.5\ngini = 0.444\nsamples = 3\nvalue = [1, 0, 2]"] ;
763 -> 765 ;
766 [label="gini = 0.0\nsamples = 1\nvalue = [0, 0, 1]"] ;
765 -> 766 ;
767 [label="X[1] <= 970.5\ngini = 0.5\nsamples = 2\nvalue = [1, 0, 1]"] ;
765 -> 767 ;
768 [label="gini = 0.0\nsamples = 1\nvalue = [1, 0, 0]"] ;
767 -> 768 ;
769 [label="gini = 0.0\nsamples = 1\nvalue = [0, 0, 1]"] ;
767 -> 769 ;
770 [label="X[1] <= 1031.5\ngini = 0.663\nsamples = 13\nvalue = [5, 4, 4]"] ;
716 -> 770 ;
771 [label="X[1] <= 1007.5\ngini = 0.375\nsamples = 4\nvalue = [0, 1, 3]"] ;
770 -> 771 ;
772 [label="gini = 0.0\nsamples = 2\nvalue = [0, 0, 2]"] ;
771 -> 772 ;
773 [label="X[2] <= 498.5\ngini = 0.5\nsamples = 2\nvalue = [0, 1, 1]"] ;
771 -> 773 ;
774 [label="gini = 0.0\nsamples = 1\nvalue = [0, 0, 1]"] ;
773 -> 774 ;
775 [label="gini = 0.0\nsamples = 1\nvalue = [0, 1, 0]"] ;
773 -> 775 ;
776 [label="X[1] <= 1068.0\ngini = 0.568\nsamples = 9\nvalue = [5, 3, 1]"] ;
770 -> 776 ;
777 [label="X[1] <= 1043.0\ngini = 0.531\nsamples = 8\nvalue = [5, 2, 1]"] ;
776 -> 777 ;
778 [label="X[1] <= 1041.0\ngini = 0.611\nsamples = 6\nvalue = [3, 2, 1]"] ;
777 -> 778 ;
779 [label="X[1] <= 1032.5\ngini = 0.48\nsamples = 5\nvalue = [3, 2, 0]"] ;
778 -> 779 ;
780 [label="gini = 0.0\nsamples = 1\nvalue = [1, 0, 0]"] ;
779 -> 780 ;
781 [label="X[1] <= 1036.0\ngini = 0.5\nsamples = 4\nvalue = [2, 2, 0]"] ;
779 -> 781 ;
782 [label="gini = 0.0\nsamples = 1\nvalue = [0, 1, 0]"] ;
781 -> 782 ;
783 [label="X[1] <= 1039.5\ngini = 0.444\nsamples = 3\nvalue = [2, 1, 0]"] ;
781 -> 783 ;
784 [label="gini = 0.0\nsamples = 1\nvalue = [1, 0, 0]"] ;
783 -> 784 ;
785 [label="gini = 0.5\nsamples = 2\nvalue = [1, 1, 0]"] ;
783 -> 785 ;
786 [label="gini = 0.0\nsamples = 1\nvalue = [0, 0, 1]"] ;
778 -> 786 ;
787 [label="gini = 0.0\nsamples = 2\nvalue = [2, 0, 0]"] ;
777 -> 787 ;
788 [label="gini = 0.0\nsamples = 1\nvalue = [0, 1, 0]"] ;
776 -> 788 ;
789 [label="gini = 0.0\nsamples = 8\nvalue = [8, 0, 0]"] ;
715 -> 789 ;
790 [label="gini = 0.0\nsamples = 2\nvalue = [0, 0, 2]"] ;
710 -> 790 ;
791 [label="X[1] <= 770.5\ngini = 0.525\nsamples = 32\nvalue = [11, 2, 19]"] ;
701 -> 791 ;
792 [label="X[9] <= 7.177\ngini = 0.52\nsamples = 14\nvalue = [9, 2, 3]"] ;
791 -> 792 ;
793 [label="gini = 0.0\nsamples = 2\nvalue = [0, 2, 0]"] ;
792 -> 793 ;
794 [label="X[1] <= 350.5\ngini = 0.375\nsamples = 12\nvalue = [9, 0, 3]"] ;
792 -> 794 ;
795 [label="gini = 0.0\nsamples = 1\nvalue = [0, 0, 1]"] ;
794 -> 795 ;
796 [label="X[9] <= 8.183\ngini = 0.298\nsamples = 11\nvalue = [9, 0, 2]"] ;
794 -> 796 ;
797 [label="X[1] <= 378.5\ngini = 0.5\nsamples = 4\nvalue = [2, 0, 2]"] ;
796 -> 797 ;
798 [label="gini = 0.0\nsamples = 1\nvalue = [1, 0, 0]"] ;
797 -> 798 ;
799 [label="X[1] <= 388.5\ngini = 0.444\nsamples = 3\nvalue = [1, 0, 2]"] ;
797 -> 799 ;
800 [label="gini = 0.0\nsamples = 1\nvalue = [0, 0, 1]"] ;
799 -> 800 ;
801 [label="X[1] <= 392.5\ngini = 0.5\nsamples = 2\nvalue = [1, 0, 1]"] ;
799 -> 801 ;
802 [label="gini = 0.0\nsamples = 1\nvalue = [1, 0, 0]"] ;
801 -> 802 ;
803 [label="gini = 0.0\nsamples = 1\nvalue = [0, 0, 1]"] ;
801 -> 803 ;
804 [label="gini = 0.0\nsamples = 7\nvalue = [7, 0, 0]"] ;
796 -> 804 ;
805 [label="X[9] <= 8.702\ngini = 0.198\nsamples = 18\nvalue = [2, 0, 16]"] ;
791 -> 805 ;
806 [label="X[1] <= 1125.0\ngini = 0.375\nsamples = 8\nvalue = [2, 0, 6]"] ;
805 -> 806 ;
807 [label="gini = 0.0\nsamples = 6\nvalue = [0, 0, 6]"] ;
806 -> 807 ;
808 [label="gini = 0.0\nsamples = 2\nvalue = [2, 0, 0]"] ;
806 -> 808 ;
809 [label="gini = 0.0\nsamples = 10\nvalue = [0, 0, 10]"] ;
805 -> 809 ;
810 [label="X[1] <= 1784.0\ngini = 0.263\nsamples = 54\nvalue = [46, 5, 3]"] ;
662 -> 810 ;
811 [label="X[1] <= 1759.5\ngini = 0.054\nsamples = 36\nvalue = [35, 1, 0]"] ;
810 -> 811 ;
812 [label="gini = 0.0\nsamples = 22\nvalue = [22, 0, 0]"] ;
811 -> 812 ;
813 [label="X[1] <= 1764.0\ngini = 0.133\nsamples = 14\nvalue = [13, 1, 0]"] ;
811 -> 813 ;
814 [label="gini = 0.5\nsamples = 2\nvalue = [1, 1, 0]"] ;
813 -> 814 ;
815 [label="gini = 0.0\nsamples = 12\nvalue = [12, 0, 0]"] ;
813 -> 815 ;
816 [label="X[1] <= 1893.5\ngini = 0.549\nsamples = 18\nvalue = [11, 4, 3]"] ;
810 -> 816 ;
817 [label="X[1] <= 1873.0\ngini = 0.653\nsamples = 12\nvalue = [5, 4, 3]"] ;
816 -> 817 ;
818 [label="X[1] <= 1786.5\ngini = 0.568\nsamples = 9\nvalue = [5, 3, 1]"] ;
817 -> 818 ;
819 [label="gini = 0.0\nsamples = 1\nvalue = [0, 1, 0]"] ;
818 -> 819 ;
820 [label="X[9] <= 12.211\ngini = 0.531\nsamples = 8\nvalue = [5, 2, 1]"] ;
818 -> 820 ;
821 [label="X[1] <= 1809.5\ngini = 0.444\nsamples = 3\nvalue = [1, 2, 0]"] ;
820 -> 821 ;
822 [label="gini = 0.0\nsamples = 1\nvalue = [0, 1, 0]"] ;
821 -> 822 ;
823 [label="X[1] <= 1827.0\ngini = 0.5\nsamples = 2\nvalue = [1, 1, 0]"] ;
821 -> 823 ;
824 [label="gini = 0.0\nsamples = 1\nvalue = [1, 0, 0]"] ;
823 -> 824 ;
825 [label="gini = 0.0\nsamples = 1\nvalue = [0, 1, 0]"] ;
823 -> 825 ;
826 [label="X[9] <= 13.206\ngini = 0.32\nsamples = 5\nvalue = [4, 0, 1]"] ;
820 -> 826 ;
827 [label="X[1] <= 1814.0\ngini = 0.5\nsamples = 2\nvalue = [1, 0, 1]"] ;
826 -> 827 ;
828 [label="gini = 0.0\nsamples = 1\nvalue = [0, 0, 1]"] ;
827 -> 828 ;
829 [label="gini = 0.0\nsamples = 1\nvalue = [1, 0, 0]"] ;
827 -> 829 ;
830 [label="gini = 0.0\nsamples = 3\nvalue = [3, 0, 0]"] ;
826 -> 830 ;
831 [label="X[1] <= 1882.0\ngini = 0.444\nsamples = 3\nvalue = [0, 1, 2]"] ;
817 -> 831 ;
832 [label="gini = 0.0\nsamples = 2\nvalue = [0, 0, 2]"] ;
831 -> 832 ;
833 [label="gini = 0.0\nsamples = 1\nvalue = [0, 1, 0]"] ;
831 -> 833 ;
834 [label="gini = 0.0\nsamples = 6\nvalue = [6, 0, 0]"] ;
816 -> 834 ;
835 [label="X[13] <= 3.0\ngini = 0.453\nsamples = 52\nvalue = [18, 0, 34]"] ;
593 -> 835 ;
836 [label="X[6] <= 0.5\ngini = 0.153\nsamples = 12\nvalue = [11, 0, 1]"] ;
835 -> 836 ;
837 [label="gini = 0.0\nsamples = 1\nvalue = [0, 0, 1]"] ;
836 -> 837 ;
838 [label="gini = 0.0\nsamples = 11\nvalue = [11, 0, 0]"] ;
836 -> 838 ;
839 [label="X[4] <= 1.5\ngini = 0.289\nsamples = 40\nvalue = [7, 0, 33]"] ;
835 -> 839 ;
840 [label="X[1] <= 1380.5\ngini = 0.32\nsamples = 5\nvalue = [4, 0, 1]"] ;
839 -> 840 ;
841 [label="X[1] <= 1375.5\ngini = 0.5\nsamples = 2\nvalue = [1, 0, 1]"] ;
840 -> 841 ;
842 [label="gini = 0.0\nsamples = 1\nvalue = [1, 0, 0]"] ;
841 -> 842 ;
843 [label="gini = 0.0\nsamples = 1\nvalue = [0, 0, 1]"] ;
841 -> 843 ;
844 [label="gini = 0.0\nsamples = 3\nvalue = [3, 0, 0]"] ;
840 -> 844 ;
845 [label="X[1] <= 864.0\ngini = 0.157\nsamples = 35\nvalue = [3, 0, 32]"] ;
839 -> 845 ;
846 [label="X[6] <= 0.5\ngini = 0.48\nsamples = 5\nvalue = [2, 0, 3]"] ;
845 -> 846 ;
847 [label="gini = 0.0\nsamples = 2\nvalue = [0, 0, 2]"] ;
846 -> 847 ;
848 [label="X[9] <= 5.405\ngini = 0.444\nsamples = 3\nvalue = [2, 0, 1]"] ;
846 -> 848 ;
849 [label="gini = 0.0\nsamples = 1\nvalue = [1, 0, 0]"] ;
848 -> 849 ;
850 [label="X[1] <= 784.5\ngini = 0.5\nsamples = 2\nvalue = [1, 0, 1]"] ;
848 -> 850 ;
851 [label="gini = 0.0\nsamples = 1\nvalue = [0, 0, 1]"] ;
850 -> 851 ;
852 [label="gini = 0.0\nsamples = 1\nvalue = [1, 0, 0]"] ;
850 -> 852 ;
853 [label="X[9] <= 14.317\ngini = 0.064\nsamples = 30\nvalue = [1, 0, 29]"] ;
845 -> 853 ;
854 [label="gini = 0.0\nsamples = 27\nvalue = [0, 0, 27]"] ;
853 -> 854 ;
855 [label="X[1] <= 1308.0\ngini = 0.444\nsamples = 3\nvalue = [1, 0, 2]"] ;
853 -> 855 ;
856 [label="gini = 0.0\nsamples = 2\nvalue = [0, 0, 2]"] ;
855 -> 856 ;
857 [label="gini = 0.0\nsamples = 1\nvalue = [1, 0, 0]"] ;
855 -> 857 ;
858 [label="X[16] <= 5.0\ngini = 0.502\nsamples = 117\nvalue = [36, 7, 74]"] ;
478 -> 858 ;
859 [label="X[9] <= 6.009\ngini = 0.544\nsamples = 21\nvalue = [13, 4, 4]"] ;
858 -> 859 ;
860 [label="X[9] <= 2.649\ngini = 0.165\nsamples = 11\nvalue = [10, 0, 1]"] ;
859 -> 860 ;
861 [label="X[1] <= 378.0\ngini = 0.375\nsamples = 4\nvalue = [3, 0, 1]"] ;
860 -> 861 ;
862 [label="gini = 0.0\nsamples = 1\nvalue = [0, 0, 1]"] ;
861 -> 862 ;
863 [label="gini = 0.0\nsamples = 3\nvalue = [3, 0, 0]"] ;
861 -> 863 ;
864 [label="gini = 0.0\nsamples = 7\nvalue = [7, 0, 0]"] ;
860 -> 864 ;
865 [label="X[2] <= 167.0\ngini = 0.66\nsamples = 10\nvalue = [3, 4, 3]"] ;
859 -> 865 ;
866 [label="gini = 0.0\nsamples = 2\nvalue = [0, 0, 2]"] ;
865 -> 866 ;
867 [label="X[13] <= 1.5\ngini = 0.594\nsamples = 8\nvalue = [3, 4, 1]"] ;
865 -> 867 ;
868 [label="gini = 0.0\nsamples = 2\nvalue = [0, 2, 0]"] ;
867 -> 868 ;
869 [label="X[7] <= 5.0\ngini = 0.611\nsamples = 6\nvalue = [3, 2, 1]"] ;
867 -> 869 ;
870 [label="X[1] <= 1624.5\ngini = 0.5\nsamples = 4\nvalue = [2, 2, 0]"] ;
869 -> 870 ;
871 [label="gini = 0.0\nsamples = 1\nvalue = [1, 0, 0]"] ;
870 -> 871 ;
872 [label="X[1] <= 2457.5\ngini = 0.444\nsamples = 3\nvalue = [1, 2, 0]"] ;
870 -> 872 ;
873 [label="gini = 0.0\nsamples = 1\nvalue = [0, 1, 0]"] ;
872 -> 873 ;
874 [label="X[1] <= 2465.5\ngini = 0.5\nsamples = 2\nvalue = [1, 1, 0]"] ;
872 -> 874 ;
875 [label="gini = 0.0\nsamples = 1\nvalue = [1, 0, 0]"] ;
874 -> 875 ;
876 [label="gini = 0.0\nsamples = 1\nvalue = [0, 1, 0]"] ;
874 -> 876 ;
877 [label="X[1] <= 2400.0\ngini = 0.5\nsamples = 2\nvalue = [1, 0, 1]"] ;
869 -> 877 ;
878 [label="gini = 0.0\nsamples = 1\nvalue = [0, 0, 1]"] ;
877 -> 878 ;
879 [label="gini = 0.0\nsamples = 1\nvalue = [1, 0, 0]"] ;
877 -> 879 ;
880 [label="X[9] <= 3.152\ngini = 0.41\nsamples = 96\nvalue = [23, 3, 70]"] ;
858 -> 880 ;
881 [label="X[1] <= 1658.5\ngini = 0.567\nsamples = 23\nvalue = [12, 2, 9]"] ;
880 -> 881 ;
882 [label="X[9] <= 3.144\ngini = 0.444\nsamples = 12\nvalue = [4, 0, 8]"] ;
881 -> 882 ;
883 [label="X[8] <= 0.5\ngini = 0.32\nsamples = 10\nvalue = [2, 0, 8]"] ;
882 -> 883 ;
884 [label="gini = 0.0\nsamples = 1\nvalue = [1, 0, 0]"] ;
883 -> 884 ;
885 [label="X[2] <= 290.5\ngini = 0.198\nsamples = 9\nvalue = [1, 0, 8]"] ;
883 -> 885 ;
886 [label="gini = 0.0\nsamples = 6\nvalue = [0, 0, 6]"] ;
885 -> 886 ;
887 [label="X[10] <= 2010.5\ngini = 0.444\nsamples = 3\nvalue = [1, 0, 2]"] ;
885 -> 887 ;
888 [label="gini = 0.0\nsamples = 1\nvalue = [1, 0, 0]"] ;
887 -> 888 ;
889 [label="gini = 0.0\nsamples = 2\nvalue = [0, 0, 2]"] ;
887 -> 889 ;
890 [label="gini = 0.0\nsamples = 2\nvalue = [2, 0, 0]"] ;
882 -> 890 ;
891 [label="X[1] <= 1718.5\ngini = 0.43\nsamples = 11\nvalue = [8, 2, 1]"] ;
881 -> 891 ;
892 [label="X[9] <= 2.634\ngini = 0.444\nsamples = 3\nvalue = [1, 2, 0]"] ;
891 -> 892 ;
893 [label="gini = 0.0\nsamples = 1\nvalue = [1, 0, 0]"] ;
892 -> 893 ;
894 [label="gini = 0.0\nsamples = 2\nvalue = [0, 2, 0]"] ;
892 -> 894 ;
895 [label="X[1] <= 1750.0\ngini = 0.219\nsamples = 8\nvalue = [7, 0, 1]"] ;
891 -> 895 ;
896 [label="X[1] <= 1746.5\ngini = 0.444\nsamples = 3\nvalue = [2, 0, 1]"] ;
895 -> 896 ;
897 [label="gini = 0.0\nsamples = 2\nvalue = [2, 0, 0]"] ;
896 -> 897 ;
898 [label="gini = 0.0\nsamples = 1\nvalue = [0, 0, 1]"] ;
896 -> 898 ;
899 [label="gini = 0.0\nsamples = 5\nvalue = [5, 0, 0]"] ;
895 -> 899 ;
900 [label="X[1] <= 1874.0\ngini = 0.279\nsamples = 73\nvalue = [11, 1, 61]"] ;
880 -> 900 ;
901 [label="X[14] <= 6.5\ngini = 0.263\nsamples = 72\nvalue = [10, 1, 61]"] ;
900 -> 901 ;
902 [label="X[2] <= 284.0\ngini = 0.246\nsamples = 71\nvalue = [9, 1, 61]"] ;
901 -> 902 ;
903 [label="X[2] <= 167.0\ngini = 0.158\nsamples = 47\nvalue = [3, 1, 43]"] ;
902 -> 903 ;
904 [label="gini = 0.0\nsamples = 17\nvalue = [0, 0, 17]"] ;
903 -> 904 ;
905 [label="X[1] <= 1418.5\ngini = 0.238\nsamples = 30\nvalue = [3, 1, 26]"] ;
903 -> 905 ;
906 [label="gini = 0.0\nsamples = 1\nvalue = [1, 0, 0]"] ;
905 -> 906 ;
907 [label="X[13] <= 3.5\ngini = 0.19\nsamples = 29\nvalue = [2, 1, 26]"] ;
905 -> 907 ;
908 [label="X[9] <= 5.125\ngini = 0.14\nsamples = 27\nvalue = [1, 1, 25]"] ;
907 -> 908 ;
909 [label="X[1] <= 1775.5\ngini = 0.5\nsamples = 2\nvalue = [1, 0, 1]"] ;
908 -> 909 ;
910 [label="gini = 0.0\nsamples = 1\nvalue = [1, 0, 0]"] ;
909 -> 910 ;
911 [label="gini = 0.0\nsamples = 1\nvalue = [0, 0, 1]"] ;
909 -> 911 ;
912 [label="X[9] <= 5.13\ngini = 0.077\nsamples = 25\nvalue = [0, 1, 24]"] ;
908 -> 912 ;
913 [label="X[1] <= 1735.5\ngini = 0.278\nsamples = 6\nvalue = [0, 1, 5]"] ;
912 -> 913 ;
914 [label="gini = 0.0\nsamples = 4\nvalue = [0, 0, 4]"] ;
913 -> 914 ;
915 [label="X[1] <= 1752.0\ngini = 0.5\nsamples = 2\nvalue = [0, 1, 1]"] ;
913 -> 915 ;
916 [label="gini = 0.0\nsamples = 1\nvalue = [0, 1, 0]"] ;
915 -> 916 ;
917 [label="gini = 0.0\nsamples = 1\nvalue = [0, 0, 1]"] ;
915 -> 917 ;
918 [label="gini = 0.0\nsamples = 19\nvalue = [0, 0, 19]"] ;
912 -> 918 ;
919 [label="X[3] <= 2.5\ngini = 0.5\nsamples = 2\nvalue = [1, 0, 1]"] ;
907 -> 919 ;
920 [label="gini = 0.0\nsamples = 1\nvalue = [1, 0, 0]"] ;
919 -> 920 ;
921 [label="gini = 0.0\nsamples = 1\nvalue = [0, 0, 1]"] ;
919 -> 921 ;
922 [label="X[9] <= 5.149\ngini = 0.375\nsamples = 24\nvalue = [6, 0, 18]"] ;
902 -> 922 ;
923 [label="X[3] <= 2.5\ngini = 0.208\nsamples = 17\nvalue = [2, 0, 15]"] ;
922 -> 923 ;
924 [label="gini = 0.0\nsamples = 10\nvalue = [0, 0, 10]"] ;
923 -> 924 ;
925 [label="X[1] <= 1476.5\ngini = 0.408\nsamples = 7\nvalue = [2, 0, 5]"] ;
923 -> 925 ;
926 [label="gini = 0.0\nsamples = 4\nvalue = [0, 0, 4]"] ;
925 -> 926 ;
927 [label="X[1] <= 1570.5\ngini = 0.444\nsamples = 3\nvalue = [2, 0, 1]"] ;
925 -> 927 ;
928 [label="gini = 0.0\nsamples = 1\nvalue = [1, 0, 0]"] ;
927 -> 928 ;
929 [label="X[9] <= 4.645\ngini = 0.5\nsamples = 2\nvalue = [1, 0, 1]"] ;
927 -> 929 ;
930 [label="gini = 0.0\nsamples = 1\nvalue = [0, 0, 1]"] ;
929 -> 930 ;
931 [label="gini = 0.0\nsamples = 1\nvalue = [1, 0, 0]"] ;
929 -> 931 ;
932 [label="X[13] <= 1.5\ngini = 0.49\nsamples = 7\nvalue = [4, 0, 3]"] ;
922 -> 932 ;
933 [label="X[1] <= 1417.5\ngini = 0.32\nsamples = 5\nvalue = [4, 0, 1]"] ;
932 -> 933 ;
934 [label="X[1] <= 1379.5\ngini = 0.5\nsamples = 2\nvalue = [1, 0, 1]"] ;
933 -> 934 ;
935 [label="gini = 0.0\nsamples = 1\nvalue = [1, 0, 0]"] ;
934 -> 935 ;
936 [label="gini = 0.0\nsamples = 1\nvalue = [0, 0, 1]"] ;
934 -> 936 ;
937 [label="gini = 0.0\nsamples = 3\nvalue = [3, 0, 0]"] ;
933 -> 937 ;
938 [label="gini = 0.0\nsamples = 2\nvalue = [0, 0, 2]"] ;
932 -> 938 ;
939 [label="gini = 0.0\nsamples = 1\nvalue = [1, 0, 0]"] ;
901 -> 939 ;
940 [label="gini = 0.0\nsamples = 1\nvalue = [1, 0, 0]"] ;
900 -> 940 ;
941 [label="X[7] <= 9.5\ngini = 0.248\nsamples = 3125\nvalue = [2687, 98, 340]"] ;
477 -> 941 ;
942 [label="X[10] <= 1993.5\ngini = 0.3\nsamples = 2205\nvalue = [1818, 87, 300]"] ;
941 -> 942 ;
943 [label="X[2] <= 143.0\ngini = 0.408\nsamples = 21\nvalue = [6, 0, 15]"] ;
942 -> 943 ;
944 [label="X[9] <= 18.223\ngini = 0.375\nsamples = 20\nvalue = [5, 0, 15]"] ;
943 -> 944 ;
945 [label="gini = 0.0\nsamples = 1\nvalue = [1, 0, 0]"] ;
944 -> 945 ;
946 [label="X[6] <= 0.5\ngini = 0.332\nsamples = 19\nvalue = [4, 0, 15]"] ;
944 -> 946 ;
947 [label="gini = 0.0\nsamples = 1\nvalue = [1, 0, 0]"] ;
946 -> 947 ;
948 [label="X[9] <= 18.227\ngini = 0.278\nsamples = 18\nvalue = [3, 0, 15]"] ;
946 -> 948 ;
949 [label="gini = 0.0\nsamples = 6\nvalue = [0, 0, 6]"] ;
948 -> 949 ;
950 [label="X[9] <= 18.233\ngini = 0.375\nsamples = 12\nvalue = [3, 0, 9]"] ;
948 -> 950 ;
951 [label="X[13] <= 3.5\ngini = 0.49\nsamples = 7\nvalue = [3, 0, 4]"] ;
950 -> 951 ;
952 [label="X[1] <= 9.0\ngini = 0.32\nsamples = 5\nvalue = [1, 0, 4]"] ;
951 -> 952 ;
953 [label="gini = 0.0\nsamples = 3\nvalue = [0, 0, 3]"] ;
952 -> 953 ;
954 [label="X[5] <= 6.5\ngini = 0.5\nsamples = 2\nvalue = [1, 0, 1]"] ;
952 -> 954 ;
955 [label="gini = 0.0\nsamples = 1\nvalue = [1, 0, 0]"] ;
954 -> 955 ;
956 [label="gini = 0.0\nsamples = 1\nvalue = [0, 0, 1]"] ;
954 -> 956 ;
957 [label="gini = 0.0\nsamples = 2\nvalue = [2, 0, 0]"] ;
951 -> 957 ;
958 [label="gini = 0.0\nsamples = 5\nvalue = [0, 0, 5]"] ;
950 -> 958 ;
959 [label="gini = 0.0\nsamples = 1\nvalue = [1, 0, 0]"] ;
943 -> 959 ;
960 [label="X[4] <= 6.5\ngini = 0.293\nsamples = 2184\nvalue = [1812, 87, 285]"] ;
942 -> 960 ;
961 [label="X[12] <= 0.5\ngini = 0.286\nsamples = 2170\nvalue = [1811, 83, 276]"] ;
960 -> 961 ;
962 [label="X[10] <= 1999.0\ngini = 0.141\nsamples = 579\nvalue = [535, 4, 40]"] ;
961 -> 962 ;
963 [label="X[11] <= 7.0\ngini = 0.499\nsamples = 19\nvalue = [10, 0, 9]"] ;
962 -> 963 ;
964 [label="X[1] <= 989.5\ngini = 0.426\nsamples = 13\nvalue = [4, 0, 9]"] ;
963 -> 964 ;
965 [label="gini = 0.0\nsamples = 6\nvalue = [0, 0, 6]"] ;
964 -> 965 ;
966 [label="X[13] <= 3.5\ngini = 0.49\nsamples = 7\nvalue = [4, 0, 3]"] ;
964 -> 966 ;
967 [label="X[1] <= 1520.5\ngini = 0.444\nsamples = 3\nvalue = [1, 0, 2]"] ;
966 -> 967 ;
968 [label="gini = 0.0\nsamples = 2\nvalue = [0, 0, 2]"] ;
967 -> 968 ;
969 [label="gini = 0.0\nsamples = 1\nvalue = [1, 0, 0]"] ;
967 -> 969 ;
970 [label="X[5] <= 5.0\ngini = 0.375\nsamples = 4\nvalue = [3, 0, 1]"] ;
966 -> 970 ;
971 [label="gini = 0.0\nsamples = 2\nvalue = [2, 0, 0]"] ;
970 -> 971 ;
972 [label="X[1] <= 1491.0\ngini = 0.5\nsamples = 2\nvalue = [1, 0, 1]"] ;
970 -> 972 ;
973 [label="gini = 0.0\nsamples = 1\nvalue = [0, 0, 1]"] ;
972 -> 973 ;
974 [label="gini = 0.0\nsamples = 1\nvalue = [1, 0, 0]"] ;
972 -> 974 ;
975 [label="gini = 0.0\nsamples = 6\nvalue = [6, 0, 0]"] ;
963 -> 975 ;
976 [label="X[10] <= 2009.5\ngini = 0.118\nsamples = 560\nvalue = [525, 4, 31]"] ;
962 -> 976 ;
977 [label="X[1] <= 338.0\ngini = 0.194\nsamples = 271\nvalue = [242, 4, 25]"] ;
976 -> 977 ;
978 [label="X[16] <= 3.0\ngini = 0.164\nsamples = 257\nvalue = [234, 1, 22]"] ;
977 -> 978 ;
979 [label="X[1] <= -26.5\ngini = 0.029\nsamples = 68\nvalue = [67, 1, 0]"] ;
978 -> 979 ;
980 [label="X[14] <= 5.0\ngini = 0.375\nsamples = 4\nvalue = [3, 1, 0]"] ;
979 -> 980 ;
981 [label="gini = 0.0\nsamples = 1\nvalue = [0, 1, 0]"] ;
980 -> 981 ;
982 [label="gini = 0.0\nsamples = 3\nvalue = [3, 0, 0]"] ;
980 -> 982 ;
983 [label="gini = 0.0\nsamples = 64\nvalue = [64, 0, 0]"] ;
979 -> 983 ;
984 [label="X[1] <= -17.5\ngini = 0.206\nsamples = 189\nvalue = [167, 0, 22]"] ;
978 -> 984 ;
985 [label="gini = 0.0\nsamples = 24\nvalue = [24, 0, 0]"] ;
984 -> 985 ;
986 [label="X[1] <= -16.5\ngini = 0.231\nsamples = 165\nvalue = [143, 0, 22]"] ;
984 -> 986 ;
987 [label="gini = 0.0\nsamples = 2\nvalue = [0, 0, 2]"] ;
986 -> 987 ;
988 [label="X[9] <= 2.234\ngini = 0.215\nsamples = 163\nvalue = [143, 0, 20]"] ;
986 -> 988 ;
989 [label="X[9] <= 2.211\ngini = 0.32\nsamples = 35\nvalue = [28, 0, 7]"] ;
988 -> 989 ;
990 [label="X[1] <= 152.0\ngini = 0.18\nsamples = 30\nvalue = [27, 0, 3]"] ;
989 -> 990 ;
991 [label="X[9] <= 2.177\ngini = 0.444\nsamples = 6\nvalue = [4, 0, 2]"] ;
990 -> 991 ;
992 [label="gini = 0.0\nsamples = 4\nvalue = [4, 0, 0]"] ;
991 -> 992 ;
993 [label="gini = 0.0\nsamples = 2\nvalue = [0, 0, 2]"] ;
991 -> 993 ;
994 [label="X[9] <= 2.157\ngini = 0.08\nsamples = 24\nvalue = [23, 0, 1]"] ;
990 -> 994 ;
995 [label="X[5] <= 4.0\ngini = 0.444\nsamples = 3\nvalue = [2, 0, 1]"] ;
994 -> 995 ;
996 [label="gini = 0.0\nsamples = 1\nvalue = [1, 0, 0]"] ;
995 -> 996 ;
997 [label="X[1] <= 249.5\ngini = 0.5\nsamples = 2\nvalue = [1, 0, 1]"] ;
995 -> 997 ;
998 [label="gini = 0.0\nsamples = 1\nvalue = [1, 0, 0]"] ;
997 -> 998 ;
999 [label="gini = 0.0\nsamples = 1\nvalue = [0, 0, 1]"] ;
997 -> 999 ;
1000 [label="gini = 0.0\nsamples = 21\nvalue = [21, 0, 0]"] ;
994 -> 1000 ;
1001 [label="X[1] <= 6.5\ngini = 0.32\nsamples = 5\nvalue = [1, 0, 4]"] ;
989 -> 1001 ;
1002 [label="gini = 0.0\nsamples = 4\nvalue = [0, 0, 4]"] ;
1001 -> 1002 ;
1003 [label="gini = 0.0\nsamples = 1\nvalue = [1, 0, 0]"] ;
1001 -> 1003 ;
1004 [label="X[1] <= -1.5\ngini = 0.182\nsamples = 128\nvalue = [115, 0, 13]"] ;
988 -> 1004 ;
1005 [label="gini = 0.0\nsamples = 24\nvalue = [24, 0, 0]"] ;
1004 -> 1005 ;
1006 [label="X[1] <= 1.5\ngini = 0.219\nsamples = 104\nvalue = [91, 0, 13]"] ;
1004 -> 1006 ;
1007 [label="X[5] <= 3.5\ngini = 0.444\nsamples = 3\nvalue = [1, 0, 2]"] ;
1006 -> 1007 ;
1008 [label="gini = 0.0\nsamples = 2\nvalue = [0, 0, 2]"] ;
1007 -> 1008 ;
1009 [label="gini = 0.0\nsamples = 1\nvalue = [1, 0, 0]"] ;
1007 -> 1009 ;
1010 [label="X[9] <= 3.183\ngini = 0.194\nsamples = 101\nvalue = [90, 0, 11]"] ;
1006 -> 1010 ;
1011 [label="gini = 0.0\nsamples = 12\nvalue = [12, 0, 0]"] ;
1010 -> 1011 ;
1012 [label="X[9] <= 3.191\ngini = 0.217\nsamples = 89\nvalue = [78, 0, 11]"] ;
1010 -> 1012 ;
1013 [label="gini = 0.0\nsamples = 1\nvalue = [0, 0, 1]"] ;
1012 -> 1013 ;
1014 [label="X[5] <= 4.0\ngini = 0.201\nsamples = 88\nvalue = [78, 0, 10]"] ;
1012 -> 1014 ;
1015 [label="X[9] <= 6.673\ngini = 0.067\nsamples = 29\nvalue = [28, 0, 1]"] ;
1014 -> 1015 ;
1016 [label="X[9] <= 6.195\ngini = 0.153\nsamples = 12\nvalue = [11, 0, 1]"] ;
1015 -> 1016 ;
1017 [label="gini = 0.0\nsamples = 11\nvalue = [11, 0, 0]"] ;
1016 -> 1017 ;
1018 [label="gini = 0.0\nsamples = 1\nvalue = [0, 0, 1]"] ;
1016 -> 1018 ;
1019 [label="gini = 0.0\nsamples = 17\nvalue = [17, 0, 0]"] ;
1015 -> 1019 ;
1020 [label="X[1] <= 180.5\ngini = 0.259\nsamples = 59\nvalue = [50, 0, 9]"] ;
1014 -> 1020 ;
1021 [label="X[6] <= 0.5\ngini = 0.327\nsamples = 34\nvalue = [27, 0, 7]"] ;
1020 -> 1021 ;
1022 [label="X[1] <= 8.0\ngini = 0.384\nsamples = 27\nvalue = [20, 0, 7]"] ;
1021 -> 1022 ;
1023 [label="gini = 0.0\nsamples = 1\nvalue = [0, 0, 1]"] ;
1022 -> 1023 ;
1024 [label="X[7] <= 2.0\ngini = 0.355\nsamples = 26\nvalue = [20, 0, 6]"] ;
1022 -> 1024 ;
1025 [label="gini = 0.0\nsamples = 3\nvalue = [3, 0, 0]"] ;
1024 -> 1025 ;
1026 [label="X[9] <= 8.676\ngini = 0.386\nsamples = 23\nvalue = [17, 0, 6]"] ;
1024 -> 1026 ;
1027 [label="X[1] <= 153.5\ngini = 0.351\nsamples = 22\nvalue = [17, 0, 5]"] ;
1026 -> 1027 ;
1028 [label="gini = 0.0\nsamples = 3\nvalue = [3, 0, 0]"] ;
1027 -> 1028 ;
1029 [label="X[1] <= 161.0\ngini = 0.388\nsamples = 19\nvalue = [14, 0, 5]"] ;
1027 -> 1029 ;
1030 [label="gini = 0.0\nsamples = 1\nvalue = [0, 0, 1]"] ;
1029 -> 1030 ;
1031 [label="X[9] <= 8.2\ngini = 0.346\nsamples = 18\nvalue = [14, 0, 4]"] ;
1029 -> 1031 ;
1032 [label="X[10] <= 2007.5\ngini = 0.291\nsamples = 17\nvalue = [14, 0, 3]"] ;
1031 -> 1032 ;
1033 [label="X[9] <= 4.204\ngini = 0.397\nsamples = 11\nvalue = [8, 0, 3]"] ;
1032 -> 1033 ;
1034 [label="gini = 0.0\nsamples = 1\nvalue = [0, 0, 1]"] ;
1033 -> 1034 ;
1035 [label="X[5] <= 6.5\ngini = 0.32\nsamples = 10\nvalue = [8, 0, 2]"] ;
1033 -> 1035 ;
1036 [label="gini = 0.0\nsamples = 5\nvalue = [5, 0, 0]"] ;
1035 -> 1036 ;
1037 [label="X[9] <= 7.207\ngini = 0.48\nsamples = 5\nvalue = [3, 0, 2]"] ;
1035 -> 1037 ;
1038 [label="X[10] <= 2005.0\ngini = 0.444\nsamples = 3\nvalue = [1, 0, 2]"] ;
1037 -> 1038 ;
1039 [label="X[1] <= 176.0\ngini = 0.5\nsamples = 2\nvalue = [1, 0, 1]"] ;
1038 -> 1039 ;
1040 [label="gini = 0.0\nsamples = 1\nvalue = [1, 0, 0]"] ;
1039 -> 1040 ;
1041 [label="gini = 0.0\nsamples = 1\nvalue = [0, 0, 1]"] ;
1039 -> 1041 ;
1042 [label="gini = 0.0\nsamples = 1\nvalue = [0, 0, 1]"] ;
1038 -> 1042 ;
1043 [label="gini = 0.0\nsamples = 2\nvalue = [2, 0, 0]"] ;
1037 -> 1043 ;
1044 [label="gini = 0.0\nsamples = 6\nvalue = [6, 0, 0]"] ;
1032 -> 1044 ;
1045 [label="gini = 0.0\nsamples = 1\nvalue = [0, 0, 1]"] ;
1031 -> 1045 ;
1046 [label="gini = 0.0\nsamples = 1\nvalue = [0, 0, 1]"] ;
1026 -> 1046 ;
1047 [label="gini = 0.0\nsamples = 7\nvalue = [7, 0, 0]"] ;
1021 -> 1047 ;
1048 [label="X[2] <= 641.0\ngini = 0.147\nsamples = 25\nvalue = [23, 0, 2]"] ;
1020 -> 1048 ;
1049 [label="gini = 0.0\nsamples = 1\nvalue = [0, 0, 1]"] ;
1048 -> 1049 ;
1050 [label="X[6] <= 0.5\ngini = 0.08\nsamples = 24\nvalue = [23, 0, 1]"] ;
1048 -> 1050 ;
1051 [label="gini = 0.0\nsamples = 19\nvalue = [19, 0, 0]"] ;
1050 -> 1051 ;
1052 [label="X[5] <= 5.5\ngini = 0.32\nsamples = 5\nvalue = [4, 0, 1]"] ;
1050 -> 1052 ;
1053 [label="gini = 0.0\nsamples = 4\nvalue = [4, 0, 0]"] ;
1052 -> 1053 ;
1054 [label="gini = 0.0\nsamples = 1\nvalue = [0, 0, 1]"] ;
1052 -> 1054 ;
1055 [label="X[8] <= 0.5\ngini = 0.582\nsamples = 14\nvalue = [8, 3, 3]"] ;
977 -> 1055 ;
1056 [label="X[11] <= 5.5\ngini = 0.48\nsamples = 5\nvalue = [0, 3, 2]"] ;
1055 -> 1056 ;
1057 [label="gini = 0.0\nsamples = 3\nvalue = [0, 3, 0]"] ;
1056 -> 1057 ;
1058 [label="gini = 0.0\nsamples = 2\nvalue = [0, 0, 2]"] ;
1056 -> 1058 ;
1059 [label="X[1] <= 340.5\ngini = 0.198\nsamples = 9\nvalue = [8, 0, 1]"] ;
1055 -> 1059 ;
1060 [label="gini = 0.0\nsamples = 1\nvalue = [0, 0, 1]"] ;
1059 -> 1060 ;
1061 [label="gini = 0.0\nsamples = 8\nvalue = [8, 0, 0]"] ;
1059 -> 1061 ;
1062 [label="X[9] <= 3.23\ngini = 0.041\nsamples = 289\nvalue = [283, 0, 6]"] ;
976 -> 1062 ;
1063 [label="X[13] <= 3.5\ngini = 0.035\nsamples = 284\nvalue = [279, 0, 5]"] ;
1062 -> 1063 ;
1064 [label="X[2] <= 755.5\ngini = 0.153\nsamples = 24\nvalue = [22, 0, 2]"] ;
1063 -> 1064 ;
1065 [label="gini = 0.0\nsamples = 19\nvalue = [19, 0, 0]"] ;
1064 -> 1065 ;
1066 [label="X[4] <= 4.0\ngini = 0.48\nsamples = 5\nvalue = [3, 0, 2]"] ;
1064 -> 1066 ;
1067 [label="gini = 0.0\nsamples = 2\nvalue = [2, 0, 0]"] ;
1066 -> 1067 ;
1068 [label="X[14] <= 5.5\ngini = 0.444\nsamples = 3\nvalue = [1, 0, 2]"] ;
1066 -> 1068 ;
1069 [label="gini = 0.0\nsamples = 1\nvalue = [1, 0, 0]"] ;
1068 -> 1069 ;
1070 [label="gini = 0.0\nsamples = 2\nvalue = [0, 0, 2]"] ;
1068 -> 1070 ;
1071 [label="X[5] <= 6.5\ngini = 0.023\nsamples = 260\nvalue = [257, 0, 3]"] ;
1063 -> 1071 ;
1072 [label="X[1] <= -10.5\ngini = 0.009\nsamples = 214\nvalue = [213, 0, 1]"] ;
1071 -> 1072 ;
1073 [label="X[1] <= -11.5\ngini = 0.111\nsamples = 17\nvalue = [16, 0, 1]"] ;
1072 -> 1073 ;
1074 [label="gini = 0.0\nsamples = 13\nvalue = [13, 0, 0]"] ;
1073 -> 1074 ;
1075 [label="X[9] <= 1.227\ngini = 0.375\nsamples = 4\nvalue = [3, 0, 1]"] ;
1073 -> 1075 ;
1076 [label="X[0] <= 1.5\ngini = 0.5\nsamples = 2\nvalue = [1, 0, 1]"] ;
1075 -> 1076 ;
1077 [label="gini = 0.0\nsamples = 1\nvalue = [0, 0, 1]"] ;
1076 -> 1077 ;
1078 [label="gini = 0.0\nsamples = 1\nvalue = [1, 0, 0]"] ;
1076 -> 1078 ;
1079 [label="gini = 0.0\nsamples = 2\nvalue = [2, 0, 0]"] ;
1075 -> 1079 ;
1080 [label="gini = 0.0\nsamples = 197\nvalue = [197, 0, 0]"] ;
1072 -> 1080 ;
1081 [label="X[1] <= 88.5\ngini = 0.083\nsamples = 46\nvalue = [44, 0, 2]"] ;
1071 -> 1081 ;
1082 [label="gini = 0.0\nsamples = 32\nvalue = [32, 0, 0]"] ;
1081 -> 1082 ;
1083 [label="X[1] <= 120.5\ngini = 0.245\nsamples = 14\nvalue = [12, 0, 2]"] ;
1081 -> 1083 ;
1084 [label="gini = 0.0\nsamples = 1\nvalue = [0, 0, 1]"] ;
1083 -> 1084 ;
1085 [label="X[9] <= 1.207\ngini = 0.142\nsamples = 13\nvalue = [12, 0, 1]"] ;
1083 -> 1085 ;
1086 [label="gini = 0.0\nsamples = 10\nvalue = [10, 0, 0]"] ;
1085 -> 1086 ;
1087 [label="X[1] <= 180.5\ngini = 0.444\nsamples = 3\nvalue = [2, 0, 1]"] ;
1085 -> 1087 ;
1088 [label="gini = 0.0\nsamples = 2\nvalue = [2, 0, 0]"] ;
1087 -> 1088 ;
1089 [label="gini = 0.0\nsamples = 1\nvalue = [0, 0, 1]"] ;
1087 -> 1089 ;
1090 [label="X[1] <= 50.0\ngini = 0.32\nsamples = 5\nvalue = [4, 0, 1]"] ;
1062 -> 1090 ;
1091 [label="X[1] <= 42.5\ngini = 0.5\nsamples = 2\nvalue = [1, 0, 1]"] ;
1090 -> 1091 ;
1092 [label="gini = 0.0\nsamples = 1\nvalue = [1, 0, 0]"] ;
1091 -> 1092 ;
1093 [label="gini = 0.0\nsamples = 1\nvalue = [0, 0, 1]"] ;
1091 -> 1093 ;
1094 [label="gini = 0.0\nsamples = 3\nvalue = [3, 0, 0]"] ;
1090 -> 1094 ;
1095 [label="X[11] <= 5.0\ngini = 0.332\nsamples = 1591\nvalue = [1276, 79, 236]"] ;
961 -> 1095 ;
1096 [label="X[3] <= 7.0\ngini = 0.257\nsamples = 952\nvalue = [815, 64, 73]"] ;
1095 -> 1096 ;
1097 [label="X[7] <= 2.5\ngini = 0.221\nsamples = 755\nvalue = [663, 37, 55]"] ;
1096 -> 1097 ;
1098 [label="X[5] <= 7.5\ngini = 0.368\nsamples = 37\nvalue = [28, 9, 0]"] ;
1097 -> 1098 ;
1099 [label="X[1] <= 303.0\ngini = 0.32\nsamples = 35\nvalue = [28, 7, 0]"] ;
1098 -> 1099 ;
1100 [label="X[10] <= 2007.0\ngini = 0.35\nsamples = 31\nvalue = [24, 7, 0]"] ;
1099 -> 1100 ;
1101 [label="X[1] <= 290.0\ngini = 0.32\nsamples = 30\nvalue = [24, 6, 0]"] ;
1100 -> 1101 ;
1102 [label="X[9] <= 16.195\ngini = 0.285\nsamples = 29\nvalue = [24, 5, 0]"] ;
1101 -> 1102 ;
1103 [label="gini = 0.0\nsamples = 9\nvalue = [9, 0, 0]"] ;
1102 -> 1103 ;
1104 [label="X[1] <= 264.5\ngini = 0.375\nsamples = 20\nvalue = [15, 5, 0]"] ;
1102 -> 1104 ;
1105 [label="X[1] <= 253.5\ngini = 0.26\nsamples = 13\nvalue = [11, 2, 0]"] ;
1104 -> 1105 ;
1106 [label="X[1] <= 252.5\ngini = 0.408\nsamples = 7\nvalue = [5, 2, 0]"] ;
1105 -> 1106 ;
1107 [label="X[1] <= 250.5\ngini = 0.278\nsamples = 6\nvalue = [5, 1, 0]"] ;
1106 -> 1107 ;
1108 [label="gini = 0.0\nsamples = 3\nvalue = [3, 0, 0]"] ;
1107 -> 1108 ;
1109 [label="X[1] <= 251.5\ngini = 0.444\nsamples = 3\nvalue = [2, 1, 0]"] ;
1107 -> 1109 ;
1110 [label="gini = 0.0\nsamples = 1\nvalue = [0, 1, 0]"] ;
1109 -> 1110 ;
1111 [label="gini = 0.0\nsamples = 2\nvalue = [2, 0, 0]"] ;
1109 -> 1111 ;
1112 [label="gini = 0.0\nsamples = 1\nvalue = [0, 1, 0]"] ;
1106 -> 1112 ;
1113 [label="gini = 0.0\nsamples = 6\nvalue = [6, 0, 0]"] ;
1105 -> 1113 ;
1114 [label="X[1] <= 274.5\ngini = 0.49\nsamples = 7\nvalue = [4, 3, 0]"] ;
1104 -> 1114 ;
1115 [label="X[1] <= 270.5\ngini = 0.48\nsamples = 5\nvalue = [2, 3, 0]"] ;
1114 -> 1115 ;
1116 [label="X[9] <= 16.222\ngini = 0.5\nsamples = 4\nvalue = [2, 2, 0]"] ;
1115 -> 1116 ;
1117 [label="gini = 0.0\nsamples = 1\nvalue = [1, 0, 0]"] ;
1116 -> 1117 ;
1118 [label="X[9] <= 16.249\ngini = 0.444\nsamples = 3\nvalue = [1, 2, 0]"] ;
1116 -> 1118 ;
1119 [label="gini = 0.0\nsamples = 1\nvalue = [0, 1, 0]"] ;
1118 -> 1119 ;
1120 [label="gini = 0.5\nsamples = 2\nvalue = [1, 1, 0]"] ;
1118 -> 1120 ;
1121 [label="gini = 0.0\nsamples = 1\nvalue = [0, 1, 0]"] ;
1115 -> 1121 ;
1122 [label="gini = 0.0\nsamples = 2\nvalue = [2, 0, 0]"] ;
1114 -> 1122 ;
1123 [label="gini = 0.0\nsamples = 1\nvalue = [0, 1, 0]"] ;
1101 -> 1123 ;
1124 [label="gini = 0.0\nsamples = 1\nvalue = [0, 1, 0]"] ;
1100 -> 1124 ;
1125 [label="gini = 0.0\nsamples = 4\nvalue = [4, 0, 0]"] ;
1099 -> 1125 ;
1126 [label="gini = 0.0\nsamples = 2\nvalue = [0, 2, 0]"] ;
1098 -> 1126 ;
1127 [label="X[17] <= 0.5\ngini = 0.21\nsamples = 718\nvalue = [635, 28, 55]"] ;
1097 -> 1127 ;
1128 [label="X[1] <= 1502.0\ngini = 0.562\nsamples = 11\nvalue = [6, 1, 4]"] ;
1127 -> 1128 ;
1129 [label="X[2] <= 524.0\ngini = 0.32\nsamples = 5\nvalue = [4, 1, 0]"] ;
1128 -> 1129 ;
1130 [label="gini = 0.0\nsamples = 4\nvalue = [4, 0, 0]"] ;
1129 -> 1130 ;
1131 [label="gini = 0.0\nsamples = 1\nvalue = [0, 1, 0]"] ;
1129 -> 1131 ;
1132 [label="X[8] <= 1.5\ngini = 0.444\nsamples = 6\nvalue = [2, 0, 4]"] ;
1128 -> 1132 ;
1133 [label="X[10] <= 2009.0\ngini = 0.444\nsamples = 3\nvalue = [2, 0, 1]"] ;
1132 -> 1133 ;
1134 [label="gini = 0.0\nsamples = 2\nvalue = [2, 0, 0]"] ;
1133 -> 1134 ;
1135 [label="gini = 0.0\nsamples = 1\nvalue = [0, 0, 1]"] ;
1133 -> 1135 ;
1136 [label="gini = 0.0\nsamples = 3\nvalue = [0, 0, 3]"] ;
1132 -> 1136 ;
1137 [label="X[1] <= 2625.0\ngini = 0.202\nsamples = 707\nvalue = [629, 27, 51]"] ;
1127 -> 1137 ;
1138 [label="X[4] <= 1.5\ngini = 0.2\nsamples = 706\nvalue = [629, 27, 50]"] ;
1137 -> 1138 ;
1139 [label="X[0] <= 0.5\ngini = 0.243\nsamples = 404\nvalue = [349, 15, 40]"] ;
1138 -> 1139 ;
1140 [label="X[7] <= 5.0\ngini = 0.13\nsamples = 129\nvalue = [120, 0, 9]"] ;
1139 -> 1140 ;
1141 [label="X[1] <= 1512.5\ngini = 0.444\nsamples = 6\nvalue = [4, 0, 2]"] ;
1140 -> 1141 ;
1142 [label="gini = 0.0\nsamples = 4\nvalue = [4, 0, 0]"] ;
1141 -> 1142 ;
1143 [label="gini = 0.0\nsamples = 2\nvalue = [0, 0, 2]"] ;
1141 -> 1143 ;
1144 [label="X[1] <= 1683.5\ngini = 0.107\nsamples = 123\nvalue = [116, 0, 7]"] ;
1140 -> 1144 ;
1145 [label="X[1] <= 1039.5\ngini = 0.07\nsamples = 110\nvalue = [106, 0, 4]"] ;
1144 -> 1145 ;
1146 [label="X[13] <= 5.5\ngini = 0.408\nsamples = 7\nvalue = [5, 0, 2]"] ;
1145 -> 1146 ;
1147 [label="X[1] <= 1019.0\ngini = 0.278\nsamples = 6\nvalue = [5, 0, 1]"] ;
1146 -> 1147 ;
1148 [label="X[1] <= 1011.5\ngini = 0.5\nsamples = 2\nvalue = [1, 0, 1]"] ;
1147 -> 1148 ;
1149 [label="gini = 0.0\nsamples = 1\nvalue = [1, 0, 0]"] ;
1148 -> 1149 ;
1150 [label="gini = 0.0\nsamples = 1\nvalue = [0, 0, 1]"] ;
1148 -> 1150 ;
1151 [label="gini = 0.0\nsamples = 4\nvalue = [4, 0, 0]"] ;
1147 -> 1151 ;
1152 [label="gini = 0.0\nsamples = 1\nvalue = [0, 0, 1]"] ;
1146 -> 1152 ;
1153 [label="X[10] <= 2011.5\ngini = 0.038\nsamples = 103\nvalue = [101, 0, 2]"] ;
1145 -> 1153 ;
1154 [label="X[9] <= 4.633\ngini = 0.02\nsamples = 99\nvalue = [98, 0, 1]"] ;
1153 -> 1154 ;
1155 [label="X[1] <= 1579.5\ngini = 0.142\nsamples = 13\nvalue = [12, 0, 1]"] ;
1154 -> 1155 ;
1156 [label="gini = 0.0\nsamples = 9\nvalue = [9, 0, 0]"] ;
1155 -> 1156 ;
1157 [label="X[1] <= 1588.0\ngini = 0.375\nsamples = 4\nvalue = [3, 0, 1]"] ;
1155 -> 1157 ;
1158 [label="gini = 0.0\nsamples = 1\nvalue = [0, 0, 1]"] ;
1157 -> 1158 ;
1159 [label="gini = 0.0\nsamples = 3\nvalue = [3, 0, 0]"] ;
1157 -> 1159 ;
1160 [label="gini = 0.0\nsamples = 86\nvalue = [86, 0, 0]"] ;
1154 -> 1160 ;
1161 [label="X[1] <= 1157.5\ngini = 0.375\nsamples = 4\nvalue = [3, 0, 1]"] ;
1153 -> 1161 ;
1162 [label="gini = 0.0\nsamples = 2\nvalue = [2, 0, 0]"] ;
1161 -> 1162 ;
1163 [label="X[1] <= 1169.5\ngini = 0.5\nsamples = 2\nvalue = [1, 0, 1]"] ;
1161 -> 1163 ;
1164 [label="gini = 0.0\nsamples = 1\nvalue = [0, 0, 1]"] ;
1163 -> 1164 ;
1165 [label="gini = 0.0\nsamples = 1\nvalue = [1, 0, 0]"] ;
1163 -> 1165 ;
1166 [label="X[1] <= 1792.5\ngini = 0.355\nsamples = 13\nvalue = [10, 0, 3]"] ;
1144 -> 1166 ;
1167 [label="X[1] <= 1712.0\ngini = 0.5\nsamples = 6\nvalue = [3, 0, 3]"] ;
1166 -> 1167 ;
1168 [label="gini = 0.0\nsamples = 1\nvalue = [0, 0, 1]"] ;
1167 -> 1168 ;
1169 [label="X[1] <= 1744.0\ngini = 0.48\nsamples = 5\nvalue = [3, 0, 2]"] ;
1167 -> 1169 ;
1170 [label="gini = 0.0\nsamples = 2\nvalue = [2, 0, 0]"] ;
1169 -> 1170 ;
1171 [label="X[2] <= 341.0\ngini = 0.444\nsamples = 3\nvalue = [1, 0, 2]"] ;
1169 -> 1171 ;
1172 [label="gini = 0.0\nsamples = 1\nvalue = [0, 0, 1]"] ;
1171 -> 1172 ;
1173 [label="X[1] <= 1751.0\ngini = 0.5\nsamples = 2\nvalue = [1, 0, 1]"] ;
1171 -> 1173 ;
1174 [label="gini = 0.0\nsamples = 1\nvalue = [0, 0, 1]"] ;
1173 -> 1174 ;
1175 [label="gini = 0.0\nsamples = 1\nvalue = [1, 0, 0]"] ;
1173 -> 1175 ;
1176 [label="gini = 0.0\nsamples = 7\nvalue = [7, 0, 0]"] ;
1166 -> 1176 ;
1177 [label="X[13] <= 1.5\ngini = 0.291\nsamples = 275\nvalue = [229, 15, 31]"] ;
1139 -> 1177 ;
1178 [label="X[1] <= 1460.5\ngini = 0.604\nsamples = 13\nvalue = [7, 3, 3]"] ;
1177 -> 1178 ;
1179 [label="X[1] <= 1441.0\ngini = 0.375\nsamples = 4\nvalue = [0, 3, 1]"] ;
1178 -> 1179 ;
1180 [label="gini = 0.0\nsamples = 2\nvalue = [0, 2, 0]"] ;
1179 -> 1180 ;
1181 [label="X[1] <= 1453.0\ngini = 0.5\nsamples = 2\nvalue = [0, 1, 1]"] ;
1179 -> 1181 ;
1182 [label="gini = 0.0\nsamples = 1\nvalue = [0, 0, 1]"] ;
1181 -> 1182 ;
1183 [label="gini = 0.0\nsamples = 1\nvalue = [0, 1, 0]"] ;
1181 -> 1183 ;
1184 [label="X[1] <= 1487.0\ngini = 0.346\nsamples = 9\nvalue = [7, 0, 2]"] ;
1178 -> 1184 ;
1185 [label="X[1] <= 1480.5\ngini = 0.444\nsamples = 6\nvalue = [4, 0, 2]"] ;
1184 -> 1185 ;
1186 [label="X[1] <= 1469.5\ngini = 0.32\nsamples = 5\nvalue = [4, 0, 1]"] ;
1185 -> 1186 ;
1187 [label="gini = 0.0\nsamples = 2\nvalue = [2, 0, 0]"] ;
1186 -> 1187 ;
1188 [label="X[1] <= 1476.0\ngini = 0.444\nsamples = 3\nvalue = [2, 0, 1]"] ;
1186 -> 1188 ;
1189 [label="gini = 0.0\nsamples = 1\nvalue = [0, 0, 1]"] ;
1188 -> 1189 ;
1190 [label="gini = 0.0\nsamples = 2\nvalue = [2, 0, 0]"] ;
1188 -> 1190 ;
1191 [label="gini = 0.0\nsamples = 1\nvalue = [0, 0, 1]"] ;
1185 -> 1191 ;
1192 [label="gini = 0.0\nsamples = 3\nvalue = [3, 0, 0]"] ;
1184 -> 1192 ;
1193 [label="X[2] <= 134.5\ngini = 0.269\nsamples = 262\nvalue = [222, 12, 28]"] ;
1177 -> 1193 ;
1194 [label="X[13] <= 4.0\ngini = 0.384\nsamples = 69\nvalue = [52, 2, 15]"] ;
1193 -> 1194 ;
1195 [label="X[2] <= 53.0\ngini = 0.444\nsamples = 6\nvalue = [2, 0, 4]"] ;
1194 -> 1195 ;
1196 [label="gini = 0.0\nsamples = 1\nvalue = [1, 0, 0]"] ;
1195 -> 1196 ;
1197 [label="X[1] <= 1317.5\ngini = 0.32\nsamples = 5\nvalue = [1, 0, 4]"] ;
1195 -> 1197 ;
1198 [label="gini = 0.0\nsamples = 2\nvalue = [0, 0, 2]"] ;
1197 -> 1198 ;
1199 [label="X[1] <= 1321.5\ngini = 0.444\nsamples = 3\nvalue = [1, 0, 2]"] ;
1197 -> 1199 ;
1200 [label="gini = 0.0\nsamples = 1\nvalue = [1, 0, 0]"] ;
1199 -> 1200 ;
1201 [label="gini = 0.0\nsamples = 2\nvalue = [0, 0, 2]"] ;
1199 -> 1201 ;
1202 [label="X[1] <= 1265.0\ngini = 0.339\nsamples = 63\nvalue = [50, 2, 11]"] ;
1194 -> 1202 ;
1203 [label="X[5] <= 5.0\ngini = 0.569\nsamples = 12\nvalue = [6, 1, 5]"] ;
1202 -> 1203 ;
1204 [label="X[1] <= 1256.5\ngini = 0.496\nsamples = 11\nvalue = [6, 0, 5]"] ;
1203 -> 1204 ;
1205 [label="X[10] <= 2010.0\ngini = 0.32\nsamples = 5\nvalue = [4, 0, 1]"] ;
1204 -> 1205 ;
1206 [label="X[10] <= 2008.5\ngini = 0.5\nsamples = 2\nvalue = [1, 0, 1]"] ;
1205 -> 1206 ;
1207 [label="gini = 0.0\nsamples = 1\nvalue = [1, 0, 0]"] ;
1206 -> 1207 ;
1208 [label="gini = 0.0\nsamples = 1\nvalue = [0, 0, 1]"] ;
1206 -> 1208 ;
1209 [label="gini = 0.0\nsamples = 3\nvalue = [3, 0, 0]"] ;
1205 -> 1209 ;
1210 [label="X[1] <= 1258.5\ngini = 0.444\nsamples = 6\nvalue = [2, 0, 4]"] ;
1204 -> 1210 ;
1211 [label="gini = 0.0\nsamples = 2\nvalue = [0, 0, 2]"] ;
1210 -> 1211 ;
1212 [label="X[10] <= 2004.5\ngini = 0.5\nsamples = 4\nvalue = [2, 0, 2]"] ;
1210 -> 1212 ;
1213 [label="gini = 0.0\nsamples = 1\nvalue = [0, 0, 1]"] ;
1212 -> 1213 ;
1214 [label="X[1] <= 1260.5\ngini = 0.444\nsamples = 3\nvalue = [2, 0, 1]"] ;
1212 -> 1214 ;
1215 [label="gini = 0.0\nsamples = 1\nvalue = [1, 0, 0]"] ;
1214 -> 1215 ;
1216 [label="X[1] <= 1262.5\ngini = 0.5\nsamples = 2\nvalue = [1, 0, 1]"] ;
1214 -> 1216 ;
1217 [label="gini = 0.0\nsamples = 1\nvalue = [0, 0, 1]"] ;
1216 -> 1217 ;
1218 [label="gini = 0.0\nsamples = 1\nvalue = [1, 0, 0]"] ;
1216 -> 1218 ;
1219 [label="gini = 0.0\nsamples = 1\nvalue = [0, 1, 0]"] ;
1203 -> 1219 ;
1220 [label="X[1] <= 1558.0\ngini = 0.241\nsamples = 51\nvalue = [44, 1, 6]"] ;
1202 -> 1220 ;
1221 [label="X[1] <= 1373.0\ngini = 0.168\nsamples = 44\nvalue = [40, 1, 3]"] ;
1220 -> 1221 ;
