digraph Tree {
node [shape=box] ;
0 [label="X[15] <= 0.5\ngini = 0.552\nsamples = 47520\nvalue = [25853, 3453, 18214]"] ;
1 [label="X[9] <= 2011.569\ngini = 0.062\nsamples = 5021\nvalue = [131, 30, 4860]"] ;
0 -> 1 [labeldistance=2.5, labelangle=45, headlabel="True"] ;
2 [label="X[9] <= 3.206\ngini = 0.05\nsamples = 4616\nvalue = [88, 29, 4499]"] ;
1 -> 2 ;
3 [label="X[6] <= 1.5\ngini = 0.203\nsamples = 271\nvalue = [30, 1, 240]"] ;
2 -> 3 ;
4 [label="X[7] <= 9.5\ngini = 0.152\nsamples = 231\nvalue = [18, 1, 212]"] ;
3 -> 4 ;
5 [label="X[9] <= 2.581\ngini = 0.123\nsamples = 213\nvalue = [13, 1, 199]"] ;
4 -> 5 ;
6 [label="X[1] <= -19.5\ngini = 0.056\nsamples = 139\nvalue = [4, 0, 135]"] ;
5 -> 6 ;
7 [label="X[2] <= 88.5\ngini = 0.5\nsamples = 2\nvalue = [1, 0, 1]"] ;
6 -> 7 ;
8 [label="gini = 0.0\nsamples = 1\nvalue = [1, 0, 0]"] ;
7 -> 8 ;
9 [label="gini = 0.0\nsamples = 1\nvalue = [0, 0, 1]"] ;
7 -> 9 ;
10 [label="X[0] <= 1.5\ngini = 0.043\nsamples = 137\nvalue = [3, 0, 134]"] ;
6 -> 10 ;
11 [label="gini = 0.0\nsamples = 93\nvalue = [0, 0, 93]"] ;
10 -> 11 ;
12 [label="X[4] <= 12.0\ngini = 0.127\nsamples = 44\nvalue = [3, 0, 41]"] ;
10 -> 12 ;
13 [label="X[16] <= 4.5\ngini = 0.291\nsamples = 17\nvalue = [3, 0, 14]"] ;
12 -> 13 ;
14 [label="X[17] <= 2.0\ngini = 0.48\nsamples = 5\nvalue = [3, 0, 2]"] ;
13 -> 14 ;
15 [label="gini = 0.0\nsamples = 2\nvalue = [2, 0, 0]"] ;
14 -> 15 ;
16 [label="X[13] <= 1.5\ngini = 0.444\nsamples = 3\nvalue = [1, 0, 2]"] ;
14 -> 16 ;
17 [label="gini = 0.0\nsamples = 1\nvalue = [1, 0, 0]"] ;
16 -> 17 ;
18 [label="gini = 0.0\nsamples = 2\nvalue = [0, 0, 2]"] ;
16 -> 18 ;
19 [label="gini = 0.0\nsamples = 12\nvalue = [0, 0, 12]"] ;
13 -> 19 ;
20 [label="gini = 0.0\nsamples = 27\nvalue = [0, 0, 27]"] ;
12 -> 20 ;
21 [label="X[5] <= 0.5\ngini = 0.237\nsamples = 74\nvalue = [9, 1, 64]"] ;
5 -> 21 ;
22 [label="X[8] <= 0.5\ngini = 0.64\nsamples = 5\nvalue = [2, 1, 2]"] ;
21 -> 22 ;
23 [label="gini = 0.0\nsamples = 2\nvalue = [2, 0, 0]"] ;
22 -> 23 ;
24 [label="X[11] <= 3.0\ngini = 0.444\nsamples = 3\nvalue = [0, 1, 2]"] ;
22 -> 24 ;
25 [label="gini = 0.0\nsamples = 1\nvalue = [0, 1, 0]"] ;
24 -> 25 ;
26 [label="gini = 0.0\nsamples = 2\nvalue = [0, 0, 2]"] ;
24 -> 26 ;
27 [label="X[11] <= 0.5\ngini = 0.182\nsamples = 69\nvalue = [7, 0, 62]"] ;
21 -> 27 ;
28 [label="X[5] <= 3.5\ngini = 0.5\nsamples = 4\nvalue = [2, 0, 2]"] ;
27 -> 28 ;
29 [label="X[0] <= 1.5\ngini = 0.444\nsamples = 3\nvalue = [1, 0, 2]"] ;
28 -> 29 ;
30 [label="X[9] <= 3.187\ngini = 0.5\nsamples = 2\nvalue = [1, 0, 1]"] ;
29 -> 30 ;
31 [label="gini = 0.0\nsamples = 1\nvalue = [1, 0, 0]"] ;
30 -> 31 ;
32 [label="gini = 0.0\nsamples = 1\nvalue = [0, 0, 1]"] ;
30 -> 32 ;
33 [label="gini = 0.0\nsamples = 1\nvalue = [0, 0, 1]"] ;
29 -> 33 ;
34 [label="gini = 0.0\nsamples = 1\nvalue = [1, 0, 0]"] ;
28 -> 34 ;
35 [label="X[5] <= 7.5\ngini = 0.142\nsamples = 65\nvalue = [5, 0, 60]"] ;
27 -> 35 ;
36 [label="X[2] <= 214.0\ngini = 0.07\nsamples = 55\nvalue = [2, 0, 53]"] ;
35 -> 36 ;
37 [label="X[2] <= 203.5\ngini = 0.147\nsamples = 25\nvalue = [2, 0, 23]"] ;
36 -> 37 ;
38 [label="X[1] <= 1111.5\ngini = 0.083\nsamples = 23\nvalue = [1, 0, 22]"] ;
37 -> 38 ;
39 [label="gini = 0.0\nsamples = 19\nvalue = [0, 0, 19]"] ;
38 -> 39 ;
40 [label="X[1] <= 1247.5\ngini = 0.375\nsamples = 4\nvalue = [1, 0, 3]"] ;
38 -> 40 ;
41 [label="gini = 0.0\nsamples = 1\nvalue = [1, 0, 0]"] ;
40 -> 41 ;
42 [label="gini = 0.0\nsamples = 3\nvalue = [0, 0, 3]"] ;
40 -> 42 ;
43 [label="X[1] <= 753.0\ngini = 0.5\nsamples = 2\nvalue = [1, 0, 1]"] ;
37 -> 43 ;
44 [label="gini = 0.0\nsamples = 1\nvalue = [0, 0, 1]"] ;
43 -> 44 ;
45 [label="gini = 0.0\nsamples = 1\nvalue = [1, 0, 0]"] ;
43 -> 45 ;
46 [label="gini = 0.0\nsamples = 30\nvalue = [0, 0, 30]"] ;
36 -> 46 ;
47 [label="X[2] <= 223.0\ngini = 0.42\nsamples = 10\nvalue = [3, 0, 7]"] ;
35 -> 47 ;
48 [label="X[1] <= 1031.5\ngini = 0.375\nsamples = 4\nvalue = [3, 0, 1]"] ;
47 -> 48 ;
49 [label="gini = 0.0\nsamples = 3\nvalue = [3, 0, 0]"] ;
48 -> 49 ;
50 [label="gini = 0.0\nsamples = 1\nvalue = [0, 0, 1]"] ;
48 -> 50 ;
51 [label="gini = 0.0\nsamples = 6\nvalue = [0, 0, 6]"] ;
47 -> 51 ;
52 [label="X[4] <= 6.5\ngini = 0.401\nsamples = 18\nvalue = [5, 0, 13]"] ;
4 -> 52 ;
53 [label="gini = 0.0\nsamples = 2\nvalue = [2, 0, 0]"] ;
52 -> 53 ;
54 [label="X[16] <= 5.5\ngini = 0.305\nsamples = 16\nvalue = [3, 0, 13]"] ;
52 -> 54 ;
55 [label="X[7] <= 10.5\ngini = 0.133\nsamples = 14\nvalue = [1, 0, 13]"] ;
54 -> 55 ;
56 [label="X[4] <= 14.0\ngini = 0.5\nsamples = 2\nvalue = [1, 0, 1]"] ;
55 -> 56 ;
57 [label="gini = 0.0\nsamples = 1\nvalue = [1, 0, 0]"] ;
56 -> 57 ;
58 [label="gini = 0.0\nsamples = 1\nvalue = [0, 0, 1]"] ;
56 -> 58 ;
59 [label="gini = 0.0\nsamples = 12\nvalue = [0, 0, 12]"] ;
55 -> 59 ;
60 [label="gini = 0.0\nsamples = 2\nvalue = [2, 0, 0]"] ;
54 -> 60 ;
61 [label="X[0] <= 1.5\ngini = 0.42\nsamples = 40\nvalue = [12, 0, 28]"] ;
3 -> 61 ;
62 [label="X[7] <= 9.5\ngini = 0.08\nsamples = 24\nvalue = [1, 0, 23]"] ;
61 -> 62 ;
63 [label="gini = 0.0\nsamples = 20\nvalue = [0, 0, 20]"] ;
62 -> 63 ;
64 [label="X[1] <= 605.0\ngini = 0.375\nsamples = 4\nvalue = [1, 0, 3]"] ;
62 -> 64 ;
65 [label="gini = 0.0\nsamples = 3\nvalue = [0, 0, 3]"] ;
64 -> 65 ;
66 [label="gini = 0.0\nsamples = 1\nvalue = [1, 0, 0]"] ;
64 -> 66 ;
67 [label="X[4] <= 21.0\ngini = 0.43\nsamples = 16\nvalue = [11, 0, 5]"] ;
61 -> 67 ;
68 [label="gini = 0.0\nsamples = 11\nvalue = [11, 0, 0]"] ;
67 -> 68 ;
69 [label="gini = 0.0\nsamples = 5\nvalue = [0, 0, 5]"] ;
67 -> 69 ;
70 [label="X[9] <= 13.087\ngini = 0.039\nsamples = 4345\nvalue = [58, 28, 4259]"] ;
2 -> 70 ;
71 [label="X[9] <= 13.042\ngini = 0.109\nsamples = 740\nvalue = [24, 18, 698]"] ;
70 -> 71 ;
72 [label="X[7] <= 7.5\ngini = 0.078\nsamples = 716\nvalue = [22, 7, 687]"] ;
71 -> 72 ;
73 [label="X[1] <= -37.0\ngini = 0.059\nsamples = 624\nvalue = [16, 3, 605]"] ;
72 -> 73 ;
74 [label="X[1] <= -41.5\ngini = 0.5\nsamples = 2\nvalue = [1, 0, 1]"] ;
73 -> 74 ;
75 [label="gini = 0.0\nsamples = 1\nvalue = [0, 0, 1]"] ;
74 -> 75 ;
76 [label="gini = 0.0\nsamples = 1\nvalue = [1, 0, 0]"] ;
74 -> 76 ;
77 [label="X[3] <= 5.5\ngini = 0.056\nsamples = 622\nvalue = [15, 3, 604]"] ;
73 -> 77 ;
78 [label="X[3] <= 3.5\ngini = 0.102\nsamples = 318\nvalue = [14, 3, 301]"] ;
77 -> 78 ;
79 [label="X[16] <= 3.5\ngini = 0.057\nsamples = 238\nvalue = [5, 2, 231]"] ;
78 -> 79 ;
80 [label="X[9] <= 13.031\ngini = 0.196\nsamples = 56\nvalue = [4, 2, 50]"] ;
79 -> 80 ;
81 [label="X[1] <= 1545.0\ngini = 0.169\nsamples = 55\nvalue = [3, 2, 50]"] ;
80 -> 81 ;
82 [label="X[16] <= 2.0\ngini = 0.275\nsamples = 32\nvalue = [3, 2, 27]"] ;
81 -> 82 ;
83 [label="X[6] <= 0.5\ngini = 0.147\nsamples = 25\nvalue = [0, 2, 23]"] ;
82 -> 83 ;
84 [label="gini = 0.0\nsamples = 1\nvalue = [0, 1, 0]"] ;
83 -> 84 ;
85 [label="X[11] <= 11.5\ngini = 0.08\nsamples = 24\nvalue = [0, 1, 23]"] ;
83 -> 85 ;
86 [label="gini = 0.0\nsamples = 19\nvalue = [0, 0, 19]"] ;
85 -> 86 ;
87 [label="X[1] <= 1488.0\ngini = 0.32\nsamples = 5\nvalue = [0, 1, 4]"] ;
85 -> 87 ;
88 [label="gini = 0.0\nsamples = 1\nvalue = [0, 1, 0]"] ;
87 -> 88 ;
89 [label="gini = 0.0\nsamples = 4\nvalue = [0, 0, 4]"] ;
87 -> 89 ;
90 [label="X[1] <= 1477.0\ngini = 0.49\nsamples = 7\nvalue = [3, 0, 4]"] ;
82 -> 90 ;
91 [label="X[1] <= 1349.0\ngini = 0.32\nsamples = 5\nvalue = [1, 0, 4]"] ;
90 -> 91 ;
92 [label="gini = 0.0\nsamples = 1\nvalue = [1, 0, 0]"] ;
91 -> 92 ;
93 [label="gini = 0.0\nsamples = 4\nvalue = [0, 0, 4]"] ;
91 -> 93 ;
94 [label="gini = 0.0\nsamples = 2\nvalue = [2, 0, 0]"] ;
90 -> 94 ;
95 [label="gini = 0.0\nsamples = 23\nvalue = [0, 0, 23]"] ;
81 -> 95 ;
96 [label="gini = 0.0\nsamples = 1\nvalue = [1, 0, 0]"] ;
80 -> 96 ;
97 [label="X[10] <= 1999.5\ngini = 0.011\nsamples = 182\nvalue = [1, 0, 181]"] ;
79 -> 97 ;
98 [label="X[2] <= 663.0\ngini = 0.219\nsamples = 8\nvalue = [1, 0, 7]"] ;
97 -> 98 ;
99 [label="gini = 0.0\nsamples = 6\nvalue = [0, 0, 6]"] ;
98 -> 99 ;
100 [label="X[9] <= 12.258\ngini = 0.5\nsamples = 2\nvalue = [1, 0, 1]"] ;
98 -> 100 ;
101 [label="gini = 0.0\nsamples = 1\nvalue = [1, 0, 0]"] ;
100 -> 101 ;
102 [label="gini = 0.0\nsamples = 1\nvalue = [0, 0, 1]"] ;
100 -> 102 ;
103 [label="gini = 0.0\nsamples = 174\nvalue = [0, 0, 174]"] ;
97 -> 103 ;
104 [label="X[10] <= 2008.5\ngini = 0.222\nsamples = 80\nvalue = [9, 1, 70]"] ;
78 -> 104 ;
105 [label="X[9] <= 4.73\ngini = 0.204\nsamples = 79\nvalue = [8, 1, 70]"] ;
104 -> 105 ;
106 [label="X[4] <= 17.5\ngini = 0.397\nsamples = 11\nvalue = [3, 0, 8]"] ;
105 -> 106 ;
107 [label="gini = 0.0\nsamples = 7\nvalue = [0, 0, 7]"] ;
106 -> 107 ;
108 [label="X[16] <= 2.0\ngini = 0.375\nsamples = 4\nvalue = [3, 0, 1]"] ;
106 -> 108 ;
109 [label="gini = 0.0\nsamples = 1\nvalue = [0, 0, 1]"] ;
108 -> 109 ;
110 [label="gini = 0.0\nsamples = 3\nvalue = [3, 0, 0]"] ;
108 -> 110 ;
111 [label="X[11] <= 5.5\ngini = 0.163\nsamples = 68\nvalue = [5, 1, 62]"] ;
105 -> 111 ;
112 [label="X[2] <= 770.0\ngini = 0.322\nsamples = 26\nvalue = [4, 1, 21]"] ;
111 -> 112 ;
113 [label="X[9] <= 11.595\ngini = 0.269\nsamples = 25\nvalue = [4, 0, 21]"] ;
112 -> 113 ;
114 [label="X[5] <= 7.5\ngini = 0.18\nsamples = 20\nvalue = [2, 0, 18]"] ;
113 -> 114 ;
115 [label="X[14] <= 5.0\ngini = 0.105\nsamples = 18\nvalue = [1, 0, 17]"] ;
114 -> 115 ;
116 [label="X[0] <= 0.5\ngini = 0.32\nsamples = 5\nvalue = [1, 0, 4]"] ;
115 -> 116 ;
117 [label="X[1] <= 122.0\ngini = 0.444\nsamples = 3\nvalue = [1, 0, 2]"] ;
116 -> 117 ;
118 [label="gini = 0.0\nsamples = 2\nvalue = [0, 0, 2]"] ;
117 -> 118 ;
119 [label="gini = 0.0\nsamples = 1\nvalue = [1, 0, 0]"] ;
117 -> 119 ;
120 [label="gini = 0.0\nsamples = 2\nvalue = [0, 0, 2]"] ;
116 -> 120 ;
121 [label="gini = 0.0\nsamples = 13\nvalue = [0, 0, 13]"] ;
115 -> 121 ;
122 [label="X[1] <= 384.0\ngini = 0.5\nsamples = 2\nvalue = [1, 0, 1]"] ;
114 -> 122 ;
123 [label="gini = 0.0\nsamples = 1\nvalue = [1, 0, 0]"] ;
122 -> 123 ;
124 [label="gini = 0.0\nsamples = 1\nvalue = [0, 0, 1]"] ;
122 -> 124 ;
125 [label="X[10] <= 1999.5\ngini = 0.48\nsamples = 5\nvalue = [2, 0, 3]"] ;
113 -> 125 ;
126 [label="gini = 0.0\nsamples = 3\nvalue = [0, 0, 3]"] ;
125 -> 126 ;
127 [label="gini = 0.0\nsamples = 2\nvalue = [2, 0, 0]"] ;
125 -> 127 ;
128 [label="gini = 0.0\nsamples = 1\nvalue = [0, 1, 0]"] ;
112 -> 128 ;
129 [label="X[2] <= 487.0\ngini = 0.046\nsamples = 42\nvalue = [1, 0, 41]"] ;
111 -> 129 ;
130 [label="gini = 0.0\nsamples = 33\nvalue = [0, 0, 33]"] ;
129 -> 130 ;
131 [label="X[2] <= 744.5\ngini = 0.198\nsamples = 9\nvalue = [1, 0, 8]"] ;
129 -> 131 ;
132 [label="X[10] <= 2002.0\ngini = 0.444\nsamples = 3\nvalue = [1, 0, 2]"] ;
131 -> 132 ;
133 [label="gini = 0.0\nsamples = 1\nvalue = [0, 0, 1]"] ;
132 -> 133 ;
134 [label="X[10] <= 2004.5\ngini = 0.5\nsamples = 2\nvalue = [1, 0, 1]"] ;
132 -> 134 ;
135 [label="gini = 0.0\nsamples = 1\nvalue = [1, 0, 0]"] ;
134 -> 135 ;
136 [label="gini = 0.0\nsamples = 1\nvalue = [0, 0, 1]"] ;
134 -> 136 ;
137 [label="gini = 0.0\nsamples = 6\nvalue = [0, 0, 6]"] ;
131 -> 137 ;
138 [label="gini = 0.0\nsamples = 1\nvalue = [1, 0, 0]"] ;
104 -> 138 ;
139 [label="X[1] <= 1668.0\ngini = 0.007\nsamples = 304\nvalue = [1, 0, 303]"] ;
77 -> 139 ;
140 [label="gini = 0.0\nsamples = 290\nvalue = [0, 0, 290]"] ;
139 -> 140 ;
141 [label="X[2] <= 144.5\ngini = 0.133\nsamples = 14\nvalue = [1, 0, 13]"] ;
139 -> 141 ;
142 [label="gini = 0.0\nsamples = 1\nvalue = [1, 0, 0]"] ;
141 -> 142 ;
143 [label="gini = 0.0\nsamples = 13\nvalue = [0, 0, 13]"] ;
141 -> 143 ;
144 [label="X[9] <= 6.81\ngini = 0.199\nsamples = 92\nvalue = [6, 4, 82]"] ;
72 -> 144 ;
145 [label="X[13] <= 2.5\ngini = 0.403\nsamples = 24\nvalue = [4, 2, 18]"] ;
144 -> 145 ;
146 [label="X[9] <= 4.824\ngini = 0.571\nsamples = 14\nvalue = [4, 2, 8]"] ;
145 -> 146 ;
147 [label="X[14] <= 1.5\ngini = 0.245\nsamples = 7\nvalue = [0, 1, 6]"] ;
146 -> 147 ;
148 [label="gini = 0.0\nsamples = 1\nvalue = [0, 1, 0]"] ;
147 -> 148 ;
149 [label="gini = 0.0\nsamples = 6\nvalue = [0, 0, 6]"] ;
147 -> 149 ;
150 [label="X[1] <= 1679.5\ngini = 0.571\nsamples = 7\nvalue = [4, 1, 2]"] ;
146 -> 150 ;
151 [label="gini = 0.0\nsamples = 4\nvalue = [4, 0, 0]"] ;
150 -> 151 ;
152 [label="X[1] <= 1832.5\ngini = 0.444\nsamples = 3\nvalue = [0, 1, 2]"] ;
150 -> 152 ;
153 [label="gini = 0.0\nsamples = 2\nvalue = [0, 0, 2]"] ;
152 -> 153 ;
154 [label="gini = 0.0\nsamples = 1\nvalue = [0, 1, 0]"] ;
152 -> 154 ;
155 [label="gini = 0.0\nsamples = 10\nvalue = [0, 0, 10]"] ;
145 -> 155 ;
156 [label="X[6] <= 0.5\ngini = 0.112\nsamples = 68\nvalue = [2, 2, 64]"] ;
144 -> 156 ;
157 [label="X[3] <= 3.5\ngini = 0.56\nsamples = 5\nvalue = [1, 1, 3]"] ;
156 -> 157 ;
158 [label="gini = 0.0\nsamples = 1\nvalue = [1, 0, 0]"] ;
157 -> 158 ;
159 [label="X[10] <= 2002.0\ngini = 0.375\nsamples = 4\nvalue = [0, 1, 3]"] ;
157 -> 159 ;
160 [label="gini = 0.5\nsamples = 2\nvalue = [0, 1, 1]"] ;
159 -> 160 ;
161 [label="gini = 0.0\nsamples = 2\nvalue = [0, 0, 2]"] ;
159 -> 161 ;
162 [label="X[17] <= 4.0\ngini = 0.062\nsamples = 63\nvalue = [1, 1, 61]"] ;
156 -> 162 ;
163 [label="X[13] <= 5.5\ngini = 0.036\nsamples = 55\nvalue = [1, 0, 54]"] ;
162 -> 163 ;
164 [label="gini = 0.0\nsamples = 42\nvalue = [0, 0, 42]"] ;
163 -> 164 ;
165 [label="X[9] <= 10.415\ngini = 0.142\nsamples = 13\nvalue = [1, 0, 12]"] ;
163 -> 165 ;
166 [label="gini = 0.0\nsamples = 1\nvalue = [1, 0, 0]"] ;
165 -> 166 ;
167 [label="gini = 0.0\nsamples = 12\nvalue = [0, 0, 12]"] ;
165 -> 167 ;
168 [label="X[13] <= 3.5\ngini = 0.219\nsamples = 8\nvalue = [0, 1, 7]"] ;
162 -> 168 ;
169 [label="gini = 0.0\nsamples = 6\nvalue = [0, 0, 6]"] ;
168 -> 169 ;
170 [label="X[4] <= 14.0\ngini = 0.5\nsamples = 2\nvalue = [0, 1, 1]"] ;
168 -> 170 ;
171 [label="gini = 0.0\nsamples = 1\nvalue = [0, 1, 0]"] ;
170 -> 171 ;
172 [label="gini = 0.0\nsamples = 1\nvalue = [0, 0, 1]"] ;
170 -> 172 ;
173 [label="X[1] <= 1596.0\ngini = 0.573\nsamples = 24\nvalue = [2, 11, 11]"] ;
71 -> 173 ;
174 [label="X[5] <= 1.5\ngini = 0.379\nsamples = 13\nvalue = [2, 1, 10]"] ;
173 -> 174 ;
175 [label="X[1] <= 1540.0\ngini = 0.64\nsamples = 5\nvalue = [2, 1, 2]"] ;
174 -> 175 ;
176 [label="gini = 0.0\nsamples = 2\nvalue = [2, 0, 0]"] ;
175 -> 176 ;
177 [label="X[14] <= 6.5\ngini = 0.444\nsamples = 3\nvalue = [0, 1, 2]"] ;
175 -> 177 ;
178 [label="gini = 0.0\nsamples = 1\nvalue = [0, 1, 0]"] ;
177 -> 178 ;
179 [label="gini = 0.0\nsamples = 2\nvalue = [0, 0, 2]"] ;
177 -> 179 ;
180 [label="gini = 0.0\nsamples = 8\nvalue = [0, 0, 8]"] ;
174 -> 180 ;
181 [label="X[17] <= 3.0\ngini = 0.165\nsamples = 11\nvalue = [0, 10, 1]"] ;
173 -> 181 ;
182 [label="gini = 0.0\nsamples = 10\nvalue = [0, 10, 0]"] ;
181 -> 182 ;
183 [label="gini = 0.0\nsamples = 1\nvalue = [0, 0, 1]"] ;
181 -> 183 ;
184 [label="X[17] <= 0.5\ngini = 0.024\nsamples = 3605\nvalue = [34, 10, 3561]"] ;
70 -> 184 ;
185 [label="X[1] <= 322.5\ngini = 0.5\nsamples = 2\nvalue = [1, 0, 1]"] ;
184 -> 185 ;
186 [label="gini = 0.0\nsamples = 1\nvalue = [1, 0, 0]"] ;
185 -> 186 ;
187 [label="gini = 0.0\nsamples = 1\nvalue = [0, 0, 1]"] ;
185 -> 187 ;
188 [label="X[11] <= 10.5\ngini = 0.024\nsamples = 3603\nvalue = [33, 10, 3560]"] ;
184 -> 188 ;
189 [label="X[11] <= 0.5\ngini = 0.021\nsamples = 3498\nvalue = [28, 9, 3461]"] ;
188 -> 189 ;
190 [label="X[1] <= 1502.0\ngini = 0.227\nsamples = 16\nvalue = [1, 1, 14]"] ;
189 -> 190 ;
191 [label="gini = 0.0\nsamples = 14\nvalue = [0, 0, 14]"] ;
190 -> 191 ;
192 [label="X[10] <= 1994.5\ngini = 0.5\nsamples = 2\nvalue = [1, 1, 0]"] ;
190 -> 192 ;
193 [label="gini = 0.0\nsamples = 1\nvalue = [0, 1, 0]"] ;
192 -> 193 ;
194 [label="gini = 0.0\nsamples = 1\nvalue = [1, 0, 0]"] ;
192 -> 194 ;
195 [label="X[9] <= 16.579\ngini = 0.02\nsamples = 3482\nvalue = [27, 8, 3447]"] ;
189 -> 195 ;
196 [label="X[9] <= 16.577\ngini = 0.047\nsamples = 334\nvalue = [7, 1, 326]"] ;
195 -> 196 ;
197 [label="X[1] <= 1716.5\ngini = 0.041\nsamples = 333\nvalue = [6, 1, 326]"] ;
196 -> 197 ;
198 [label="X[9] <= 16.222\ngini = 0.036\nsamples = 330\nvalue = [5, 1, 324]"] ;
197 -> 198 ;
199 [label="X[4] <= 17.5\ngini = 0.025\nsamples = 311\nvalue = [3, 1, 307]"] ;
198 -> 199 ;
200 [label="X[11] <= 8.5\ngini = 0.015\nsamples = 265\nvalue = [1, 1, 263]"] ;
199 -> 200 ;
201 [label="X[4] <= 15.5\ngini = 0.008\nsamples = 248\nvalue = [0, 1, 247]"] ;
200 -> 201 ;
202 [label="gini = 0.0\nsamples = 191\nvalue = [0, 0, 191]"] ;
201 -> 202 ;
203 [label="X[10] <= 1998.5\ngini = 0.034\nsamples = 57\nvalue = [0, 1, 56]"] ;
201 -> 203 ;
204 [label="gini = 0.0\nsamples = 45\nvalue = [0, 0, 45]"] ;
203 -> 204 ;
205 [label="X[9] <= 14.07\ngini = 0.153\nsamples = 12\nvalue = [0, 1, 11]"] ;
203 -> 205 ;
206 [label="gini = 0.0\nsamples = 9\nvalue = [0, 0, 9]"] ;
205 -> 206 ;
207 [label="X[9] <= 14.09\ngini = 0.444\nsamples = 3\nvalue = [0, 1, 2]"] ;
205 -> 207 ;
208 [label="gini = 0.0\nsamples = 1\nvalue = [0, 1, 0]"] ;
207 -> 208 ;
209 [label="gini = 0.0\nsamples = 2\nvalue = [0, 0, 2]"] ;
207 -> 209 ;
210 [label="X[2] <= 153.0\ngini = 0.111\nsamples = 17\nvalue = [1, 0, 16]"] ;
200 -> 210 ;
211 [label="X[1] <= 428.0\ngini = 0.444\nsamples = 3\nvalue = [1, 0, 2]"] ;
210 -> 211 ;
212 [label="gini = 0.0\nsamples = 1\nvalue = [0, 0, 1]"] ;
211 -> 212 ;
213 [label="X[1] <= 435.5\ngini = 0.5\nsamples = 2\nvalue = [1, 0, 1]"] ;
211 -> 213 ;
214 [label="gini = 0.0\nsamples = 1\nvalue = [1, 0, 0]"] ;
213 -> 214 ;
215 [label="gini = 0.0\nsamples = 1\nvalue = [0, 0, 1]"] ;
213 -> 215 ;
216 [label="gini = 0.0\nsamples = 14\nvalue = [0, 0, 14]"] ;
210 -> 216 ;
217 [label="X[0] <= 2.5\ngini = 0.083\nsamples = 46\nvalue = [2, 0, 44]"] ;
199 -> 217 ;
218 [label="X[10] <= 1996.5\ngini = 0.045\nsamples = 43\nvalue = [1, 0, 42]"] ;
217 -> 218 ;
219 [label="X[2] <= 205.5\ngini = 0.278\nsamples = 6\nvalue = [1, 0, 5]"] ;
218 -> 219 ;
220 [label="gini = 0.0\nsamples = 5\nvalue = [0, 0, 5]"] ;
219 -> 220 ;
221 [label="gini = 0.0\nsamples = 1\nvalue = [1, 0, 0]"] ;
219 -> 221 ;
222 [label="gini = 0.0\nsamples = 37\nvalue = [0, 0, 37]"] ;
218 -> 222 ;
223 [label="X[7] <= 8.0\ngini = 0.444\nsamples = 3\nvalue = [1, 0, 2]"] ;
217 -> 223 ;
224 [label="gini = 0.0\nsamples = 1\nvalue = [1, 0, 0]"] ;
223 -> 224 ;
225 [label="gini = 0.0\nsamples = 2\nvalue = [0, 0, 2]"] ;
223 -> 225 ;
226 [label="X[7] <= 8.5\ngini = 0.188\nsamples = 19\nvalue = [2, 0, 17]"] ;
198 -> 226 ;
227 [label="gini = 0.0\nsamples = 17\nvalue = [0, 0, 17]"] ;
226 -> 227 ;
228 [label="gini = 0.0\nsamples = 2\nvalue = [2, 0, 0]"] ;
226 -> 228 ;
229 [label="X[2] <= 383.5\ngini = 0.444\nsamples = 3\nvalue = [1, 0, 2]"] ;
197 -> 229 ;
230 [label="gini = 0.0\nsamples = 1\nvalue = [1, 0, 0]"] ;
229 -> 230 ;
231 [label="gini = 0.0\nsamples = 2\nvalue = [0, 0, 2]"] ;
229 -> 231 ;
232 [label="gini = 0.0\nsamples = 1\nvalue = [1, 0, 0]"] ;
196 -> 232 ;
233 [label="X[11] <= 5.5\ngini = 0.017\nsamples = 3148\nvalue = [20, 7, 3121]"] ;
195 -> 233 ;
234 [label="X[5] <= 2.5\ngini = 0.022\nsamples = 2034\nvalue = [18, 5, 2011]"] ;
233 -> 234 ;
235 [label="X[4] <= 17.5\ngini = 0.019\nsamples = 1795\nvalue = [12, 5, 1778]"] ;
234 -> 235 ;
236 [label="X[11] <= 4.5\ngini = 0.015\nsamples = 1624\nvalue = [8, 4, 1612]"] ;
235 -> 236 ;
237 [label="X[13] <= 1.5\ngini = 0.012\nsamples = 1551\nvalue = [6, 3, 1542]"] ;
236 -> 237 ;
238 [label="X[2] <= 537.0\ngini = 0.041\nsamples = 192\nvalue = [2, 2, 188]"] ;
237 -> 238 ;
239 [label="X[1] <= 1608.0\ngini = 0.022\nsamples = 178\nvalue = [1, 1, 176]"] ;
238 -> 239 ;
240 [label="X[9] <= 19.19\ngini = 0.012\nsamples = 159\nvalue = [0, 1, 158]"] ;
239 -> 240 ;
241 [label="X[9] <= 18.882\ngini = 0.08\nsamples = 24\nvalue = [0, 1, 23]"] ;
240 -> 241 ;
242 [label="gini = 0.0\nsamples = 14\nvalue = [0, 0, 14]"] ;
241 -> 242 ;
243 [label="X[1] <= 875.0\ngini = 0.18\nsamples = 10\nvalue = [0, 1, 9]"] ;
241 -> 243 ;
244 [label="gini = 0.0\nsamples = 5\nvalue = [0, 0, 5]"] ;
243 -> 244 ;
245 [label="X[1] <= 887.0\ngini = 0.32\nsamples = 5\nvalue = [0, 1, 4]"] ;
243 -> 245 ;
246 [label="gini = 0.0\nsamples = 1\nvalue = [0, 1, 0]"] ;
245 -> 246 ;
247 [label="gini = 0.0\nsamples = 4\nvalue = [0, 0, 4]"] ;
245 -> 247 ;
248 [label="gini = 0.0\nsamples = 135\nvalue = [0, 0, 135]"] ;
240 -> 248 ;
249 [label="X[1] <= 1617.0\ngini = 0.1\nsamples = 19\nvalue = [1, 0, 18]"] ;
239 -> 249 ;
250 [label="gini = 0.0\nsamples = 1\nvalue = [1, 0, 0]"] ;
249 -> 250 ;
251 [label="gini = 0.0\nsamples = 18\nvalue = [0, 0, 18]"] ;
249 -> 251 ;
252 [label="X[2] <= 553.0\ngini = 0.255\nsamples = 14\nvalue = [1, 1, 12]"] ;
238 -> 252 ;
253 [label="gini = 0.0\nsamples = 1\nvalue = [0, 1, 0]"] ;
252 -> 253 ;
254 [label="X[8] <= 0.5\ngini = 0.142\nsamples = 13\nvalue = [1, 0, 12]"] ;
252 -> 254 ;
255 [label="X[2] <= 659.0\ngini = 0.5\nsamples = 2\nvalue = [1, 0, 1]"] ;
254 -> 255 ;
256 [label="gini = 0.0\nsamples = 1\nvalue = [1, 0, 0]"] ;
255 -> 256 ;
257 [label="gini = 0.0\nsamples = 1\nvalue = [0, 0, 1]"] ;
255 -> 257 ;
258 [label="gini = 0.0\nsamples = 11\nvalue = [0, 0, 11]"] ;
254 -> 258 ;
259 [label="X[9] <= 17.581\ngini = 0.007\nsamples = 1359\nvalue = [4, 1, 1354]"] ;
237 -> 259 ;
260 [label="X[9] <= 17.555\ngini = 0.117\nsamples = 16\nvalue = [1, 0, 15]"] ;
259 -> 260 ;
261 [label="gini = 0.0\nsamples = 15\nvalue = [0, 0, 15]"] ;
260 -> 261 ;
262 [label="gini = 0.0\nsamples = 1\nvalue = [1, 0, 0]"] ;
260 -> 262 ;
263 [label="X[8] <= 0.5\ngini = 0.006\nsamples = 1343\nvalue = [3, 1, 1339]"] ;
259 -> 263 ;
264 [label="X[2] <= 613.0\ngini = 0.018\nsamples = 325\nvalue = [3, 0, 322]"] ;
263 -> 264 ;
265 [label="X[12] <= 1.0\ngini = 0.007\nsamples = 273\nvalue = [1, 0, 272]"] ;
264 -> 265 ;
266 [label="X[1] <= 5.5\ngini = 0.038\nsamples = 51\nvalue = [1, 0, 50]"] ;
265 -> 266 ;
267 [label="X[1] <= 4.5\ngini = 0.165\nsamples = 11\nvalue = [1, 0, 10]"] ;
266 -> 267 ;
268 [label="gini = 0.0\nsamples = 7\nvalue = [0, 0, 7]"] ;
267 -> 268 ;
269 [label="X[9] <= 2011.271\ngini = 0.375\nsamples = 4\nvalue = [1, 0, 3]"] ;
267 -> 269 ;
270 [label="X[3] <= 7.0\ngini = 0.5\nsamples = 2\nvalue = [1, 0, 1]"] ;
269 -> 270 ;
271 [label="gini = 0.0\nsamples = 1\nvalue = [0, 0, 1]"] ;
270 -> 271 ;
272 [label="gini = 0.0\nsamples = 1\nvalue = [1, 0, 0]"] ;
270 -> 272 ;
273 [label="gini = 0.0\nsamples = 2\nvalue = [0, 0, 2]"] ;
269 -> 273 ;
274 [label="gini = 0.0\nsamples = 40\nvalue = [0, 0, 40]"] ;
266 -> 274 ;
275 [label="gini = 0.0\nsamples = 222\nvalue = [0, 0, 222]"] ;
265 -> 275 ;
276 [label="X[2] <= 681.5\ngini = 0.074\nsamples = 52\nvalue = [2, 0, 50]"] ;
264 -> 276 ;
277 [label="gini = 0.0\nsamples = 1\nvalue = [1, 0, 0]"] ;
276 -> 277 ;
278 [label="X[4] <= 14.0\ngini = 0.038\nsamples = 51\nvalue = [1, 0, 50]"] ;
276 -> 278 ;
279 [label="gini = 0.0\nsamples = 44\nvalue = [0, 0, 44]"] ;
278 -> 279 ;
280 [label="X[14] <= 6.5\ngini = 0.245\nsamples = 7\nvalue = [1, 0, 6]"] ;
278 -> 280 ;
281 [label="X[16] <= 3.5\ngini = 0.444\nsamples = 3\nvalue = [1, 0, 2]"] ;
280 -> 281 ;
282 [label="gini = 0.0\nsamples = 1\nvalue = [1, 0, 0]"] ;
281 -> 282 ;
283 [label="gini = 0.0\nsamples = 2\nvalue = [0, 0, 2]"] ;
281 -> 283 ;
284 [label="gini = 0.0\nsamples = 4\nvalue = [0, 0, 4]"] ;
280 -> 284 ;
285 [label="X[3] <= 6.5\ngini = 0.002\nsamples = 1018\nvalue = [0, 1, 1017]"] ;
263 -> 285 ;
286 [label="gini = 0.0\nsamples = 897\nvalue = [0, 0, 897]"] ;
285 -> 286 ;
287 [label="X[1] <= 1017.0\ngini = 0.016\nsamples = 121\nvalue = [0, 1, 120]"] ;
285 -> 287 ;
288 [label="gini = 0.0\nsamples = 111\nvalue = [0, 0, 111]"] ;
287 -> 288 ;
289 [label="X[13] <= 4.5\ngini = 0.18\nsamples = 10\nvalue = [0, 1, 9]"] ;
287 -> 289 ;
290 [label="gini = 0.0\nsamples = 1\nvalue = [0, 1, 0]"] ;
289 -> 290 ;
291 [label="gini = 0.0\nsamples = 9\nvalue = [0, 0, 9]"] ;
289 -> 291 ;
292 [label="X[1] <= 1686.5\ngini = 0.08\nsamples = 73\nvalue = [2, 1, 70]"] ;
236 -> 292 ;
293 [label="X[1] <= 1554.5\ngini = 0.054\nsamples = 72\nvalue = [2, 0, 70]"] ;
292 -> 293 ;
294 [label="X[9] <= 2011.527\ngini = 0.031\nsamples = 64\nvalue = [1, 0, 63]"] ;
293 -> 294 ;
295 [label="gini = 0.0\nsamples = 55\nvalue = [0, 0, 55]"] ;
294 -> 295 ;
296 [label="X[1] <= 1.0\ngini = 0.198\nsamples = 9\nvalue = [1, 0, 8]"] ;
294 -> 296 ;
297 [label="gini = 0.0\nsamples = 1\nvalue = [1, 0, 0]"] ;
296 -> 297 ;
298 [label="gini = 0.0\nsamples = 8\nvalue = [0, 0, 8]"] ;
296 -> 298 ;
299 [label="X[1] <= 1561.5\ngini = 0.219\nsamples = 8\nvalue = [1, 0, 7]"] ;
293 -> 299 ;
300 [label="gini = 0.0\nsamples = 1\nvalue = [1, 0, 0]"] ;
299 -> 300 ;
301 [label="gini = 0.0\nsamples = 7\nvalue = [0, 0, 7]"] ;
299 -> 301 ;
302 [label="gini = 0.0\nsamples = 1\nvalue = [0, 1, 0]"] ;
292 -> 302 ;
303 [label="X[13] <= 0.5\ngini = 0.057\nsamples = 171\nvalue = [4, 1, 166]"] ;
235 -> 303 ;
304 [label="gini = 0.0\nsamples = 1\nvalue = [0, 1, 0]"] ;
303 -> 304 ;
305 [label="X[10] <= 1974.5\ngini = 0.046\nsamples = 170\nvalue = [4, 0, 166]"] ;
303 -> 305 ;
306 [label="X[17] <= 2.0\ngini = 0.231\nsamples = 30\nvalue = [4, 0, 26]"] ;
305 -> 306 ;
307 [label="X[4] <= 18.5\ngini = 0.147\nsamples = 25\nvalue = [2, 0, 23]"] ;
306 -> 307 ;
308 [label="X[1] <= 8.5\ngini = 0.444\nsamples = 3\nvalue = [1, 0, 2]"] ;
307 -> 308 ;
309 [label="gini = 0.0\nsamples = 2\nvalue = [0, 0, 2]"] ;
308 -> 309 ;
310 [label="gini = 0.0\nsamples = 1\nvalue = [1, 0, 0]"] ;
308 -> 310 ;
311 [label="X[9] <= 37.157\ngini = 0.087\nsamples = 22\nvalue = [1, 0, 21]"] ;
307 -> 311 ;
312 [label="X[1] <= 8.5\ngini = 0.278\nsamples = 6\nvalue = [1, 0, 5]"] ;
311 -> 312 ;
313 [label="gini = 0.0\nsamples = 4\nvalue = [0, 0, 4]"] ;
312 -> 313 ;
314 [label="X[1] <= 13.0\ngini = 0.5\nsamples = 2\nvalue = [1, 0, 1]"] ;
312 -> 314 ;
315 [label="gini = 0.0\nsamples = 1\nvalue = [1, 0, 0]"] ;
314 -> 315 ;
316 [label="gini = 0.0\nsamples = 1\nvalue = [0, 0, 1]"] ;
314 -> 316 ;
317 [label="gini = 0.0\nsamples = 16\nvalue = [0, 0, 16]"] ;
311 -> 317 ;
318 [label="X[2] <= 547.0\ngini = 0.48\nsamples = 5\nvalue = [2, 0, 3]"] ;
306 -> 318 ;
319 [label="gini = 0.0\nsamples = 2\nvalue = [2, 0, 0]"] ;
318 -> 319 ;
320 [label="gini = 0.0\nsamples = 3\nvalue = [0, 0, 3]"] ;
318 -> 320 ;
321 [label="gini = 0.0\nsamples = 140\nvalue = [0, 0, 140]"] ;
305 -> 321 ;
322 [label="X[9] <= 38.89\ngini = 0.049\nsamples = 239\nvalue = [6, 0, 233]"] ;
234 -> 322 ;
323 [label="X[0] <= 0.5\ngini = 0.035\nsamples = 226\nvalue = [4, 0, 222]"] ;
322 -> 323 ;
324 [label="X[1] <= 777.5\ngini = 0.198\nsamples = 18\nvalue = [2, 0, 16]"] ;
323 -> 324 ;
325 [label="gini = 0.0\nsamples = 2\nvalue = [2, 0, 0]"] ;
324 -> 325 ;
326 [label="gini = 0.0\nsamples = 16\nvalue = [0, 0, 16]"] ;
324 -> 326 ;
327 [label="X[5] <= 3.5\ngini = 0.019\nsamples = 208\nvalue = [2, 0, 206]"] ;
323 -> 327 ;
328 [label="X[0] <= 1.5\ngini = 0.057\nsamples = 68\nvalue = [2, 0, 66]"] ;
327 -> 328 ;
329 [label="X[3] <= 3.0\ngini = 0.219\nsamples = 16\nvalue = [2, 0, 14]"] ;
328 -> 329 ;
330 [label="gini = 0.0\nsamples = 1\nvalue = [1, 0, 0]"] ;
329 -> 330 ;
331 [label="X[1] <= 1449.0\ngini = 0.124\nsamples = 15\nvalue = [1, 0, 14]"] ;
329 -> 331 ;
332 [label="gini = 0.0\nsamples = 10\nvalue = [0, 0, 10]"] ;
331 -> 332 ;
333 [label="X[1] <= 1472.5\ngini = 0.32\nsamples = 5\nvalue = [1, 0, 4]"] ;
331 -> 333 ;
334 [label="gini = 0.0\nsamples = 1\nvalue = [1, 0, 0]"] ;
333 -> 334 ;
335 [label="gini = 0.0\nsamples = 4\nvalue = [0, 0, 4]"] ;
333 -> 335 ;
336 [label="gini = 0.0\nsamples = 52\nvalue = [0, 0, 52]"] ;
328 -> 336 ;
337 [label="gini = 0.0\nsamples = 140\nvalue = [0, 0, 140]"] ;
327 -> 337 ;
338 [label="X[9] <= 39.149\ngini = 0.26\nsamples = 13\nvalue = [2, 0, 11]"] ;
322 -> 338 ;
339 [label="gini = 0.0\nsamples = 1\nvalue = [1, 0, 0]"] ;
338 -> 339 ;
340 [label="X[16] <= 5.0\ngini = 0.153\nsamples = 12\nvalue = [1, 0, 11]"] ;
338 -> 340 ;
341 [label="gini = 0.0\nsamples = 10\nvalue = [0, 0, 10]"] ;
340 -> 341 ;
342 [label="X[1] <= 1186.0\ngini = 0.5\nsamples = 2\nvalue = [1, 0, 1]"] ;
340 -> 342 ;
343 [label="gini = 0.0\nsamples = 1\nvalue = [0, 0, 1]"] ;
342 -> 343 ;
344 [label="gini = 0.0\nsamples = 1\nvalue = [1, 0, 0]"] ;
342 -> 344 ;
345 [label="X[1] <= 1510.0\ngini = 0.007\nsamples = 1114\nvalue = [2, 2, 1110]"] ;
233 -> 345 ;
346 [label="X[7] <= 9.5\ngini = 0.002\nsamples = 998\nvalue = [1, 0, 997]"] ;
345 -> 346 ;
347 [label="gini = 0.0\nsamples = 818\nvalue = [0, 0, 818]"] ;
346 -> 347 ;
348 [label="X[9] <= 31.085\ngini = 0.011\nsamples = 180\nvalue = [1, 0, 179]"] ;
346 -> 348 ;
349 [label="gini = 0.0\nsamples = 150\nvalue = [0, 0, 150]"] ;
348 -> 349 ;
350 [label="X[9] <= 31.087\ngini = 0.064\nsamples = 30\nvalue = [1, 0, 29]"] ;
348 -> 350 ;
351 [label="X[2] <= 177.0\ngini = 0.32\nsamples = 5\nvalue = [1, 0, 4]"] ;
350 -> 351 ;
352 [label="gini = 0.0\nsamples = 1\nvalue = [1, 0, 0]"] ;
351 -> 352 ;
353 [label="gini = 0.0\nsamples = 4\nvalue = [0, 0, 4]"] ;
351 -> 353 ;
354 [label="gini = 0.0\nsamples = 25\nvalue = [0, 0, 25]"] ;
350 -> 354 ;
355 [label="X[1] <= 1512.0\ngini = 0.051\nsamples = 116\nvalue = [1, 2, 113]"] ;
345 -> 355 ;
356 [label="gini = 0.0\nsamples = 1\nvalue = [0, 1, 0]"] ;
355 -> 356 ;
357 [label="X[9] <= 33.087\ngini = 0.034\nsamples = 115\nvalue = [1, 1, 113]"] ;
355 -> 357 ;
358 [label="X[16] <= 3.5\ngini = 0.019\nsamples = 105\nvalue = [0, 1, 104]"] ;
357 -> 358 ;
359 [label="X[2] <= 636.5\ngini = 0.133\nsamples = 14\nvalue = [0, 1, 13]"] ;
358 -> 359 ;
360 [label="gini = 0.0\nsamples = 11\nvalue = [0, 0, 11]"] ;
359 -> 360 ;
361 [label="X[9] <= 23.101\ngini = 0.444\nsamples = 3\nvalue = [0, 1, 2]"] ;
359 -> 361 ;
362 [label="gini = 0.0\nsamples = 1\nvalue = [0, 1, 0]"] ;
361 -> 362 ;
363 [label="gini = 0.0\nsamples = 2\nvalue = [0, 0, 2]"] ;
361 -> 363 ;
364 [label="gini = 0.0\nsamples = 91\nvalue = [0, 0, 91]"] ;
358 -> 364 ;
365 [label="X[9] <= 33.103\ngini = 0.18\nsamples = 10\nvalue = [1, 0, 9]"] ;
357 -> 365 ;
366 [label="X[1] <= 1547.5\ngini = 0.444\nsamples = 3\nvalue = [1, 0, 2]"] ;
365 -> 366 ;
367 [label="gini = 0.0\nsamples = 2\nvalue = [0, 0, 2]"] ;
366 -> 367 ;
368 [label="gini = 0.0\nsamples = 1\nvalue = [1, 0, 0]"] ;
366 -> 368 ;
369 [label="gini = 0.0\nsamples = 7\nvalue = [0, 0, 7]"] ;
365 -> 369 ;
370 [label="X[2] <= 671.5\ngini = 0.109\nsamples = 105\nvalue = [5, 1, 99]"] ;
188 -> 370 ;
371 [label="X[11] <= 11.5\ngini = 0.081\nsamples = 96\nvalue = [3, 1, 92]"] ;
370 -> 371 ;
372 [label="X[7] <= 11.5\ngini = 0.062\nsamples = 93\nvalue = [3, 0, 90]"] ;
371 -> 372 ;
373 [label="gini = 0.0\nsamples = 68\nvalue = [0, 0, 68]"] ;
372 -> 373 ;
374 [label="X[5] <= 1.5\ngini = 0.211\nsamples = 25\nvalue = [3, 0, 22]"] ;
372 -> 374 ;
375 [label="X[1] <= 381.0\ngini = 0.1\nsamples = 19\nvalue = [1, 0, 18]"] ;
374 -> 375 ;
376 [label="gini = 0.0\nsamples = 18\nvalue = [0, 0, 18]"] ;
375 -> 376 ;
377 [label="gini = 0.0\nsamples = 1\nvalue = [1, 0, 0]"] ;
375 -> 377 ;
378 [label="X[9] <= 15.184\ngini = 0.444\nsamples = 6\nvalue = [2, 0, 4]"] ;
374 -> 378 ;
379 [label="gini = 0.0\nsamples = 1\nvalue = [1, 0, 0]"] ;
378 -> 379 ;
380 [label="X[1] <= 291.0\ngini = 0.32\nsamples = 5\nvalue = [1, 0, 4]"] ;
378 -> 380 ;
381 [label="gini = 0.0\nsamples = 1\nvalue = [1, 0, 0]"] ;
380 -> 381 ;
382 [label="gini = 0.0\nsamples = 4\nvalue = [0, 0, 4]"] ;
380 -> 382 ;
383 [label="X[10] <= 998.0\ngini = 0.444\nsamples = 3\nvalue = [0, 1, 2]"] ;
371 -> 383 ;
384 [label="gini = 0.0\nsamples = 2\nvalue = [0, 0, 2]"] ;
383 -> 384 ;
385 [label="gini = 0.0\nsamples = 1\nvalue = [0, 1, 0]"] ;
383 -> 385 ;
386 [label="X[9] <= 22.328\ngini = 0.346\nsamples = 9\nvalue = [2, 0, 7]"] ;
370 -> 386 ;
387 [label="gini = 0.0\nsamples = 2\nvalue = [2, 0, 0]"] ;
386 -> 387 ;
388 [label="gini = 0.0\nsamples = 7\nvalue = [0, 0, 7]"] ;
386 -> 388 ;
389 [label="X[3] <= 3.5\ngini = 0.194\nsamples = 405\nvalue = [43, 1, 361]"] ;
1 -> 389 ;
390 [label="X[8] <= 0.5\ngini = 0.078\nsamples = 272\nvalue = [10, 1, 261]"] ;
389 -> 390 ;
391 [label="X[2] <= 68.0\ngini = 0.298\nsamples = 22\nvalue = [4, 0, 18]"] ;
390 -> 391 ;
392 [label="gini = 0.0\nsamples = 1\nvalue = [1, 0, 0]"] ;
391 -> 392 ;
393 [label="X[9] <= 2012.965\ngini = 0.245\nsamples = 21\nvalue = [3, 0, 18]"] ;
391 -> 393 ;
394 [label="X[1] <= 3.5\ngini = 0.111\nsamples = 17\nvalue = [1, 0, 16]"] ;
393 -> 394 ;
395 [label="X[14] <= 5.0\ngini = 0.278\nsamples = 6\nvalue = [1, 0, 5]"] ;
394 -> 395 ;
396 [label="gini = 0.0\nsamples = 1\nvalue = [1, 0, 0]"] ;
395 -> 396 ;
397 [label="gini = 0.0\nsamples = 5\nvalue = [0, 0, 5]"] ;
395 -> 397 ;
398 [label="gini = 0.0\nsamples = 11\nvalue = [0, 0, 11]"] ;
394 -> 398 ;
399 [label="X[11] <= 3.0\ngini = 0.5\nsamples = 4\nvalue = [2, 0, 2]"] ;
393 -> 399 ;
400 [label="gini = 0.0\nsamples = 1\nvalue = [0, 0, 1]"] ;
399 -> 400 ;
401 [label="X[11] <= 8.0\ngini = 0.444\nsamples = 3\nvalue = [2, 0, 1]"] ;
399 -> 401 ;
402 [label="gini = 0.0\nsamples = 2\nvalue = [2, 0, 0]"] ;
401 -> 402 ;
403 [label="gini = 0.0\nsamples = 1\nvalue = [0, 0, 1]"] ;
401 -> 403 ;
404 [label="X[9] <= 2011.579\ngini = 0.055\nsamples = 250\nvalue = [6, 1, 243]"] ;
390 -> 404 ;
405 [label="X[12] <= 2.0\ngini = 0.5\nsamples = 2\nvalue = [0, 1, 1]"] ;
404 -> 405 ;
406 [label="gini = 0.0\nsamples = 1\nvalue = [0, 1, 0]"] ;
405 -> 406 ;
407 [label="gini = 0.0\nsamples = 1\nvalue = [0, 0, 1]"] ;
405 -> 407 ;
408 [label="X[3] <= 0.5\ngini = 0.047\nsamples = 248\nvalue = [6, 0, 242]"] ;
404 -> 408 ;
409 [label="X[6] <= 0.5\ngini = 0.162\nsamples = 45\nvalue = [4, 0, 41]"] ;
408 -> 409 ;
410 [label="gini = 0.0\nsamples = 1\nvalue = [1, 0, 0]"] ;
409 -> 410 ;
411 [label="X[2] <= 619.0\ngini = 0.127\nsamples = 44\nvalue = [3, 0, 41]"] ;
409 -> 411 ;
412 [label="X[16] <= 4.0\ngini = 0.291\nsamples = 17\nvalue = [3, 0, 14]"] ;
411 -> 412 ;
413 [label="gini = 0.0\nsamples = 8\nvalue = [0, 0, 8]"] ;
412 -> 413 ;
414 [label="X[1] <= 423.0\ngini = 0.444\nsamples = 9\nvalue = [3, 0, 6]"] ;
412 -> 414 ;
415 [label="X[2] <= 140.5\ngini = 0.375\nsamples = 8\nvalue = [2, 0, 6]"] ;
414 -> 415 ;
416 [label="gini = 0.0\nsamples = 3\nvalue = [0, 0, 3]"] ;
415 -> 416 ;
417 [label="X[9] <= 2012.848\ngini = 0.48\nsamples = 5\nvalue = [2, 0, 3]"] ;
415 -> 417 ;
418 [label="X[1] <= 3.5\ngini = 0.375\nsamples = 4\nvalue = [1, 0, 3]"] ;
417 -> 418 ;
419 [label="gini = 0.0\nsamples = 3\nvalue = [0, 0, 3]"] ;
418 -> 419 ;
420 [label="gini = 0.0\nsamples = 1\nvalue = [1, 0, 0]"] ;
418 -> 420 ;
421 [label="gini = 0.0\nsamples = 1\nvalue = [1, 0, 0]"] ;
417 -> 421 ;
422 [label="gini = 0.0\nsamples = 1\nvalue = [1, 0, 0]"] ;
414 -> 422 ;
423 [label="gini = 0.0\nsamples = 27\nvalue = [0, 0, 27]"] ;
411 -> 423 ;
424 [label="X[6] <= 1.5\ngini = 0.02\nsamples = 203\nvalue = [2, 0, 201]"] ;
408 -> 424 ;
425 [label="X[12] <= 3.5\ngini = 0.01\nsamples = 196\nvalue = [1, 0, 195]"] ;
424 -> 425 ;
426 [label="X[12] <= 2.5\ngini = 0.083\nsamples = 23\nvalue = [1, 0, 22]"] ;
425 -> 426 ;
427 [label="gini = 0.0\nsamples = 17\nvalue = [0, 0, 17]"] ;
426 -> 427 ;
428 [label="X[6] <= 0.5\ngini = 0.278\nsamples = 6\nvalue = [1, 0, 5]"] ;
426 -> 428 ;
429 [label="gini = 0.0\nsamples = 4\nvalue = [0, 0, 4]"] ;
428 -> 429 ;
430 [label="X[13] <= 4.0\ngini = 0.5\nsamples = 2\nvalue = [1, 0, 1]"] ;
428 -> 430 ;
431 [label="gini = 0.0\nsamples = 1\nvalue = [1, 0, 0]"] ;
430 -> 431 ;
432 [label="gini = 0.0\nsamples = 1\nvalue = [0, 0, 1]"] ;
430 -> 432 ;
433 [label="gini = 0.0\nsamples = 173\nvalue = [0, 0, 173]"] ;
425 -> 433 ;
434 [label="X[13] <= 4.0\ngini = 0.245\nsamples = 7\nvalue = [1, 0, 6]"] ;
424 -> 434 ;
435 [label="X[2] <= 396.0\ngini = 0.5\nsamples = 2\nvalue = [1, 0, 1]"] ;
434 -> 435 ;
436 [label="gini = 0.0\nsamples = 1\nvalue = [0, 0, 1]"] ;
435 -> 436 ;
437 [label="gini = 0.0\nsamples = 1\nvalue = [1, 0, 0]"] ;
435 -> 437 ;
438 [label="gini = 0.0\nsamples = 5\nvalue = [0, 0, 5]"] ;
434 -> 438 ;
439 [label="X[16] <= 4.5\ngini = 0.373\nsamples = 133\nvalue = [33, 0, 100]"] ;
389 -> 439 ;
440 [label="gini = 0.0\nsamples = 30\nvalue = [0, 0, 30]"] ;
439 -> 440 ;
441 [label="X[9] <= 2012.789\ngini = 0.435\nsamples = 103\nvalue = [33, 0, 70]"] ;
439 -> 441 ;
442 [label="X[9] <= 2012.188\ngini = 0.471\nsamples = 87\nvalue = [33, 0, 54]"] ;
441 -> 442 ;
443 [label="X[2] <= 598.5\ngini = 0.405\nsamples = 71\nvalue = [20, 0, 51]"] ;
442 -> 443 ;
444 [label="X[13] <= 1.0\ngini = 0.069\nsamples = 28\nvalue = [1, 0, 27]"] ;
443 -> 444 ;
445 [label="gini = 0.0\nsamples = 1\nvalue = [1, 0, 0]"] ;
444 -> 445 ;
446 [label="gini = 0.0\nsamples = 27\nvalue = [0, 0, 27]"] ;
444 -> 446 ;
447 [label="X[1] <= 6.0\ngini = 0.493\nsamples = 43\nvalue = [19, 0, 24]"] ;
443 -> 447 ;
448 [label="gini = 0.0\nsamples = 2\nvalue = [2, 0, 0]"] ;
447 -> 448 ;
449 [label="X[1] <= 19.0\ngini = 0.485\nsamples = 41\nvalue = [17, 0, 24]"] ;
447 -> 449 ;
450 [label="gini = 0.0\nsamples = 5\nvalue = [0, 0, 5]"] ;
449 -> 450 ;
451 [label="X[1] <= 156.5\ngini = 0.498\nsamples = 36\nvalue = [17, 0, 19]"] ;
449 -> 451 ;
452 [label="X[2] <= 677.5\ngini = 0.486\nsamples = 24\nvalue = [14, 0, 10]"] ;
451 -> 452 ;
453 [label="X[9] <= 2011.577\ngini = 0.499\nsamples = 19\nvalue = [9, 0, 10]"] ;
452 -> 453 ;
454 [label="gini = 0.0\nsamples = 2\nvalue = [0, 0, 2]"] ;
453 -> 454 ;
455 [label="X[9] <= 2011.583\ngini = 0.498\nsamples = 17\nvalue = [9, 0, 8]"] ;
453 -> 455 ;
456 [label="gini = 0.0\nsamples = 4\nvalue = [4, 0, 0]"] ;
455 -> 456 ;
457 [label="X[9] <= 2011.595\ngini = 0.473\nsamples = 13\nvalue = [5, 0, 8]"] ;
455 -> 457 ;
458 [label="gini = 0.0\nsamples = 5\nvalue = [0, 0, 5]"] ;
457 -> 458 ;
459 [label="X[1] <= 21.5\ngini = 0.469\nsamples = 8\nvalue = [5, 0, 3]"] ;
457 -> 459 ;
460 [label="gini = 0.0\nsamples = 1\nvalue = [0, 0, 1]"] ;
459 -> 460 ;
461 [label="X[9] <= 2011.604\ngini = 0.408\nsamples = 7\nvalue = [5, 0, 2]"] ;
459 -> 461 ;
462 [label="gini = 0.0\nsamples = 3\nvalue = [3, 0, 0]"] ;
461 -> 462 ;
463 [label="X[1] <= 45.5\ngini = 0.5\nsamples = 4\nvalue = [2, 0, 2]"] ;
461 -> 463 ;
464 [label="gini = 0.0\nsamples = 2\nvalue = [0, 0, 2]"] ;
463 -> 464 ;
465 [label="gini = 0.0\nsamples = 2\nvalue = [2, 0, 0]"] ;
463 -> 465 ;
466 [label="gini = 0.0\nsamples = 5\nvalue = [5, 0, 0]"] ;
452 -> 466 ;
467 [label="X[1] <= 506.5\ngini = 0.375\nsamples = 12\nvalue = [3, 0, 9]"] ;
451 -> 467 ;
468 [label="gini = 0.0\nsamples = 7\nvalue = [0, 0, 7]"] ;
467 -> 468 ;
469 [label="X[11] <= 5.5\ngini = 0.48\nsamples = 5\nvalue = [3, 0, 2]"] ;
467 -> 469 ;
470 [label="X[9] <= 2011.582\ngini = 0.444\nsamples = 3\nvalue = [1, 0, 2]"] ;
469 -> 470 ;
471 [label="gini = 0.0\nsamples = 2\nvalue = [0, 0, 2]"] ;
470 -> 471 ;
472 [label="gini = 0.0\nsamples = 1\nvalue = [1, 0, 0]"] ;
470 -> 472 ;
473 [label="gini = 0.0\nsamples = 2\nvalue = [2, 0, 0]"] ;
469 -> 473 ;
474 [label="X[2] <= 628.5\ngini = 0.305\nsamples = 16\nvalue = [13, 0, 3]"] ;
442 -> 474 ;
475 [label="X[1] <= 19.0\ngini = 0.142\nsamples = 13\nvalue = [12, 0, 1]"] ;
474 -> 475 ;
476 [label="gini = 0.0\nsamples = 11\nvalue = [11, 0, 0]"] ;
475 -> 476 ;
477 [label="X[11] <= 8.0\ngini = 0.5\nsamples = 2\nvalue = [1, 0, 1]"] ;
475 -> 477 ;
478 [label="gini = 0.0\nsamples = 1\nvalue = [1, 0, 0]"] ;
477 -> 478 ;
479 [label="gini = 0.0\nsamples = 1\nvalue = [0, 0, 1]"] ;
477 -> 479 ;
480 [label="X[9] <= 2012.773\ngini = 0.444\nsamples = 3\nvalue = [1, 0, 2]"] ;
474 -> 480 ;
481 [label="gini = 0.0\nsamples = 2\nvalue = [0, 0, 2]"] ;
480 -> 481 ;
482 [label="gini = 0.0\nsamples = 1\nvalue = [1, 0, 0]"] ;
480 -> 482 ;
483 [label="gini = 0.0\nsamples = 16\nvalue = [0, 0, 16]"] ;
441 -> 483 ;
484 [label="X[17] <= 4.5\ngini = 0.528\nsamples = 42499\nvalue = [25722, 3423, 13354]"] ;
0 -> 484 [labeldistance=2.5, labelangle=-45, headlabel="False"] ;
485 [label="X[9] <= 21.281\ngini = 0.499\nsamples = 38542\nvalue = [25058, 3201, 10283]"] ;
484 -> 485 ;
486 [label="X[15] <= 1.5\ngini = 0.442\nsamples = 26072\nvalue = [18562, 1911, 5599]"] ;
485 -> 486 ;
487 [label="X[4] <= 10.5\ngini = 0.382\nsamples = 16820\nvalue = [12862, 1094, 2864]"] ;
486 -> 487 ;
488 [label="X[17] <= 2.5\ngini = 0.291\nsamples = 8797\nvalue = [7310, 332, 1155]"] ;
487 -> 488 ;
489 [label="X[4] <= 9.5\ngini = 0.259\nsamples = 7090\nvalue = [6053, 298, 739]"] ;
488 -> 489 ;
490 [label="X[7] <= 10.5\ngini = 0.317\nsamples = 5023\nvalue = [4091, 275, 657]"] ;
489 -> 490 ;
491 [label="X[7] <= 9.5\ngini = 0.293\nsamples = 4693\nvalue = [3897, 224, 572]"] ;
490 -> 491 ;
492 [label="X[5] <= 1.5\ngini = 0.347\nsamples = 3318\nvalue = [2631, 211, 476]"] ;
491 -> 492 ;
493 [label="X[7] <= 1.0\ngini = 0.475\nsamples = 793\nvalue = [543, 81, 169]"] ;
492 -> 493 ;
494 [label="X[2] <= 216.5\ngini = 0.506\nsamples = 99\nvalue = [35, 4, 60]"] ;
493 -> 494 ;
495 [label="X[1] <= 1854.0\ngini = 0.328\nsamples = 46\nvalue = [7, 2, 37]"] ;
494 -> 495 ;
496 [label="X[10] <= 2009.5\ngini = 0.278\nsamples = 44\nvalue = [5, 2, 37]"] ;
495 -> 496 ;
497 [label="X[13] <= 3.5\ngini = 0.145\nsamples = 38\nvalue = [3, 0, 35]"] ;
496 -> 497 ;
498 [label="X[9] <= 5.14\ngini = 0.108\nsamples = 35\nvalue = [2, 0, 33]"] ;
497 -> 498 ;
499 [label="X[2] <= 166.0\ngini = 0.26\nsamples = 13\nvalue = [2, 0, 11]"] ;
498 -> 499 ;
500 [label="gini = 0.0\nsamples = 5\nvalue = [0, 0, 5]"] ;
499 -> 500 ;
501 [label="X[1] <= 1418.5\ngini = 0.375\nsamples = 8\nvalue = [2, 0, 6]"] ;
499 -> 501 ;
502 [label="gini = 0.0\nsamples = 1\nvalue = [1, 0, 0]"] ;
501 -> 502 ;
503 [label="X[9] <= 5.125\ngini = 0.245\nsamples = 7\nvalue = [1, 0, 6]"] ;
501 -> 503 ;
504 [label="X[1] <= 1775.5\ngini = 0.5\nsamples = 2\nvalue = [1, 0, 1]"] ;
503 -> 504 ;
505 [label="gini = 0.0\nsamples = 1\nvalue = [1, 0, 0]"] ;
504 -> 505 ;
506 [label="gini = 0.0\nsamples = 1\nvalue = [0, 0, 1]"] ;
504 -> 506 ;
507 [label="gini = 0.0\nsamples = 5\nvalue = [0, 0, 5]"] ;
503 -> 507 ;
508 [label="gini = 0.0\nsamples = 22\nvalue = [0, 0, 22]"] ;
498 -> 508 ;
509 [label="X[10] <= 2006.5\ngini = 0.444\nsamples = 3\nvalue = [1, 0, 2]"] ;
497 -> 509 ;
510 [label="gini = 0.0\nsamples = 1\nvalue = [1, 0, 0]"] ;
509 -> 510 ;
511 [label="gini = 0.0\nsamples = 2\nvalue = [0, 0, 2]"] ;
509 -> 511 ;
512 [label="X[1] <= 1599.0\ngini = 0.667\nsamples = 6\nvalue = [2, 2, 2]"] ;
496 -> 512 ;
513 [label="gini = 0.0\nsamples = 1\nvalue = [1, 0, 0]"] ;
512 -> 513 ;
514 [label="X[1] <= 1718.5\ngini = 0.64\nsamples = 5\nvalue = [1, 2, 2]"] ;
512 -> 514 ;
515 [label="X[1] <= 1658.5\ngini = 0.444\nsamples = 3\nvalue = [0, 2, 1]"] ;
514 -> 515 ;
516 [label="gini = 0.0\nsamples = 1\nvalue = [0, 0, 1]"] ;
515 -> 516 ;
517 [label="gini = 0.0\nsamples = 2\nvalue = [0, 2, 0]"] ;
515 -> 517 ;
518 [label="X[1] <= 1735.5\ngini = 0.5\nsamples = 2\nvalue = [1, 0, 1]"] ;
514 -> 518 ;
519 [label="gini = 0.0\nsamples = 1\nvalue = [1, 0, 0]"] ;
518 -> 519 ;
520 [label="gini = 0.0\nsamples = 1\nvalue = [0, 0, 1]"] ;
518 -> 520 ;
521 [label="gini = 0.0\nsamples = 2\nvalue = [2, 0, 0]"] ;
495 -> 521 ;
522 [label="X[9] <= 5.149\ngini = 0.531\nsamples = 53\nvalue = [28, 2, 23]"] ;
494 -> 522 ;
523 [label="X[9] <= 3.151\ngini = 0.466\nsamples = 27\nvalue = [8, 1, 18]"] ;
522 -> 523 ;
524 [label="X[1] <= 1669.0\ngini = 0.531\nsamples = 8\nvalue = [5, 1, 2]"] ;
523 -> 524 ;
525 [label="X[0] <= 1.5\ngini = 0.64\nsamples = 5\nvalue = [2, 1, 2]"] ;
524 -> 525 ;
526 [label="X[1] <= 858.5\ngini = 0.444\nsamples = 3\nvalue = [2, 1, 0]"] ;
525 -> 526 ;
527 [label="gini = 0.0\nsamples = 1\nvalue = [1, 0, 0]"] ;
526 -> 527 ;
528 [label="gini = 0.5\nsamples = 2\nvalue = [1, 1, 0]"] ;
526 -> 528 ;
529 [label="gini = 0.0\nsamples = 2\nvalue = [0, 0, 2]"] ;
525 -> 529 ;
530 [label="gini = 0.0\nsamples = 3\nvalue = [3, 0, 0]"] ;
524 -> 530 ;
531 [label="X[3] <= 2.5\ngini = 0.266\nsamples = 19\nvalue = [3, 0, 16]"] ;
523 -> 531 ;
532 [label="gini = 0.0\nsamples = 10\nvalue = [0, 0, 10]"] ;
531 -> 532 ;
533 [label="X[1] <= 1468.5\ngini = 0.444\nsamples = 9\nvalue = [3, 0, 6]"] ;
531 -> 533 ;
534 [label="gini = 0.0\nsamples = 4\nvalue = [0, 0, 4]"] ;
533 -> 534 ;
535 [label="X[10] <= 2008.5\ngini = 0.48\nsamples = 5\nvalue = [3, 0, 2]"] ;
533 -> 535 ;
536 [label="gini = 0.0\nsamples = 2\nvalue = [2, 0, 0]"] ;
535 -> 536 ;
537 [label="X[1] <= 1604.0\ngini = 0.444\nsamples = 3\nvalue = [1, 0, 2]"] ;
535 -> 537 ;
538 [label="gini = 0.0\nsamples = 1\nvalue = [1, 0, 0]"] ;
537 -> 538 ;
539 [label="gini = 0.0\nsamples = 2\nvalue = [0, 0, 2]"] ;
537 -> 539 ;
540 [label="X[1] <= 789.5\ngini = 0.37\nsamples = 26\nvalue = [20, 1, 5]"] ;
522 -> 540 ;
541 [label="X[1] <= 775.5\ngini = 0.56\nsamples = 5\nvalue = [1, 1, 3]"] ;
540 -> 541 ;
542 [label="X[9] <= 9.219\ngini = 0.667\nsamples = 3\nvalue = [1, 1, 1]"] ;
541 -> 542 ;
543 [label="X[1] <= 761.5\ngini = 0.5\nsamples = 2\nvalue = [1, 0, 1]"] ;
542 -> 543 ;
544 [label="gini = 0.0\nsamples = 1\nvalue = [0, 0, 1]"] ;
543 -> 544 ;
545 [label="gini = 0.0\nsamples = 1\nvalue = [1, 0, 0]"] ;
543 -> 545 ;
546 [label="gini = 0.0\nsamples = 1\nvalue = [0, 1, 0]"] ;
542 -> 546 ;
547 [label="gini = 0.0\nsamples = 2\nvalue = [0, 0, 2]"] ;
541 -> 547 ;
548 [label="X[10] <= 1997.5\ngini = 0.172\nsamples = 21\nvalue = [19, 0, 2]"] ;
540 -> 548 ;
549 [label="gini = 0.0\nsamples = 1\nvalue = [0, 0, 1]"] ;
548 -> 549 ;
550 [label="X[9] <= 6.141\ngini = 0.095\nsamples = 20\nvalue = [19, 0, 1]"] ;
548 -> 550 ;
551 [label="X[3] <= 2.5\ngini = 0.444\nsamples = 3\nvalue = [2, 0, 1]"] ;
550 -> 551 ;
552 [label="gini = 0.0\nsamples = 1\nvalue = [1, 0, 0]"] ;
551 -> 552 ;
553 [label="X[1] <= 1379.5\ngini = 0.5\nsamples = 2\nvalue = [1, 0, 1]"] ;
551 -> 553 ;
554 [label="gini = 0.0\nsamples = 1\nvalue = [1, 0, 0]"] ;
553 -> 554 ;
555 [label="gini = 0.0\nsamples = 1\nvalue = [0, 0, 1]"] ;
553 -> 555 ;
556 [label="gini = 0.0\nsamples = 17\nvalue = [17, 0, 0]"] ;
550 -> 556 ;
557 [label="X[4] <= 7.0\ngini = 0.427\nsamples = 694\nvalue = [508, 77, 109]"] ;
493 -> 557 ;
558 [label="X[9] <= 5.168\ngini = 0.471\nsamples = 490\nvalue = [338, 51, 101]"] ;
557 -> 558 ;
559 [label="X[9] <= -0.27\ngini = 0.28\nsamples = 149\nvalue = [125, 6, 18]"] ;
558 -> 559 ;
560 [label="gini = 0.0\nsamples = 2\nvalue = [0, 0, 2]"] ;
559 -> 560 ;
561 [label="X[2] <= 766.0\ngini = 0.263\nsamples = 147\nvalue = [125, 6, 16]"] ;
559 -> 561 ;
562 [label="X[0] <= 1.5\ngini = 0.234\nsamples = 138\nvalue = [120, 6, 12]"] ;
561 -> 562 ;
563 [label="X[16] <= 2.5\ngini = 0.199\nsamples = 120\nvalue = [107, 6, 7]"] ;
562 -> 563 ;
564 [label="X[13] <= 3.5\ngini = 0.273\nsamples = 38\nvalue = [32, 1, 5]"] ;
563 -> 564 ;
565 [label="X[11] <= 2.5\ngini = 0.5\nsamples = 6\nvalue = [3, 0, 3]"] ;
564 -> 565 ;
566 [label="gini = 0.0\nsamples = 3\nvalue = [3, 0, 0]"] ;
565 -> 566 ;
567 [label="gini = 0.0\nsamples = 3\nvalue = [0, 0, 3]"] ;
565 -> 567 ;
568 [label="X[2] <= 316.5\ngini = 0.174\nsamples = 32\nvalue = [29, 1, 2]"] ;
564 -> 568 ;
569 [label="X[1] <= 539.5\ngini = 0.067\nsamples = 29\nvalue = [28, 0, 1]"] ;
568 -> 569 ;
570 [label="gini = 0.0\nsamples = 22\nvalue = [22, 0, 0]"] ;
569 -> 570 ;
571 [label="X[1] <= 590.5\ngini = 0.245\nsamples = 7\nvalue = [6, 0, 1]"] ;
569 -> 571 ;
572 [label="gini = 0.0\nsamples = 1\nvalue = [0, 0, 1]"] ;
571 -> 572 ;
573 [label="gini = 0.0\nsamples = 6\nvalue = [6, 0, 0]"] ;
571 -> 573 ;
574 [label="X[1] <= 333.0\ngini = 0.667\nsamples = 3\nvalue = [1, 1, 1]"] ;
568 -> 574 ;
575 [label="gini = 0.0\nsamples = 1\nvalue = [0, 1, 0]"] ;
574 -> 575 ;
576 [label="X[0] <= 0.5\ngini = 0.5\nsamples = 2\nvalue = [1, 0, 1]"] ;
574 -> 576 ;
577 [label="gini = 0.0\nsamples = 1\nvalue = [1, 0, 0]"] ;
576 -> 577 ;
578 [label="gini = 0.0\nsamples = 1\nvalue = [0, 0, 1]"] ;
576 -> 578 ;
579 [label="X[3] <= 2.5\ngini = 0.159\nsamples = 82\nvalue = [75, 5, 2]"] ;
563 -> 579 ;
580 [label="gini = 0.0\nsamples = 3\nvalue = [0, 3, 0]"] ;
579 -> 580 ;
581 [label="X[9] <= 3.224\ngini = 0.097\nsamples = 79\nvalue = [75, 2, 2]"] ;
579 -> 581 ;
582 [label="gini = 0.0\nsamples = 34\nvalue = [34, 0, 0]"] ;
581 -> 582 ;
583 [label="X[9] <= 3.245\ngini = 0.166\nsamples = 45\nvalue = [41, 2, 2]"] ;
581 -> 583 ;
584 [label="X[1] <= 1179.0\ngini = 0.278\nsamples = 12\nvalue = [10, 0, 2]"] ;
583 -> 584 ;
585 [label="X[1] <= 1136.0\ngini = 0.5\nsamples = 2\nvalue = [1, 0, 1]"] ;
584 -> 585 ;
586 [label="gini = 0.0\nsamples = 1\nvalue = [1, 0, 0]"] ;
585 -> 586 ;
587 [label="gini = 0.0\nsamples = 1\nvalue = [0, 0, 1]"] ;
585 -> 587 ;
588 [label="X[1] <= 1296.5\ngini = 0.18\nsamples = 10\nvalue = [9, 0, 1]"] ;
584 -> 588 ;
589 [label="gini = 0.0\nsamples = 7\nvalue = [7, 0, 0]"] ;
588 -> 589 ;
590 [label="X[1] <= 1306.0\ngini = 0.444\nsamples = 3\nvalue = [2, 0, 1]"] ;
588 -> 590 ;
591 [label="gini = 0.0\nsamples = 1\nvalue = [0, 0, 1]"] ;
590 -> 591 ;
592 [label="gini = 0.0\nsamples = 2\nvalue = [2, 0, 0]"] ;
590 -> 592 ;
593 [label="X[1] <= 1468.0\ngini = 0.114\nsamples = 33\nvalue = [31, 2, 0]"] ;
583 -> 593 ;
594 [label="X[1] <= 1457.5\ngini = 0.172\nsamples = 21\nvalue = [19, 2, 0]"] ;
593 -> 594 ;
595 [label="X[9] <= 4.265\ngini = 0.095\nsamples = 20\nvalue = [19, 1, 0]"] ;
594 -> 595 ;
596 [label="X[9] <= 4.261\ngini = 0.219\nsamples = 8\nvalue = [7, 1, 0]"] ;
595 -> 596 ;
597 [label="gini = 0.0\nsamples = 5\nvalue = [5, 0, 0]"] ;
596 -> 597 ;
598 [label="X[1] <= 1431.0\ngini = 0.444\nsamples = 3\nvalue = [2, 1, 0]"] ;
596 -> 598 ;
599 [label="gini = 0.5\nsamples = 2\nvalue = [1, 1, 0]"] ;
598 -> 599 ;
600 [label="gini = 0.0\nsamples = 1\nvalue = [1, 0, 0]"] ;
598 -> 600 ;
601 [label="gini = 0.0\nsamples = 12\nvalue = [12, 0, 0]"] ;
595 -> 601 ;
602 [label="gini = 0.0\nsamples = 1\nvalue = [0, 1, 0]"] ;
594 -> 602 ;
603 [label="gini = 0.0\nsamples = 12\nvalue = [12, 0, 0]"] ;
593 -> 603 ;
604 [label="X[9] <= 3.145\ngini = 0.401\nsamples = 18\nvalue = [13, 0, 5]"] ;
562 -> 604 ;
605 [label="X[1] <= 378.0\ngini = 0.486\nsamples = 12\nvalue = [7, 0, 5]"] ;
604 -> 605 ;
606 [label="X[1] <= 135.5\ngini = 0.444\nsamples = 6\nvalue = [2, 0, 4]"] ;
605 -> 606 ;
607 [label="gini = 0.0\nsamples = 2\nvalue = [2, 0, 0]"] ;
606 -> 607 ;
608 [label="gini = 0.0\nsamples = 4\nvalue = [0, 0, 4]"] ;
606 -> 608 ;
609 [label="X[1] <= 394.5\ngini = 0.278\nsamples = 6\nvalue = [5, 0, 1]"] ;
605 -> 609 ;
610 [label="gini = 0.0\nsamples = 3\nvalue = [3, 0, 0]"] ;
609 -> 610 ;
611 [label="X[16] <= 3.0\ngini = 0.444\nsamples = 3\nvalue = [2, 0, 1]"] ;
609 -> 611 ;
612 [label="gini = 0.0\nsamples = 1\nvalue = [0, 0, 1]"] ;
611 -> 612 ;
613 [label="gini = 0.0\nsamples = 2\nvalue = [2, 0, 0]"] ;
611 -> 613 ;
614 [label="gini = 0.0\nsamples = 6\nvalue = [6, 0, 0]"] ;
604 -> 614 ;
615 [label="X[1] <= 71.0\ngini = 0.494\nsamples = 9\nvalue = [5, 0, 4]"] ;
561 -> 615 ;
616 [label="gini = 0.0\nsamples = 3\nvalue = [0, 0, 3]"] ;
615 -> 616 ;
617 [label="X[6] <= 0.5\ngini = 0.278\nsamples = 6\nvalue = [5, 0, 1]"] ;
615 -> 617 ;
618 [label="X[1] <= 982.0\ngini = 0.5\nsamples = 2\nvalue = [1, 0, 1]"] ;
617 -> 618 ;
619 [label="gini = 0.0\nsamples = 1\nvalue = [0, 0, 1]"] ;
618 -> 619 ;
620 [label="gini = 0.0\nsamples = 1\nvalue = [1, 0, 0]"] ;
618 -> 620 ;
621 [label="gini = 0.0\nsamples = 4\nvalue = [4, 0, 0]"] ;
617 -> 621 ;
622 [label="X[9] <= 20.265\ngini = 0.533\nsamples = 341\nvalue = [213, 45, 83]"] ;
558 -> 622 ;
623 [label="X[9] <= 13.215\ngini = 0.522\nsamples = 332\nvalue = [212, 43, 77]"] ;
622 -> 623 ;
624 [label="X[1] <= 1721.0\ngini = 0.554\nsamples = 222\nvalue = [131, 27, 64]"] ;
623 -> 624 ;
625 [label="X[9] <= 11.222\ngini = 0.518\nsamples = 186\nvalue = [119, 22, 45]"] ;
624 -> 625 ;
626 [label="X[9] <= 6.184\ngini = 0.453\nsamples = 121\nvalue = [86, 16, 19]"] ;
625 -> 626 ;
627 [label="X[1] <= 602.5\ngini = 0.635\nsamples = 21\nvalue = [8, 4, 9]"] ;
626 -> 627 ;
628 [label="X[0] <= 1.5\ngini = 0.593\nsamples = 9\nvalue = [4, 4, 1]"] ;
627 -> 628 ;
629 [label="X[8] <= 0.5\ngini = 0.571\nsamples = 7\nvalue = [4, 2, 1]"] ;
628 -> 629 ;
630 [label="gini = 0.0\nsamples = 1\nvalue = [0, 1, 0]"] ;
629 -> 630 ;
631 [label="X[2] <= 384.0\ngini = 0.5\nsamples = 6\nvalue = [4, 1, 1]"] ;
629 -> 631 ;
632 [label="gini = 0.0\nsamples = 2\nvalue = [2, 0, 0]"] ;
631 -> 632 ;
633 [label="X[9] <= 6.171\ngini = 0.625\nsamples = 4\nvalue = [2, 1, 1]"] ;
631 -> 633 ;
634 [label="X[1] <= 326.0\ngini = 0.5\nsamples = 2\nvalue = [1, 0, 1]"] ;
633 -> 634 ;
635 [label="gini = 0.0\nsamples = 1\nvalue = [1, 0, 0]"] ;
634 -> 635 ;
636 [label="gini = 0.0\nsamples = 1\nvalue = [0, 0, 1]"] ;
634 -> 636 ;
637 [label="X[1] <= 327.0\ngini = 0.5\nsamples = 2\nvalue = [1, 1, 0]"] ;
633 -> 637 ;
638 [label="gini = 0.0\nsamples = 1\nvalue = [0, 1, 0]"] ;
637 -> 638 ;
639 [label="gini = 0.0\nsamples = 1\nvalue = [1, 0, 0]"] ;
637 -> 639 ;
640 [label="gini = 0.0\nsamples = 2\nvalue = [0, 2, 0]"] ;
628 -> 640 ;
641 [label="X[1] <= 1123.5\ngini = 0.444\nsamples = 12\nvalue = [4, 0, 8]"] ;
627 -> 641 ;
642 [label="X[1] <= 770.0\ngini = 0.198\nsamples = 9\nvalue = [1, 0, 8]"] ;
641 -> 642 ;
643 [label="X[1] <= 606.5\ngini = 0.5\nsamples = 2\nvalue = [1, 0, 1]"] ;
642 -> 643 ;
644 [label="gini = 0.0\nsamples = 1\nvalue = [0, 0, 1]"] ;
643 -> 644 ;
645 [label="gini = 0.0\nsamples = 1\nvalue = [1, 0, 0]"] ;
643 -> 645 ;
646 [label="gini = 0.0\nsamples = 7\nvalue = [0, 0, 7]"] ;
642 -> 646 ;
647 [label="gini = 0.0\nsamples = 3\nvalue = [3, 0, 0]"] ;
641 -> 647 ;
648 [label="X[16] <= 5.5\ngini = 0.367\nsamples = 100\nvalue = [78, 12, 10]"] ;
626 -> 648 ;
649 [label="X[9] <= 7.19\ngini = 0.464\nsamples = 30\nvalue = [20, 9, 1]"] ;
648 -> 649 ;
650 [label="X[1] <= 225.5\ngini = 0.473\nsamples = 13\nvalue = [5, 8, 0]"] ;
649 -> 650 ;
651 [label="gini = 0.0\nsamples = 2\nvalue = [2, 0, 0]"] ;
650 -> 651 ;
652 [label="X[2] <= 268.5\ngini = 0.397\nsamples = 11\nvalue = [3, 8, 0]"] ;
650 -> 652 ;
653 [label="gini = 0.0\nsamples = 5\nvalue = [0, 5, 0]"] ;
652 -> 653 ;
654 [label="X[1] <= 328.0\ngini = 0.5\nsamples = 6\nvalue = [3, 3, 0]"] ;
652 -> 654 ;
655 [label="gini = 0.0\nsamples = 2\nvalue = [0, 2, 0]"] ;
654 -> 655 ;
656 [label="X[9] <= 7.171\ngini = 0.375\nsamples = 4\nvalue = [3, 1, 0]"] ;
654 -> 656 ;
657 [label="gini = 0.0\nsamples = 3\nvalue = [3, 0, 0]"] ;
656 -> 657 ;
658 [label="gini = 0.0\nsamples = 1\nvalue = [0, 1, 0]"] ;
656 -> 658 ;
659 [label="X[16] <= 4.5\ngini = 0.215\nsamples = 17\nvalue = [15, 1, 1]"] ;
649 -> 659 ;
660 [label="X[13] <= 3.5\ngini = 0.117\nsamples = 16\nvalue = [15, 0, 1]"] ;
659 -> 660 ;
661 [label="X[3] <= 7.0\ngini = 0.375\nsamples = 4\nvalue = [3, 0, 1]"] ;
660 -> 661 ;
662 [label="gini = 0.0\nsamples = 3\nvalue = [3, 0, 0]"] ;
661 -> 662 ;
663 [label="gini = 0.0\nsamples = 1\nvalue = [0, 0, 1]"] ;
661 -> 663 ;
664 [label="gini = 0.0\nsamples = 12\nvalue = [12, 0, 0]"] ;
660 -> 664 ;
665 [label="gini = 0.0\nsamples = 1\nvalue = [0, 1, 0]"] ;
659 -> 665 ;
666 [label="X[3] <= 2.5\ngini = 0.295\nsamples = 70\nvalue = [58, 3, 9]"] ;
648 -> 666 ;
667 [label="X[10] <= 2003.5\ngini = 0.625\nsamples = 4\nvalue = [1, 2, 1]"] ;
666 -> 667 ;
668 [label="X[1] <= 713.0\ngini = 0.5\nsamples = 2\nvalue = [1, 0, 1]"] ;
667 -> 668 ;
669 [label="gini = 0.0\nsamples = 1\nvalue = [1, 0, 0]"] ;
668 -> 669 ;
670 [label="gini = 0.0\nsamples = 1\nvalue = [0, 0, 1]"] ;
668 -> 670 ;
671 [label="gini = 0.0\nsamples = 2\nvalue = [0, 2, 0]"] ;
667 -> 671 ;
672 [label="X[1] <= 1670.5\ngini = 0.239\nsamples = 66\nvalue = [57, 1, 8]"] ;
666 -> 672 ;
673 [label="X[2] <= 304.5\ngini = 0.191\nsamples = 57\nvalue = [51, 1, 5]"] ;
672 -> 673 ;
674 [label="X[10] <= 2003.5\ngini = 0.168\nsamples = 55\nvalue = [50, 1, 4]"] ;
673 -> 674 ;
675 [label="X[1] <= 1325.5\ngini = 0.099\nsamples = 39\nvalue = [37, 1, 1]"] ;
674 -> 675 ;
676 [label="gini = 0.0\nsamples = 20\nvalue = [20, 0, 0]"] ;
675 -> 676 ;
677 [label="X[1] <= 1336.5\ngini = 0.194\nsamples = 19\nvalue = [17, 1, 1]"] ;
675 -> 677 ;
678 [label="gini = 0.0\nsamples = 1\nvalue = [0, 0, 1]"] ;
677 -> 678 ;
679 [label="X[1] <= 1522.0\ngini = 0.105\nsamples = 18\nvalue = [17, 1, 0]"] ;
677 -> 679 ;
680 [label="gini = 0.0\nsamples = 10\nvalue = [10, 0, 0]"] ;
679 -> 680 ;
681 [label="X[1] <= 1527.0\ngini = 0.219\nsamples = 8\nvalue = [7, 1, 0]"] ;
679 -> 681 ;
682 [label="gini = 0.0\nsamples = 1\nvalue = [0, 1, 0]"] ;
681 -> 682 ;
683 [label="gini = 0.0\nsamples = 7\nvalue = [7, 0, 0]"] ;
681 -> 683 ;
684 [label="X[9] <= 6.712\ngini = 0.305\nsamples = 16\nvalue = [13, 0, 3]"] ;
674 -> 684 ;
685 [label="gini = 0.0\nsamples = 9\nvalue = [9, 0, 0]"] ;
684 -> 685 ;
686 [label="X[1] <= 386.0\ngini = 0.49\nsamples = 7\nvalue = [4, 0, 3]"] ;
684 -> 686 ;
687 [label="gini = 0.0\nsamples = 2\nvalue = [2, 0, 0]"] ;
686 -> 687 ;
688 [label="X[1] <= 388.5\ngini = 0.48\nsamples = 5\nvalue = [2, 0, 3]"] ;
686 -> 688 ;
689 [label="gini = 0.0\nsamples = 1\nvalue = [0, 0, 1]"] ;
688 -> 689 ;
690 [label="X[1] <= 392.5\ngini = 0.5\nsamples = 4\nvalue = [2, 0, 2]"] ;
688 -> 690 ;
691 [label="gini = 0.0\nsamples = 1\nvalue = [1, 0, 0]"] ;
690 -> 691 ;
692 [label="X[1] <= 400.5\ngini = 0.444\nsamples = 3\nvalue = [1, 0, 2]"] ;
690 -> 692 ;
693 [label="gini = 0.5\nsamples = 2\nvalue = [1, 0, 1]"] ;
692 -> 693 ;
694 [label="gini = 0.0\nsamples = 1\nvalue = [0, 0, 1]"] ;
692 -> 694 ;
695 [label="X[2] <= 561.0\ngini = 0.5\nsamples = 2\nvalue = [1, 0, 1]"] ;
673 -> 695 ;
696 [label="gini = 0.0\nsamples = 1\nvalue = [0, 0, 1]"] ;
695 -> 696 ;
697 [label="gini = 0.0\nsamples = 1\nvalue = [1, 0, 0]"] ;
695 -> 697 ;
698 [label="X[1] <= 1676.5\ngini = 0.444\nsamples = 9\nvalue = [6, 0, 3]"] ;
672 -> 698 ;
699 [label="gini = 0.0\nsamples = 2\nvalue = [0, 0, 2]"] ;
698 -> 699 ;
700 [label="X[1] <= 1708.0\ngini = 0.245\nsamples = 7\nvalue = [6, 0, 1]"] ;
698 -> 700 ;
701 [label="gini = 0.0\nsamples = 4\nvalue = [4, 0, 0]"] ;
700 -> 701 ;
702 [label="X[1] <= 1713.5\ngini = 0.444\nsamples = 3\nvalue = [2, 0, 1]"] ;
700 -> 702 ;
703 [label="gini = 0.0\nsamples = 1\nvalue = [0, 0, 1]"] ;
702 -> 703 ;
704 [label="gini = 0.0\nsamples = 2\nvalue = [2, 0, 0]"] ;
702 -> 704 ;
705 [label="X[7] <= 3.5\ngini = 0.574\nsamples = 65\nvalue = [33, 6, 26]"] ;
625 -> 705 ;
706 [label="X[1] <= 1041.0\ngini = 0.594\nsamples = 8\nvalue = [3, 4, 1]"] ;
705 -> 706 ;
707 [label="X[1] <= 1039.0\ngini = 0.375\nsamples = 4\nvalue = [1, 3, 0]"] ;
706 -> 707 ;
708 [label="X[1] <= 1035.5\ngini = 0.5\nsamples = 2\nvalue = [1, 1, 0]"] ;
707 -> 708 ;
709 [label="gini = 0.0\nsamples = 1\nvalue = [0, 1, 0]"] ;
708 -> 709 ;
710 [label="gini = 0.0\nsamples = 1\nvalue = [1, 0, 0]"] ;
708 -> 710 ;
711 [label="gini = 0.0\nsamples = 2\nvalue = [0, 2, 0]"] ;
707 -> 711 ;
712 [label="X[1] <= 1045.5\ngini = 0.625\nsamples = 4\nvalue = [2, 1, 1]"] ;
706 -> 712 ;
713 [label="gini = 0.0\nsamples = 1\nvalue = [0, 0, 1]"] ;
712 -> 713 ;
714 [label="X[11] <= 5.5\ngini = 0.444\nsamples = 3\nvalue = [2, 1, 0]"] ;
712 -> 714 ;
715 [label="X[1] <= 1087.5\ngini = 0.5\nsamples = 2\nvalue = [1, 1, 0]"] ;
714 -> 715 ;
716 [label="gini = 0.0\nsamples = 1\nvalue = [0, 1, 0]"] ;
715 -> 716 ;
717 [label="gini = 0.0\nsamples = 1\nvalue = [1, 0, 0]"] ;
715 -> 717 ;
718 [label="gini = 0.0\nsamples = 1\nvalue = [1, 0, 0]"] ;
714 -> 718 ;
719 [label="X[4] <= 1.5\ngini = 0.529\nsamples = 57\nvalue = [30, 2, 25]"] ;
705 -> 719 ;
720 [label="X[11] <= 2.5\ngini = 0.517\nsamples = 44\nvalue = [26, 2, 16]"] ;
719 -> 720 ;
721 [label="X[9] <= 12.733\ngini = 0.492\nsamples = 39\nvalue = [25, 2, 12]"] ;
720 -> 721 ;
722 [label="gini = 0.0\nsamples = 7\nvalue = [7, 0, 0]"] ;
721 -> 722 ;
723 [label="X[1] <= 1007.5\ngini = 0.539\nsamples = 32\nvalue = [18, 2, 12]"] ;
721 -> 723 ;
724 [label="X[1] <= 993.5\ngini = 0.485\nsamples = 29\nvalue = [17, 0, 12]"] ;
723 -> 724 ;
725 [label="X[9] <= 13.208\ngini = 0.466\nsamples = 27\nvalue = [17, 0, 10]"] ;
724 -> 725 ;
726 [label="X[6] <= 0.5\ngini = 0.401\nsamples = 18\nvalue = [13, 0, 5]"] ;
725 -> 726 ;
727 [label="X[1] <= 970.5\ngini = 0.337\nsamples = 14\nvalue = [11, 0, 3]"] ;
726 -> 727 ;
728 [label="X[1] <= 958.5\ngini = 0.49\nsamples = 7\nvalue = [4, 0, 3]"] ;
727 -> 728 ;
729 [label="gini = 0.0\nsamples = 1\nvalue = [1, 0, 0]"] ;
728 -> 729 ;
730 [label="X[1] <= 963.0\ngini = 0.5\nsamples = 6\nvalue = [3, 0, 3]"] ;
728 -> 730 ;
731 [label="X[1] <= 960.5\ngini = 0.444\nsamples = 3\nvalue = [1, 0, 2]"] ;
730 -> 731 ;
732 [label="gini = 0.5\nsamples = 2\nvalue = [1, 0, 1]"] ;
731 -> 732 ;
733 [label="gini = 0.0\nsamples = 1\nvalue = [0, 0, 1]"] ;
731 -> 733 ;
734 [label="X[1] <= 967.0\ngini = 0.444\nsamples = 3\nvalue = [2, 0, 1]"] ;
730 -> 734 ;
735 [label="gini = 0.0\nsamples = 1\nvalue = [1, 0, 0]"] ;
734 -> 735 ;
736 [label="gini = 0.5\nsamples = 2\nvalue = [1, 0, 1]"] ;
734 -> 736 ;
737 [label="gini = 0.0\nsamples = 7\nvalue = [7, 0, 0]"] ;
727 -> 737 ;
738 [label="X[1] <= 972.5\ngini = 0.5\nsamples = 4\nvalue = [2, 0, 2]"] ;
726 -> 738 ;
739 [label="gini = 0.0\nsamples = 1\nvalue = [1, 0, 0]"] ;
738 -> 739 ;
740 [label="X[1] <= 979.0\ngini = 0.444\nsamples = 3\nvalue = [1, 0, 2]"] ;
738 -> 740 ;
741 [label="gini = 0.5\nsamples = 2\nvalue = [1, 0, 1]"] ;
740 -> 741 ;
742 [label="gini = 0.0\nsamples = 1\nvalue = [0, 0, 1]"] ;
740 -> 742 ;
743 [label="X[7] <= 7.5\ngini = 0.494\nsamples = 9\nvalue = [4, 0, 5]"] ;
725 -> 743 ;
744 [label="gini = 0.0\nsamples = 1\nvalue = [1, 0, 0]"] ;
743 -> 744 ;
745 [label="X[1] <= 947.5\ngini = 0.469\nsamples = 8\nvalue = [3, 0, 5]"] ;
743 -> 745 ;
746 [label="gini = 0.0\nsamples = 1\nvalue = [1, 0, 0]"] ;
745 -> 746 ;
747 [label="X[1] <= 960.5\ngini = 0.408\nsamples = 7\nvalue = [2, 0, 5]"] ;
745 -> 747 ;
748 [label="gini = 0.0\nsamples = 2\nvalue = [0, 0, 2]"] ;
747 -> 748 ;
749 [label="X[1] <= 962.0\ngini = 0.48\nsamples = 5\nvalue = [2, 0, 3]"] ;
747 -> 749 ;
750 [label="gini = 0.0\nsamples = 1\nvalue = [1, 0, 0]"] ;
749 -> 750 ;
751 [label="X[1] <= 966.5\ngini = 0.375\nsamples = 4\nvalue = [1, 0, 3]"] ;
749 -> 751 ;
752 [label="gini = 0.0\nsamples = 2\nvalue = [0, 0, 2]"] ;
751 -> 752 ;
753 [label="X[1] <= 970.5\ngini = 0.5\nsamples = 2\nvalue = [1, 0, 1]"] ;
751 -> 753 ;
754 [label="gini = 0.0\nsamples = 1\nvalue = [1, 0, 0]"] ;
753 -> 754 ;
755 [label="gini = 0.0\nsamples = 1\nvalue = [0, 0, 1]"] ;
753 -> 755 ;
756 [label="gini = 0.0\nsamples = 2\nvalue = [0, 0, 2]"] ;
724 -> 756 ;
757 [label="X[1] <= 1036.0\ngini = 0.444\nsamples = 3\nvalue = [1, 2, 0]"] ;
723 -> 757 ;
758 [label="gini = 0.0\nsamples = 2\nvalue = [0, 2, 0]"] ;
757 -> 758 ;
759 [label="gini = 0.0\nsamples = 1\nvalue = [1, 0, 0]"] ;
757 -> 759 ;
760 [label="X[12] <= 2.0\ngini = 0.32\nsamples = 5\nvalue = [1, 0, 4]"] ;
720 -> 760 ;
761 [label="gini = 0.0\nsamples = 1\nvalue = [1, 0, 0]"] ;
760 -> 761 ;
762 [label="gini = 0.0\nsamples = 4\nvalue = [0, 0, 4]"] ;
760 -> 762 ;
763 [label="X[1] <= 1575.5\ngini = 0.426\nsamples = 13\nvalue = [4, 0, 9]"] ;
719 -> 763 ;
764 [label="X[7] <= 8.5\ngini = 0.18\nsamples = 10\nvalue = [1, 0, 9]"] ;
763 -> 764 ;
765 [label="gini = 0.0\nsamples = 9\nvalue = [0, 0, 9]"] ;
764 -> 765 ;
766 [label="gini = 0.0\nsamples = 1\nvalue = [1, 0, 0]"] ;
764 -> 766 ;
767 [label="gini = 0.0\nsamples = 3\nvalue = [3, 0, 0]"] ;
763 -> 767 ;
768 [label="X[13] <= 1.5\ngini = 0.591\nsamples = 36\nvalue = [12, 5, 19]"] ;
624 -> 768 ;
769 [label="gini = 0.0\nsamples = 13\nvalue = [0, 0, 13]"] ;
768 -> 769 ;
770 [label="X[10] <= 1999.0\ngini = 0.612\nsamples = 23\nvalue = [12, 5, 6]"] ;
768 -> 770 ;
771 [label="X[1] <= 1833.0\ngini = 0.58\nsamples = 10\nvalue = [4, 1, 5]"] ;
770 -> 771 ;
772 [label="gini = 0.0\nsamples = 2\nvalue = [0, 0, 2]"] ;
771 -> 772 ;
773 [label="X[1] <= 1876.5\ngini = 0.594\nsamples = 8\nvalue = [4, 1, 3]"] ;
771 -> 773 ;
774 [label="gini = 0.0\nsamples = 3\nvalue = [3, 0, 0]"] ;
773 -> 774 ;
775 [label="X[1] <= 1906.5\ngini = 0.56\nsamples = 5\nvalue = [1, 1, 3]"] ;
773 -> 775 ;
776 [label="X[1] <= 1882.0\ngini = 0.375\nsamples = 4\nvalue = [0, 1, 3]"] ;
775 -> 776 ;
777 [label="gini = 0.0\nsamples = 2\nvalue = [0, 0, 2]"] ;
776 -> 777 ;
778 [label="X[1] <= 1887.5\ngini = 0.5\nsamples = 2\nvalue = [0, 1, 1]"] ;
776 -> 778 ;
779 [label="gini = 0.0\nsamples = 1\nvalue = [0, 1, 0]"] ;
778 -> 779 ;
780 [label="gini = 0.0\nsamples = 1\nvalue = [0, 0, 1]"] ;
778 -> 780 ;
781 [label="gini = 0.0\nsamples = 1\nvalue = [1, 0, 0]"] ;
775 -> 781 ;
782 [label="X[9] <= 11.222\ngini = 0.521\nsamples = 13\nvalue = [8, 4, 1]"] ;
770 -> 782 ;
783 [label="X[1] <= 2457.5\ngini = 0.562\nsamples = 11\nvalue = [6, 4, 1]"] ;
782 -> 783 ;
784 [label="X[4] <= 2.0\ngini = 0.593\nsamples = 9\nvalue = [4, 4, 1]"] ;
783 -> 784 ;
785 [label="X[7] <= 5.0\ngini = 0.5\nsamples = 2\nvalue = [0, 1, 1]"] ;
784 -> 785 ;
786 [label="gini = 0.0\nsamples = 1\nvalue = [0, 1, 0]"] ;
785 -> 786 ;
787 [label="gini = 0.0\nsamples = 1\nvalue = [0, 0, 1]"] ;
785 -> 787 ;
788 [label="X[1] <= 1848.5\ngini = 0.49\nsamples = 7\nvalue = [4, 3, 0]"] ;
784 -> 788 ;
789 [label="X[1] <= 1755.0\ngini = 0.48\nsamples = 5\nvalue = [2, 3, 0]"] ;
788 -> 789 ;
790 [label="gini = 0.0\nsamples = 1\nvalue = [1, 0, 0]"] ;
789 -> 790 ;
791 [label="X[1] <= 1804.5\ngini = 0.375\nsamples = 4\nvalue = [1, 3, 0]"] ;
789 -> 791 ;
792 [label="gini = 0.0\nsamples = 2\nvalue = [0, 2, 0]"] ;
791 -> 792 ;
793 [label="X[1] <= 1827.0\ngini = 0.5\nsamples = 2\nvalue = [1, 1, 0]"] ;
791 -> 793 ;
794 [label="gini = 0.0\nsamples = 1\nvalue = [1, 0, 0]"] ;
793 -> 794 ;
795 [label="gini = 0.0\nsamples = 1\nvalue = [0, 1, 0]"] ;
793 -> 795 ;
796 [label="gini = 0.0\nsamples = 2\nvalue = [2, 0, 0]"] ;
788 -> 796 ;
797 [label="gini = 0.0\nsamples = 2\nvalue = [2, 0, 0]"] ;
783 -> 797 ;
798 [label="gini = 0.0\nsamples = 2\nvalue = [2, 0, 0]"] ;
782 -> 798 ;
799 [label="X[1] <= 853.0\ngini = 0.423\nsamples = 110\nvalue = [81, 16, 13]"] ;
623 -> 799 ;
800 [label="X[2] <= 222.0\ngini = 0.55\nsamples = 67\nvalue = [41, 13, 13]"] ;
799 -> 800 ;
801 [label="X[16] <= 0.5\ngini = 0.51\nsamples = 54\nvalue = [35, 13, 6]"] ;
800 -> 801 ;
802 [label="X[1] <= 388.0\ngini = 0.426\nsamples = 13\nvalue = [9, 0, 4]"] ;
801 -> 802 ;
803 [label="X[13] <= 3.5\ngini = 0.18\nsamples = 10\nvalue = [9, 0, 1]"] ;
802 -> 803 ;
804 [label="X[9] <= 18.251\ngini = 0.444\nsamples = 3\nvalue = [2, 0, 1]"] ;
803 -> 804 ;
805 [label="gini = 0.0\nsamples = 2\nvalue = [2, 0, 0]"] ;
804 -> 805 ;
806 [label="gini = 0.0\nsamples = 1\nvalue = [0, 0, 1]"] ;
804 -> 806 ;
807 [label="gini = 0.0\nsamples = 7\nvalue = [7, 0, 0]"] ;
803 -> 807 ;
808 [label="gini = 0.0\nsamples = 3\nvalue = [0, 0, 3]"] ;
802 -> 808 ;
809 [label="X[3] <= 7.0\ngini = 0.495\nsamples = 41\nvalue = [26, 13, 2]"] ;
801 -> 809 ;
810 [label="X[1] <= 325.0\ngini = 0.538\nsamples = 34\nvalue = [19, 13, 2]"] ;
809 -> 810 ;
811 [label="X[9] <= 17.772\ngini = 0.46\nsamples = 19\nvalue = [13, 5, 1]"] ;
810 -> 811 ;
812 [label="X[10] <= 1995.0\ngini = 0.278\nsamples = 12\nvalue = [10, 2, 0]"] ;
811 -> 812 ;
813 [label="gini = 0.0\nsamples = 6\nvalue = [6, 0, 0]"] ;
812 -> 813 ;
814 [label="X[1] <= 182.0\ngini = 0.444\nsamples = 6\nvalue = [4, 2, 0]"] ;
812 -> 814 ;
815 [label="X[1] <= 91.5\ngini = 0.444\nsamples = 3\nvalue = [1, 2, 0]"] ;
814 -> 815 ;
816 [label="gini = 0.0\nsamples = 1\nvalue = [1, 0, 0]"] ;
815 -> 816 ;
817 [label="gini = 0.0\nsamples = 2\nvalue = [0, 2, 0]"] ;
815 -> 817 ;
818 [label="gini = 0.0\nsamples = 3\nvalue = [3, 0, 0]"] ;
814 -> 818 ;
819 [label="X[1] <= 42.5\ngini = 0.612\nsamples = 7\nvalue = [3, 3, 1]"] ;
811 -> 819 ;
820 [label="X[9] <= 18.272\ngini = 0.444\nsamples = 3\nvalue = [0, 2, 1]"] ;
819 -> 820 ;
821 [label="gini = 0.0\nsamples = 1\nvalue = [0, 0, 1]"] ;
820 -> 821 ;
822 [label="gini = 0.0\nsamples = 2\nvalue = [0, 2, 0]"] ;
820 -> 822 ;
823 [label="X[16] <= 3.5\ngini = 0.375\nsamples = 4\nvalue = [3, 1, 0]"] ;
819 -> 823 ;
824 [label="gini = 0.0\nsamples = 1\nvalue = [0, 1, 0]"] ;
823 -> 824 ;
825 [label="gini = 0.0\nsamples = 3\nvalue = [3, 0, 0]"] ;
823 -> 825 ;
826 [label="X[13] <= 1.5\ngini = 0.551\nsamples = 15\nvalue = [6, 8, 1]"] ;
810 -> 826 ;
827 [label="gini = 0.0\nsamples = 2\nvalue = [2, 0, 0]"] ;
826 -> 827 ;
828 [label="X[9] <= 19.265\ngini = 0.521\nsamples = 13\nvalue = [4, 8, 1]"] ;
826 -> 828 ;
829 [label="X[9] <= 18.765\ngini = 0.444\nsamples = 12\nvalue = [4, 8, 0]"] ;
828 -> 829 ;
830 [label="X[1] <= 518.5\ngini = 0.397\nsamples = 11\nvalue = [3, 8, 0]"] ;
829 -> 830 ;
831 [label="X[1] <= 470.5\ngini = 0.49\nsamples = 7\nvalue = [3, 4, 0]"] ;
830 -> 831 ;
832 [label="X[10] <= 1994.5\ngini = 0.32\nsamples = 5\nvalue = [1, 4, 0]"] ;
831 -> 832 ;
833 [label="gini = 0.0\nsamples = 4\nvalue = [0, 4, 0]"] ;
832 -> 833 ;
834 [label="gini = 0.0\nsamples = 1\nvalue = [1, 0, 0]"] ;
832 -> 834 ;
835 [label="gini = 0.0\nsamples = 2\nvalue = [2, 0, 0]"] ;
831 -> 835 ;
836 [label="gini = 0.0\nsamples = 4\nvalue = [0, 4, 0]"] ;
830 -> 836 ;
837 [label="gini = 0.0\nsamples = 1\nvalue = [1, 0, 0]"] ;
829 -> 837 ;
838 [label="gini = 0.0\nsamples = 1\nvalue = [0, 0, 1]"] ;
828 -> 838 ;
839 [label="gini = 0.0\nsamples = 7\nvalue = [7, 0, 0]"] ;
809 -> 839 ;
840 [label="X[2] <= 357.5\ngini = 0.497\nsamples = 13\nvalue = [6, 0, 7]"] ;
800 -> 840 ;
841 [label="gini = 0.0\nsamples = 6\nvalue = [0, 0, 6]"] ;
840 -> 841 ;
842 [label="X[13] <= 5.5\ngini = 0.245\nsamples = 7\nvalue = [6, 0, 1]"] ;
840 -> 842 ;
843 [label="gini = 0.0\nsamples = 6\nvalue = [6, 0, 0]"] ;
842 -> 843 ;
844 [label="gini = 0.0\nsamples = 1\nvalue = [0, 0, 1]"] ;
842 -> 844 ;
845 [label="X[9] <= 19.203\ngini = 0.13\nsamples = 43\nvalue = [40, 3, 0]"] ;
799 -> 845 ;
846 [label="X[1] <= 1761.0\ngini = 0.059\nsamples = 33\nvalue = [32, 1, 0]"] ;
845 -> 846 ;
847 [label="gini = 0.0\nsamples = 20\nvalue = [20, 0, 0]"] ;
846 -> 847 ;
848 [label="X[1] <= 1764.0\ngini = 0.142\nsamples = 13\nvalue = [12, 1, 0]"] ;
846 -> 848 ;
849 [label="gini = 0.5\nsamples = 2\nvalue = [1, 1, 0]"] ;
848 -> 849 ;
850 [label="gini = 0.0\nsamples = 11\nvalue = [11, 0, 0]"] ;
848 -> 850 ;
851 [label="X[1] <= 1779.0\ngini = 0.32\nsamples = 10\nvalue = [8, 2, 0]"] ;
845 -> 851 ;
852 [label="X[1] <= 1756.5\ngini = 0.219\nsamples = 8\nvalue = [7, 1, 0]"] ;
851 -> 852 ;
853 [label="X[1] <= 1751.0\ngini = 0.444\nsamples = 3\nvalue = [2, 1, 0]"] ;
852 -> 853 ;
854 [label="gini = 0.0\nsamples = 2\nvalue = [2, 0, 0]"] ;
853 -> 854 ;
855 [label="gini = 0.0\nsamples = 1\nvalue = [0, 1, 0]"] ;
853 -> 855 ;
856 [label="gini = 0.0\nsamples = 5\nvalue = [5, 0, 0]"] ;
852 -> 856 ;
857 [label="X[1] <= 1786.5\ngini = 0.5\nsamples = 2\nvalue = [1, 1, 0]"] ;
851 -> 857 ;
858 [label="gini = 0.0\nsamples = 1\nvalue = [0, 1, 0]"] ;
857 -> 858 ;
859 [label="gini = 0.0\nsamples = 1\nvalue = [1, 0, 0]"] ;
857 -> 859 ;
860 [label="X[5] <= 0.5\ngini = 0.494\nsamples = 9\nvalue = [1, 2, 6]"] ;
622 -> 860 ;
861 [label="X[2] <= 190.0\ngini = 0.375\nsamples = 8\nvalue = [0, 2, 6]"] ;
860 -> 861 ;
862 [label="X[1] <= 322.0\ngini = 0.5\nsamples = 4\nvalue = [0, 2, 2]"] ;
861 -> 862 ;
863 [label="gini = 0.0\nsamples = 2\nvalue = [0, 2, 0]"] ;
862 -> 863 ;
864 [label="gini = 0.0\nsamples = 2\nvalue = [0, 0, 2]"] ;
862 -> 864 ;
865 [label="gini = 0.0\nsamples = 4\nvalue = [0, 0, 4]"] ;
861 -> 865 ;
866 [label="gini = 0.0\nsamples = 1\nvalue = [1, 0, 0]"] ;
860 -> 866 ;
867 [label="X[16] <= 2.5\ngini = 0.288\nsamples = 204\nvalue = [170, 26, 8]"] ;
557 -> 867 ;
868 [label="X[2] <= 315.0\ngini = 0.623\nsamples = 27\nvalue = [9, 13, 5]"] ;
867 -> 868 ;
869 [label="X[16] <= 0.5\ngini = 0.459\nsamples = 14\nvalue = [9, 0, 5]"] ;
868 -> 869 ;
870 [label="gini = 0.0\nsamples = 7\nvalue = [7, 0, 0]"] ;
869 -> 870 ;
871 [label="X[9] <= 5.606\ngini = 0.408\nsamples = 7\nvalue = [2, 0, 5]"] ;
869 -> 871 ;
872 [label="gini = 0.0\nsamples = 5\nvalue = [0, 0, 5]"] ;
871 -> 872 ;
873 [label="gini = 0.0\nsamples = 2\nvalue = [2, 0, 0]"] ;
871 -> 873 ;
874 [label="gini = 0.0\nsamples = 13\nvalue = [0, 13, 0]"] ;
868 -> 874 ;
875 [label="X[16] <= 5.5\ngini = 0.167\nsamples = 177\nvalue = [161, 13, 3]"] ;
867 -> 875 ;
876 [label="X[2] <= 144.5\ngini = 0.149\nsamples = 175\nvalue = [161, 11, 3]"] ;
875 -> 876 ;
877 [label="X[1] <= 558.0\ngini = 0.376\nsamples = 22\nvalue = [17, 2, 3]"] ;
876 -> 877 ;
878 [label="X[1] <= 543.5\ngini = 0.219\nsamples = 16\nvalue = [14, 2, 0]"] ;
877 -> 878 ;
879 [label="gini = 0.0\nsamples = 6\nvalue = [6, 0, 0]"] ;
878 -> 879 ;
880 [label="X[1] <= 544.5\ngini = 0.32\nsamples = 10\nvalue = [8, 2, 0]"] ;
878 -> 880 ;
881 [label="gini = 0.0\nsamples = 1\nvalue = [0, 1, 0]"] ;
880 -> 881 ;
882 [label="X[9] <= 21.113\ngini = 0.198\nsamples = 9\nvalue = [8, 1, 0]"] ;
880 -> 882 ;
883 [label="gini = 0.0\nsamples = 7\nvalue = [7, 0, 0]"] ;
882 -> 883 ;
884 [label="X[1] <= 547.0\ngini = 0.5\nsamples = 2\nvalue = [1, 1, 0]"] ;
882 -> 884 ;
885 [label="gini = 0.0\nsamples = 1\nvalue = [1, 0, 0]"] ;
884 -> 885 ;
886 [label="gini = 0.0\nsamples = 1\nvalue = [0, 1, 0]"] ;
884 -> 886 ;
887 [label="X[1] <= 563.5\ngini = 0.5\nsamples = 6\nvalue = [3, 0, 3]"] ;
877 -> 887 ;
888 [label="gini = 0.0\nsamples = 2\nvalue = [0, 0, 2]"] ;
887 -> 888 ;
889 [label="X[1] <= 575.0\ngini = 0.375\nsamples = 4\nvalue = [3, 0, 1]"] ;
887 -> 889 ;
890 [label="gini = 0.0\nsamples = 3\nvalue = [3, 0, 0]"] ;
889 -> 890 ;
891 [label="gini = 0.0\nsamples = 1\nvalue = [0, 0, 1]"] ;
889 -> 891 ;
892 [label="X[13] <= 2.5\ngini = 0.111\nsamples = 153\nvalue = [144, 9, 0]"] ;
876 -> 892 ;
893 [label="X[13] <= 1.5\ngini = 0.172\nsamples = 95\nvalue = [86, 9, 0]"] ;
892 -> 893 ;
894 [label="X[9] <= 2.164\ngini = 0.117\nsamples = 80\nvalue = [75, 5, 0]"] ;
893 -> 894 ;
895 [label="X[9] <= 2.149\ngini = 0.278\nsamples = 12\nvalue = [10, 2, 0]"] ;
894 -> 895 ;
896 [label="gini = 0.0\nsamples = 7\nvalue = [7, 0, 0]"] ;
895 -> 896 ;
897 [label="X[1] <= 1016.0\ngini = 0.48\nsamples = 5\nvalue = [3, 2, 0]"] ;
895 -> 897 ;
898 [label="gini = 0.0\nsamples = 1\nvalue = [0, 1, 0]"] ;
897 -> 898 ;
899 [label="X[1] <= 1034.5\ngini = 0.375\nsamples = 4\nvalue = [3, 1, 0]"] ;
897 -> 899 ;
900 [label="gini = 0.0\nsamples = 2\nvalue = [2, 0, 0]"] ;
899 -> 900 ;
901 [label="X[1] <= 1042.5\ngini = 0.5\nsamples = 2\nvalue = [1, 1, 0]"] ;
899 -> 901 ;
902 [label="gini = 0.0\nsamples = 1\nvalue = [0, 1, 0]"] ;
901 -> 902 ;
903 [label="gini = 0.0\nsamples = 1\nvalue = [1, 0, 0]"] ;
901 -> 903 ;
904 [label="X[1] <= 1492.5\ngini = 0.084\nsamples = 68\nvalue = [65, 3, 0]"] ;
894 -> 904 ;
905 [label="X[1] <= 1020.5\ngini = 0.064\nsamples = 60\nvalue = [58, 2, 0]"] ;
904 -> 905 ;
906 [label="X[1] <= 1019.5\ngini = 0.124\nsamples = 30\nvalue = [28, 2, 0]"] ;
905 -> 906 ;
907 [label="X[1] <= 892.5\ngini = 0.067\nsamples = 29\nvalue = [28, 1, 0]"] ;
906 -> 907 ;
908 [label="X[1] <= 884.0\ngini = 0.18\nsamples = 10\nvalue = [9, 1, 0]"] ;
907 -> 908 ;
909 [label="gini = 0.0\nsamples = 9\nvalue = [9, 0, 0]"] ;
908 -> 909 ;
910 [label="gini = 0.0\nsamples = 1\nvalue = [0, 1, 0]"] ;
908 -> 910 ;
911 [label="gini = 0.0\nsamples = 19\nvalue = [19, 0, 0]"] ;
907 -> 911 ;
912 [label="gini = 0.0\nsamples = 1\nvalue = [0, 1, 0]"] ;
906 -> 912 ;
913 [label="gini = 0.0\nsamples = 30\nvalue = [30, 0, 0]"] ;
905 -> 913 ;
914 [label="X[1] <= 1493.5\ngini = 0.219\nsamples = 8\nvalue = [7, 1, 0]"] ;
904 -> 914 ;
915 [label="gini = 0.0\nsamples = 1\nvalue = [0, 1, 0]"] ;
914 -> 915 ;
916 [label="gini = 0.0\nsamples = 7\nvalue = [7, 0, 0]"] ;
914 -> 916 ;
917 [label="X[1] <= 1227.0\ngini = 0.391\nsamples = 15\nvalue = [11, 4, 0]"] ;
893 -> 917 ;
918 [label="X[1] <= 1185.0\ngini = 0.494\nsamples = 9\nvalue = [5, 4, 0]"] ;
917 -> 918 ;
919 [label="X[1] <= 993.5\ngini = 0.408\nsamples = 7\nvalue = [5, 2, 0]"] ;
918 -> 919 ;
920 [label="gini = 0.0\nsamples = 1\nvalue = [0, 1, 0]"] ;
919 -> 920 ;
921 [label="X[1] <= 1146.5\ngini = 0.278\nsamples = 6\nvalue = [5, 1, 0]"] ;
919 -> 921 ;
922 [label="X[9] <= 4.169\ngini = 0.444\nsamples = 3\nvalue = [2, 1, 0]"] ;
921 -> 922 ;
923 [label="gini = 0.0\nsamples = 2\nvalue = [2, 0, 0]"] ;
922 -> 923 ;
924 [label="gini = 0.0\nsamples = 1\nvalue = [0, 1, 0]"] ;
922 -> 924 ;
925 [label="gini = 0.0\nsamples = 3\nvalue = [3, 0, 0]"] ;
921 -> 925 ;
926 [label="gini = 0.0\nsamples = 2\nvalue = [0, 2, 0]"] ;
918 -> 926 ;
927 [label="gini = 0.0\nsamples = 6\nvalue = [6, 0, 0]"] ;
917 -> 927 ;
928 [label="gini = 0.0\nsamples = 58\nvalue = [58, 0, 0]"] ;
892 -> 928 ;
929 [label="gini = 0.0\nsamples = 2\nvalue = [0, 2, 0]"] ;
875 -> 929 ;
930 [label="X[9] <= 4.183\ngini = 0.299\nsamples = 2525\nvalue = [2088, 130, 307]"] ;
492 -> 930 ;
931 [label="X[12] <= 0.5\ngini = 0.189\nsamples = 1056\nvalue = [947, 23, 86]"] ;
930 -> 931 ;
932 [label="X[10] <= 2009.5\ngini = 0.075\nsamples = 387\nvalue = [372, 2, 13]"] ;
931 -> 932 ;
933 [label="X[6] <= 1.5\ngini = 0.177\nsamples = 93\nvalue = [84, 1, 8]"] ;
932 -> 933 ;
934 [label="X[4] <= 3.5\ngini = 0.162\nsamples = 91\nvalue = [83, 1, 7]"] ;
933 -> 934 ;
935 [label="X[1] <= -3.0\ngini = 0.444\nsamples = 3\nvalue = [2, 1, 0]"] ;
934 -> 935 ;
936 [label="gini = 0.0\nsamples = 1\nvalue = [0, 1, 0]"] ;
935 -> 936 ;
937 [label="gini = 0.0\nsamples = 2\nvalue = [2, 0, 0]"] ;
935 -> 937 ;
938 [label="X[9] <= 2.227\ngini = 0.146\nsamples = 88\nvalue = [81, 0, 7]"] ;
934 -> 938 ;
939 [label="X[9] <= 2.223\ngini = 0.239\nsamples = 36\nvalue = [31, 0, 5]"] ;
938 -> 939 ;
940 [label="X[1] <= 154.0\ngini = 0.161\nsamples = 34\nvalue = [31, 0, 3]"] ;
939 -> 940 ;
941 [label="X[1] <= -10.5\ngini = 0.305\nsamples = 16\nvalue = [13, 0, 3]"] ;
940 -> 941 ;
942 [label="gini = 0.0\nsamples = 12\nvalue = [12, 0, 0]"] ;
941 -> 942 ;
943 [label="X[9] <= 2.176\ngini = 0.375\nsamples = 4\nvalue = [1, 0, 3]"] ;
941 -> 943 ;
944 [label="gini = 0.0\nsamples = 1\nvalue = [1, 0, 0]"] ;
943 -> 944 ;
945 [label="gini = 0.0\nsamples = 3\nvalue = [0, 0, 3]"] ;
943 -> 945 ;
946 [label="gini = 0.0\nsamples = 18\nvalue = [18, 0, 0]"] ;
940 -> 946 ;
947 [label="gini = 0.0\nsamples = 2\nvalue = [0, 0, 2]"] ;
939 -> 947 ;
948 [label="X[10] <= 2007.5\ngini = 0.074\nsamples = 52\nvalue = [50, 0, 2]"] ;
938 -> 948 ;
949 [label="X[2] <= 643.5\ngini = 0.375\nsamples = 4\nvalue = [3, 0, 1]"] ;
948 -> 949 ;
950 [label="gini = 0.0\nsamples = 1\nvalue = [0, 0, 1]"] ;
949 -> 950 ;
951 [label="gini = 0.0\nsamples = 3\nvalue = [3, 0, 0]"] ;
949 -> 951 ;
952 [label="X[1] <= 157.5\ngini = 0.041\nsamples = 48\nvalue = [47, 0, 1]"] ;
948 -> 952 ;
953 [label="gini = 0.0\nsamples = 33\nvalue = [33, 0, 0]"] ;
952 -> 953 ;
954 [label="X[1] <= 164.5\ngini = 0.124\nsamples = 15\nvalue = [14, 0, 1]"] ;
952 -> 954 ;
955 [label="gini = 0.0\nsamples = 1\nvalue = [0, 0, 1]"] ;
954 -> 955 ;
956 [label="gini = 0.0\nsamples = 14\nvalue = [14, 0, 0]"] ;
954 -> 956 ;
957 [label="X[1] <= 129.0\ngini = 0.5\nsamples = 2\nvalue = [1, 0, 1]"] ;
933 -> 957 ;
958 [label="gini = 0.0\nsamples = 1\nvalue = [0, 0, 1]"] ;
957 -> 958 ;
959 [label="gini = 0.0\nsamples = 1\nvalue = [1, 0, 0]"] ;
957 -> 959 ;
960 [label="X[4] <= 7.0\ngini = 0.04\nsamples = 294\nvalue = [288, 1, 5]"] ;
932 -> 960 ;
961 [label="X[9] <= 3.23\ngini = 0.034\nsamples = 290\nvalue = [285, 0, 5]"] ;
960 -> 961 ;
962 [label="X[13] <= 3.5\ngini = 0.028\nsamples = 284\nvalue = [280, 0, 4]"] ;
961 -> 962 ;
963 [label="X[2] <= 755.5\ngini = 0.147\nsamples = 25\nvalue = [23, 0, 2]"] ;
962 -> 963 ;
964 [label="gini = 0.0\nsamples = 20\nvalue = [20, 0, 0]"] ;
963 -> 964 ;
965 [label="X[3] <= 6.5\ngini = 0.48\nsamples = 5\nvalue = [3, 0, 2]"] ;
963 -> 965 ;
966 [label="gini = 0.0\nsamples = 2\nvalue = [2, 0, 0]"] ;
965 -> 966 ;
967 [label="X[6] <= 1.5\ngini = 0.444\nsamples = 3\nvalue = [1, 0, 2]"] ;
965 -> 967 ;
968 [label="gini = 0.0\nsamples = 2\nvalue = [0, 0, 2]"] ;
967 -> 968 ;
969 [label="gini = 0.0\nsamples = 1\nvalue = [1, 0, 0]"] ;
967 -> 969 ;
970 [label="X[9] <= 0.211\ngini = 0.015\nsamples = 259\nvalue = [257, 0, 2]"] ;
962 -> 970 ;
971 [label="X[9] <= 0.206\ngini = 0.133\nsamples = 14\nvalue = [13, 0, 1]"] ;
970 -> 971 ;
972 [label="gini = 0.0\nsamples = 12\nvalue = [12, 0, 0]"] ;
971 -> 972 ;
973 [label="X[1] <= 131.0\ngini = 0.5\nsamples = 2\nvalue = [1, 0, 1]"] ;
971 -> 973 ;
974 [label="gini = 0.0\nsamples = 1\nvalue = [0, 0, 1]"] ;
973 -> 974 ;
975 [label="gini = 0.0\nsamples = 1\nvalue = [1, 0, 0]"] ;
973 -> 975 ;
976 [label="X[1] <= -10.5\ngini = 0.008\nsamples = 245\nvalue = [244, 0, 1]"] ;
970 -> 976 ;
977 [label="X[1] <= -11.5\ngini = 0.071\nsamples = 27\nvalue = [26, 0, 1]"] ;
976 -> 977 ;
978 [label="gini = 0.0\nsamples = 23\nvalue = [23, 0, 0]"] ;
977 -> 978 ;
979 [label="X[9] <= 1.227\ngini = 0.375\nsamples = 4\nvalue = [3, 0, 1]"] ;
977 -> 979 ;
980 [label="X[11] <= 7.0\ngini = 0.5\nsamples = 2\nvalue = [1, 0, 1]"] ;
979 -> 980 ;
981 [label="gini = 0.0\nsamples = 1\nvalue = [1, 0, 0]"] ;
980 -> 981 ;
982 [label="gini = 0.0\nsamples = 1\nvalue = [0, 0, 1]"] ;
980 -> 982 ;
983 [label="gini = 0.0\nsamples = 2\nvalue = [2, 0, 0]"] ;
979 -> 983 ;
984 [label="gini = 0.0\nsamples = 218\nvalue = [218, 0, 0]"] ;
976 -> 984 ;
985 [label="X[1] <= 50.0\ngini = 0.278\nsamples = 6\nvalue = [5, 0, 1]"] ;
961 -> 985 ;
986 [label="gini = 0.0\nsamples = 1\nvalue = [0, 0, 1]"] ;
985 -> 986 ;
987 [label="gini = 0.0\nsamples = 5\nvalue = [5, 0, 0]"] ;
985 -> 987 ;
988 [label="X[7] <= 5.5\ngini = 0.375\nsamples = 4\nvalue = [3, 1, 0]"] ;
960 -> 988 ;
989 [label="gini = 0.0\nsamples = 3\nvalue = [3, 0, 0]"] ;
988 -> 989 ;
990 [label="gini = 0.0\nsamples = 1\nvalue = [0, 1, 0]"] ;
988 -> 990 ;
991 [label="X[9] <= 1.243\ngini = 0.248\nsamples = 669\nvalue = [575, 21, 73]"] ;
931 -> 991 ;
992 [label="X[1] <= 139.0\ngini = 0.105\nsamples = 217\nvalue = [205, 2, 10]"] ;
991 -> 992 ;
993 [label="X[1] <= 127.0\ngini = 0.302\nsamples = 27\nvalue = [22, 0, 5]"] ;
992 -> 993 ;
994 [label="X[1] <= 33.5\ngini = 0.211\nsamples = 25\nvalue = [22, 0, 3]"] ;
993 -> 994 ;
995 [label="X[0] <= 1.5\ngini = 0.337\nsamples = 14\nvalue = [11, 0, 3]"] ;
994 -> 995 ;
996 [label="X[1] <= 20.5\ngini = 0.165\nsamples = 11\nvalue = [10, 0, 1]"] ;
995 -> 996 ;
997 [label="gini = 0.0\nsamples = 9\nvalue = [9, 0, 0]"] ;
996 -> 997 ;
998 [label="X[7] <= 8.0\ngini = 0.5\nsamples = 2\nvalue = [1, 0, 1]"] ;
996 -> 998 ;
999 [label="gini = 0.0\nsamples = 1\nvalue = [0, 0, 1]"] ;
998 -> 999 ;
1000 [label="gini = 0.0\nsamples = 1\nvalue = [1, 0, 0]"] ;
998 -> 1000 ;
1001 [label="X[7] <= 3.5\ngini = 0.444\nsamples = 3\nvalue = [1, 0, 2]"] ;
995 -> 1001 ;
1002 [label="gini = 0.0\nsamples = 1\nvalue = [1, 0, 0]"] ;
1001 -> 1002 ;
1003 [label="gini = 0.0\nsamples = 2\nvalue = [0, 0, 2]"] ;
1001 -> 1003 ;
1004 [label="gini = 0.0\nsamples = 11\nvalue = [11, 0, 0]"] ;
994 -> 1004 ;
1005 [label="gini = 0.0\nsamples = 2\nvalue = [0, 0, 2]"] ;
993 -> 1005 ;
1006 [label="X[2] <= 69.0\ngini = 0.072\nsamples = 190\nvalue = [183, 2, 5]"] ;
992 -> 1006 ;
1007 [label="gini = 0.0\nsamples = 1\nvalue = [0, 0, 1]"] ;
1006 -> 1007 ;
1008 [label="X[9] <= 0.108\ngini = 0.062\nsamples = 189\nvalue = [183, 2, 4]"] ;
1006 -> 1008 ;
1009 [label="gini = 0.0\nsamples = 1\nvalue = [0, 0, 1]"] ;
1008 -> 1009 ;
1010 [label="X[0] <= 0.5\ngini = 0.052\nsamples = 188\nvalue = [183, 2, 3]"] ;
1008 -> 1010 ;
1011 [label="X[1] <= 1153.5\ngini = 0.375\nsamples = 4\nvalue = [3, 0, 1]"] ;
1010 -> 1011 ;
1012 [label="gini = 0.0\nsamples = 1\nvalue = [1, 0, 0]"] ;
1011 -> 1012 ;
1013 [label="X[1] <= 1169.5\ngini = 0.444\nsamples = 3\nvalue = [2, 0, 1]"] ;
1011 -> 1013 ;
1014 [label="gini = 0.5\nsamples = 2\nvalue = [1, 0, 1]"] ;
1013 -> 1014 ;
1015 [label="gini = 0.0\nsamples = 1\nvalue = [1, 0, 0]"] ;
1013 -> 1015 ;
1016 [label="X[4] <= 7.0\ngini = 0.043\nsamples = 184\nvalue = [180, 2, 2]"] ;
1010 -> 1016 ;
1017 [label="X[2] <= 111.0\ngini = 0.013\nsamples = 156\nvalue = [155, 1, 0]"] ;
1016 -> 1017 ;
1018 [label="X[1] <= 322.5\ngini = 0.053\nsamples = 37\nvalue = [36, 1, 0]"] ;
1017 -> 1018 ;
1019 [label="gini = 0.0\nsamples = 34\nvalue = [34, 0, 0]"] ;
1018 -> 1019 ;
1020 [label="X[1] <= 323.5\ngini = 0.444\nsamples = 3\nvalue = [2, 1, 0]"] ;
1018 -> 1020 ;
1021 [label="gini = 0.0\nsamples = 1\nvalue = [0, 1, 0]"] ;
1020 -> 1021 ;
1022 [label="gini = 0.0\nsamples = 2\nvalue = [2, 0, 0]"] ;
1020 -> 1022 ;
1023 [label="gini = 0.0\nsamples = 119\nvalue = [119, 0, 0]"] ;
1017 -> 1023 ;
1024 [label="X[2] <= 177.5\ngini = 0.196\nsamples = 28\nvalue = [25, 1, 2]"] ;
1016 -> 1024 ;
1025 [label="gini = 0.0\nsamples = 1\nvalue = [0, 0, 1]"] ;
1024 -> 1025 ;
1026 [label="X[9] <= 1.136\ngini = 0.14\nsamples = 27\nvalue = [25, 1, 1]"] ;
1024 -> 1026 ;
1027 [label="gini = 0.0\nsamples = 22\nvalue = [22, 0, 0]"] ;
1026 -> 1027 ;
1028 [label="X[12] <= 3.0\ngini = 0.56\nsamples = 5\nvalue = [3, 1, 1]"] ;
1026 -> 1028 ;
1029 [label="gini = 0.0\nsamples = 1\nvalue = [0, 1, 0]"] ;
1028 -> 1029 ;
1030 [label="X[2] <= 253.0\ngini = 0.375\nsamples = 4\nvalue = [3, 0, 1]"] ;
1028 -> 1030 ;
1031 [label="gini = 0.0\nsamples = 1\nvalue = [0, 0, 1]"] ;
1030 -> 1031 ;
1032 [label="gini = 0.0\nsamples = 3\nvalue = [3, 0, 0]"] ;
1030 -> 1032 ;
1033 [label="X[9] <= 1.258\ngini = 0.309\nsamples = 452\nvalue = [370, 19, 63]"] ;
991 -> 1033 ;
1034 [label="X[3] <= 7.5\ngini = 0.526\nsamples = 19\nvalue = [7, 1, 11]"] ;
1033 -> 1034 ;
1035 [label="X[6] <= 0.5\ngini = 0.245\nsamples = 7\nvalue = [6, 0, 1]"] ;
1034 -> 1035 ;
1036 [label="gini = 0.0\nsamples = 1\nvalue = [0, 0, 1]"] ;
1035 -> 1036 ;
1037 [label="gini = 0.0\nsamples = 6\nvalue = [6, 0, 0]"] ;
1035 -> 1037 ;
1038 [label="X[2] <= 512.0\ngini = 0.292\nsamples = 12\nvalue = [1, 1, 10]"] ;
1034 -> 1038 ;
1039 [label="X[1] <= 1099.5\ngini = 0.165\nsamples = 11\nvalue = [0, 1, 10]"] ;
1038 -> 1039 ;
1040 [label="X[1] <= 1097.5\ngini = 0.444\nsamples = 3\nvalue = [0, 1, 2]"] ;
1039 -> 1040 ;
1041 [label="gini = 0.0\nsamples = 2\nvalue = [0, 0, 2]"] ;
1040 -> 1041 ;
1042 [label="gini = 0.0\nsamples = 1\nvalue = [0, 1, 0]"] ;
1040 -> 1042 ;
1043 [label="gini = 0.0\nsamples = 8\nvalue = [0, 0, 8]"] ;
1039 -> 1043 ;
1044 [label="gini = 0.0\nsamples = 1\nvalue = [1, 0, 0]"] ;
1038 -> 1044 ;
1045 [label="X[11] <= 3.0\ngini = 0.281\nsamples = 433\nvalue = [363, 18, 52]"] ;
1033 -> 1045 ;
1046 [label="X[17] <= 0.5\ngini = 0.213\nsamples = 222\nvalue = [196, 15, 11]"] ;
1045 -> 1046 ;
1047 [label="gini = 0.0\nsamples = 1\nvalue = [0, 0, 1]"] ;
1046 -> 1047 ;
1048 [label="X[7] <= 1.0\ngini = 0.207\nsamples = 221\nvalue = [196, 15, 10]"] ;
1046 -> 1048 ;
1049 [label="gini = 0.0\nsamples = 1\nvalue = [0, 1, 0]"] ;
1048 -> 1049 ;
1050 [label="X[2] <= 719.0\ngini = 0.2\nsamples = 220\nvalue = [196, 14, 10]"] ;
1048 -> 1050 ;
1051 [label="X[3] <= 6.5\ngini = 0.181\nsamples = 205\nvalue = [185, 10, 10]"] ;
1050 -> 1051 ;
1052 [label="X[2] <= 117.0\ngini = 0.125\nsamples = 151\nvalue = [141, 2, 8]"] ;
1051 -> 1052 ;
1053 [label="X[13] <= 2.5\ngini = 0.266\nsamples = 38\nvalue = [32, 0, 6]"] ;
1052 -> 1053 ;
1054 [label="gini = 0.0\nsamples = 1\nvalue = [0, 0, 1]"] ;
1053 -> 1054 ;
1055 [label="X[9] <= 2.218\ngini = 0.234\nsamples = 37\nvalue = [32, 0, 5]"] ;
1053 -> 1055 ;
1056 [label="X[1] <= 1262.5\ngini = 0.34\nsamples = 23\nvalue = [18, 0, 5]"] ;
1055 -> 1056 ;
1057 [label="X[1] <= 1256.5\ngini = 0.469\nsamples = 8\nvalue = [5, 0, 3]"] ;
1056 -> 1057 ;
1058 [label="gini = 0.0\nsamples = 4\nvalue = [4, 0, 0]"] ;
1057 -> 1058 ;
1059 [label="X[1] <= 1258.5\ngini = 0.375\nsamples = 4\nvalue = [1, 0, 3]"] ;
1057 -> 1059 ;
1060 [label="gini = 0.0\nsamples = 2\nvalue = [0, 0, 2]"] ;
1059 -> 1060 ;
1061 [label="X[1] <= 1260.5\ngini = 0.5\nsamples = 2\nvalue = [1, 0, 1]"] ;
1059 -> 1061 ;
1062 [label="gini = 0.0\nsamples = 1\nvalue = [1, 0, 0]"] ;
1061 -> 1062 ;
1063 [label="gini = 0.0\nsamples = 1\nvalue = [0, 0, 1]"] ;
1061 -> 1063 ;
1064 [label="X[1] <= 1358.0\ngini = 0.231\nsamples = 15\nvalue = [13, 0, 2]"] ;
1056 -> 1064 ;
1065 [label="X[1] <= 1272.5\ngini = 0.142\nsamples = 13\nvalue = [12, 0, 1]"] ;
1064 -> 1065 ;
1066 [label="X[1] <= 1271.5\ngini = 0.278\nsamples = 6\nvalue = [5, 0, 1]"] ;
1065 -> 1066 ;
1067 [label="gini = 0.0\nsamples = 5\nvalue = [5, 0, 0]"] ;
1066 -> 1067 ;
1068 [label="gini = 0.0\nsamples = 1\nvalue = [0, 0, 1]"] ;
1066 -> 1068 ;
1069 [label="gini = 0.0\nsamples = 7\nvalue = [7, 0, 0]"] ;
1065 -> 1069 ;
1070 [label="X[1] <= 1462.5\ngini = 0.5\nsamples = 2\nvalue = [1, 0, 1]"] ;
1064 -> 1070 ;
1071 [label="gini = 0.0\nsamples = 1\nvalue = [0, 0, 1]"] ;
1070 -> 1071 ;
1072 [label="gini = 0.0\nsamples = 1\nvalue = [1, 0, 0]"] ;
1070 -> 1072 ;
1073 [label="gini = 0.0\nsamples = 14\nvalue = [14, 0, 0]"] ;
1055 -> 1073 ;
1074 [label="X[9] <= 4.008\ngini = 0.069\nsamples = 113\nvalue = [109, 2, 2]"] ;
1052 -> 1074 ;
1075 [label="X[9] <= 3.239\ngini = 0.037\nsamples = 105\nvalue = [103, 0, 2]"] ;
1074 -> 1075 ;
1076 [label="gini = 0.0\nsamples = 83\nvalue = [83, 0, 0]"] ;
1075 -> 1076 ;
1077 [label="X[1] <= 1416.5\ngini = 0.165\nsamples = 22\nvalue = [20, 0, 2]"] ;
1075 -> 1077 ;
1078 [label="gini = 0.0\nsamples = 9\nvalue = [9, 0, 0]"] ;
1077 -> 1078 ;
1079 [label="X[1] <= 1439.0\ngini = 0.26\nsamples = 13\nvalue = [11, 0, 2]"] ;
1077 -> 1079 ;
1080 [label="gini = 0.0\nsamples = 1\nvalue = [0, 0, 1]"] ;
1079 -> 1080 ;
1081 [label="X[1] <= 1570.5\ngini = 0.153\nsamples = 12\nvalue = [11, 0, 1]"] ;
1079 -> 1081 ;
1082 [label="X[1] <= 1557.0\ngini = 0.375\nsamples = 4\nvalue = [3, 0, 1]"] ;
1081 -> 1082 ;
1083 [label="gini = 0.0\nsamples = 3\nvalue = [3, 0, 0]"] ;
1082 -> 1083 ;
1084 [label="gini = 0.0\nsamples = 1\nvalue = [0, 0, 1]"] ;
1082 -> 1084 ;
1085 [label="gini = 0.0\nsamples = 8\nvalue = [8, 0, 0]"] ;
1081 -> 1085 ;
1086 [label="X[1] <= 1576.5\ngini = 0.375\nsamples = 8\nvalue = [6, 2, 0]"] ;
1074 -> 1086 ;
1087 [label="X[13] <= 3.0\ngini = 0.48\nsamples = 5\nvalue = [3, 2, 0]"] ;
1086 -> 1087 ;
1088 [label="X[5] <= 5.5\ngini = 0.375\nsamples = 4\nvalue = [3, 1, 0]"] ;
1087 -> 1088 ;
1089 [label="gini = 0.0\nsamples = 2\nvalue = [2, 0, 0]"] ;
1088 -> 1089 ;
1090 [label="X[1] <= 1035.5\ngini = 0.5\nsamples = 2\nvalue = [1, 1, 0]"] ;
1088 -> 1090 ;
1091 [label="gini = 0.0\nsamples = 1\nvalue = [0, 1, 0]"] ;
1090 -> 1091 ;
1092 [label="gini = 0.0\nsamples = 1\nvalue = [1, 0, 0]"] ;
1090 -> 1092 ;
1093 [label="gini = 0.0\nsamples = 1\nvalue = [0, 1, 0]"] ;
1087 -> 1093 ;
1094 [label="gini = 0.0\nsamples = 3\nvalue = [3, 0, 0]"] ;
1086 -> 1094 ;
1095 [label="X[1] <= 1301.0\ngini = 0.313\nsamples = 54\nvalue = [44, 8, 2]"] ;
1051 -> 1095 ;
1096 [label="X[1] <= 381.5\ngini = 0.196\nsamples = 47\nvalue = [42, 3, 2]"] ;
1095 -> 1096 ;
1097 [label="X[1] <= 380.5\ngini = 0.449\nsamples = 14\nvalue = [10, 2, 2]"] ;
1096 -> 1097 ;
1098 [label="X[0] <= 1.5\ngini = 0.379\nsamples = 13\nvalue = [10, 1, 2]"] ;
1097 -> 1098 ;
1099 [label="X[13] <= 1.5\ngini = 0.531\nsamples = 8\nvalue = [5, 1, 2]"] ;
1098 -> 1099 ;
1100 [label="X[1] <= 350.5\ngini = 0.5\nsamples = 4\nvalue = [2, 0, 2]"] ;
1099 -> 1100 ;
1101 [label="gini = 0.0\nsamples = 1\nvalue = [0, 0, 1]"] ;
1100 -> 1101 ;
1102 [label="X[5] <= 4.5\ngini = 0.444\nsamples = 3\nvalue = [2, 0, 1]"] ;
1100 -> 1102 ;
1103 [label="X[1] <= 368.5\ngini = 0.5\nsamples = 2\nvalue = [1, 0, 1]"] ;
1102 -> 1103 ;
1104 [label="gini = 0.0\nsamples = 1\nvalue = [1, 0, 0]"] ;
1103 -> 1104 ;
1105 [label="gini = 0.0\nsamples = 1\nvalue = [0, 0, 1]"] ;
1103 -> 1105 ;
1106 [label="gini = 0.0\nsamples = 1\nvalue = [1, 0, 0]"] ;
1102 -> 1106 ;
1107 [label="X[8] <= 0.5\ngini = 0.375\nsamples = 4\nvalue = [3, 1, 0]"] ;
1099 -> 1107 ;
1108 [label="gini = 0.0\nsamples = 2\nvalue = [2, 0, 0]"] ;
1107 -> 1108 ;
1109 [label="X[1] <= 336.5\ngini = 0.5\nsamples = 2\nvalue = [1, 1, 0]"] ;
1107 -> 1109 ;
1110 [label="gini = 0.0\nsamples = 1\nvalue = [1, 0, 0]"] ;
1109 -> 1110 ;
1111 [label="gini = 0.0\nsamples = 1\nvalue = [0, 1, 0]"] ;
1109 -> 1111 ;
1112 [label="gini = 0.0\nsamples = 5\nvalue = [5, 0, 0]"] ;
1098 -> 1112 ;
1113 [label="gini = 0.0\nsamples = 1\nvalue = [0, 1, 0]"] ;
1097 -> 1113 ;
1114 [label="X[5] <= 2.5\ngini = 0.059\nsamples = 33\nvalue = [32, 1, 0]"] ;
1096 -> 1114 ;
1115 [label="gini = 0.0\nsamples = 24\nvalue = [24, 0, 0]"] ;
1114 -> 1115 ;
1116 [label="X[1] <= 508.5\ngini = 0.198\nsamples = 9\nvalue = [8, 1, 0]"] ;
1114 -> 1116 ;
1117 [label="X[5] <= 5.5\ngini = 0.5\nsamples = 2\nvalue = [1, 1, 0]"] ;
1116 -> 1117 ;
1118 [label="gini = 0.0\nsamples = 1\nvalue = [0, 1, 0]"] ;
1117 -> 1118 ;
1119 [label="gini = 0.0\nsamples = 1\nvalue = [1, 0, 0]"] ;
1117 -> 1119 ;
1120 [label="gini = 0.0\nsamples = 7\nvalue = [7, 0, 0]"] ;
1116 -> 1120 ;
1121 [label="X[2] <= 286.0\ngini = 0.408\nsamples = 7\nvalue = [2, 5, 0]"] ;
1095 -> 1121 ;
1122 [label="gini = 0.0\nsamples = 4\nvalue = [0, 4, 0]"] ;
1121 -> 1122 ;
1123 [label="X[10] <= 2010.0\ngini = 0.444\nsamples = 3\nvalue = [2, 1, 0]"] ;
1121 -> 1123 ;
1124 [label="gini = 0.0\nsamples = 2\nvalue = [2, 0, 0]"] ;
1123 -> 1124 ;
1125 [label="gini = 0.0\nsamples = 1\nvalue = [0, 1, 0]"] ;
1123 -> 1125 ;
1126 [label="X[13] <= 1.5\ngini = 0.391\nsamples = 15\nvalue = [11, 4, 0]"] ;
1050 -> 1126 ;
1127 [label="X[9] <= 3.145\ngini = 0.32\nsamples = 5\nvalue = [1, 4, 0]"] ;
1126 -> 1127 ;
1128 [label="gini = 0.0\nsamples = 4\nvalue = [0, 4, 0]"] ;
1127 -> 1128 ;
1129 [label="gini = 0.0\nsamples = 1\nvalue = [1, 0, 0]"] ;
1127 -> 1129 ;
1130 [label="gini = 0.0\nsamples = 10\nvalue = [10, 0, 0]"] ;
1126 -> 1130 ;
1131 [label="X[2] <= 183.5\ngini = 0.336\nsamples = 211\nvalue = [167, 3, 41]"] ;
1045 -> 1131 ;
1132 [label="X[5] <= 7.5\ngini = 0.503\nsamples = 42\nvalue = [26, 2, 14]"] ;
1131 -> 1132 ;
1133 [label="X[1] <= 19.5\ngini = 0.375\nsamples = 32\nvalue = [24, 0, 8]"] ;
1132 -> 1133 ;
1134 [label="X[1] <= -3.5\ngini = 0.49\nsamples = 7\nvalue = [3, 0, 4]"] ;
1133 -> 1134 ;
1135 [label="X[11] <= 7.0\ngini = 0.375\nsamples = 4\nvalue = [3, 0, 1]"] ;
1134 -> 1135 ;
1136 [label="gini = 0.0\nsamples = 1\nvalue = [0, 0, 1]"] ;
1135 -> 1136 ;
1137 [label="gini = 0.0\nsamples = 3\nvalue = [3, 0, 0]"] ;
1135 -> 1137 ;
1138 [label="gini = 0.0\nsamples = 3\nvalue = [0, 0, 3]"] ;
1134 -> 1138 ;
1139 [label="X[2] <= 16.0\ngini = 0.269\nsamples = 25\nvalue = [21, 0, 4]"] ;
1133 -> 1139 ;
1140 [label="gini = 0.0\nsamples = 1\nvalue = [0, 0, 1]"] ;
1139 -> 1140 ;
1141 [label="X[9] <= 3.202\ngini = 0.219\nsamples = 24\nvalue = [21, 0, 3]"] ;
1139 -> 1141 ;
1142 [label="X[9] <= 3.19\ngini = 0.337\nsamples = 14\nvalue = [11, 0, 3]"] ;
1141 -> 1142 ;
1143 [label="X[0] <= 0.5\ngini = 0.26\nsamples = 13\nvalue = [11, 0, 2]"] ;
1142 -> 1143 ;
1144 [label="X[10] <= 2010.5\ngini = 0.5\nsamples = 2\nvalue = [1, 0, 1]"] ;
1143 -> 1144 ;
1145 [label="gini = 0.0\nsamples = 1\nvalue = [0, 0, 1]"] ;
1144 -> 1145 ;
1146 [label="gini = 0.0\nsamples = 1\nvalue = [1, 0, 0]"] ;
1144 -> 1146 ;
1147 [label="X[9] <= 2.056\ngini = 0.165\nsamples = 11\nvalue = [10, 0, 1]"] ;
1143 -> 1147 ;
1148 [label="X[0] <= 1.5\ngini = 0.5\nsamples = 2\nvalue = [1, 0, 1]"] ;
1147 -> 1148 ;
1149 [label="gini = 0.0\nsamples = 1\nvalue = [1, 0, 0]"] ;
1148 -> 1149 ;
1150 [label="gini = 0.0\nsamples = 1\nvalue = [0, 0, 1]"] ;
1148 -> 1150 ;
1151 [label="gini = 0.0\nsamples = 9\nvalue = [9, 0, 0]"] ;
1147 -> 1151 ;
1152 [label="gini = 0.0\nsamples = 1\nvalue = [0, 0, 1]"] ;
1142 -> 1152 ;
1153 [label="gini = 0.0\nsamples = 10\nvalue = [10, 0, 0]"] ;
1141 -> 1153 ;
1154 [label="X[9] <= 3.649\ngini = 0.56\nsamples = 10\nvalue = [2, 2, 6]"] ;
1132 -> 1154 ;
1155 [label="X[1] <= 202.0\ngini = 0.245\nsamples = 7\nvalue = [1, 0, 6]"] ;
1154 -> 1155 ;
1156 [label="X[12] <= 3.0\ngini = 0.5\nsamples = 2\nvalue = [1, 0, 1]"] ;
1155 -> 1156 ;
1157 [label="gini = 0.0\nsamples = 1\nvalue = [0, 0, 1]"] ;
1156 -> 1157 ;
1158 [label="gini = 0.0\nsamples = 1\nvalue = [1, 0, 0]"] ;
1156 -> 1158 ;
1159 [label="gini = 0.0\nsamples = 5\nvalue = [0, 0, 5]"] ;
1155 -> 1159 ;
1160 [label="X[10] <= 2008.0\ngini = 0.444\nsamples = 3\nvalue = [1, 2, 0]"] ;
1154 -> 1160 ;
1161 [label="gini = 0.0\nsamples = 1\nvalue = [1, 0, 0]"] ;
1160 -> 1161 ;
1162 [label="gini = 0.0\nsamples = 2\nvalue = [0, 2, 0]"] ;
1160 -> 1162 ;
1163 [label="X[13] <= 5.5\ngini = 0.278\nsamples = 169\nvalue = [141, 1, 27]"] ;
1131 -> 1163 ;
1164 [label="X[16] <= 4.5\ngini = 0.272\nsamples = 168\nvalue = [141, 1, 26]"] ;
1163 -> 1164 ;
1165 [label="X[9] <= 3.227\ngini = 0.265\nsamples = 167\nvalue = [141, 1, 25]"] ;
1164 -> 1165 ;
1166 [label="X[1] <= 1376.0\ngini = 0.239\nsamples = 153\nvalue = [132, 1, 20]"] ;
1165 -> 1166 ;
1167 [label="X[6] <= 1.5\ngini = 0.223\nsamples = 150\nvalue = [131, 1, 18]"] ;
1166 -> 1167 ;
1168 [label="X[1] <= 348.5\ngini = 0.275\nsamples = 117\nvalue = [98, 1, 18]"] ;
1167 -> 1168 ;
1169 [label="X[1] <= 331.5\ngini = 0.349\nsamples = 77\nvalue = [60, 1, 16]"] ;
1168 -> 1169 ;
1170 [label="X[5] <= 7.5\ngini = 0.297\nsamples = 73\nvalue = [60, 1, 12]"] ;
1169 -> 1170 ;
1171 [label="X[7] <= 6.0\ngini = 0.255\nsamples = 68\nvalue = [58, 1, 9]"] ;
1170 -> 1171 ;
1172 [label="X[14] <= 5.0\ngini = 0.531\nsamples = 8\nvalue = [5, 1, 2]"] ;
1171 -> 1172 ;
1173 [label="gini = 0.0\nsamples = 1\nvalue = [0, 0, 1]"] ;
1172 -> 1173 ;
1174 [label="X[1] <= 14.0\ngini = 0.449\nsamples = 7\nvalue = [5, 1, 1]"] ;
1172 -> 1174 ;
1175 [label="gini = 0.0\nsamples = 4\nvalue = [4, 0, 0]"] ;
1174 -> 1175 ;
1176 [label="X[9] <= 3.219\ngini = 0.667\nsamples = 3\nvalue = [1, 1, 1]"] ;
1174 -> 1176 ;
1177 [label="gini = 0.0\nsamples = 1\nvalue = [0, 0, 1]"] ;
1176 -> 1177 ;
1178 [label="X[13] <= 3.5\ngini = 0.5\nsamples = 2\nvalue = [1, 1, 0]"] ;
1176 -> 1178 ;
1179 [label="gini = 0.0\nsamples = 1\nvalue = [0, 1, 0]"] ;
1178 -> 1179 ;
1180 [label="gini = 0.0\nsamples = 1\nvalue = [1, 0, 0]"] ;
1178 -> 1180 ;
1181 [label="X[9] <= 2.164\ngini = 0.206\nsamples = 60\nvalue = [53, 0, 7]"] ;
1171 -> 1181 ;
1182 [label="X[11] <= 7.0\ngini = 0.5\nsamples = 2\nvalue = [1, 0, 1]"] ;
1181 -> 1182 ;
1183 [label="gini = 0.0\nsamples = 1\nvalue = [1, 0, 0]"] ;
1182 -> 1183 ;
1184 [label="gini = 0.0\nsamples = 1\nvalue = [0, 0, 1]"] ;
1182 -> 1184 ;
1185 [label="X[1] <= 61.0\ngini = 0.185\nsamples = 58\nvalue = [52, 0, 6]"] ;
1181 -> 1185 ;
1186 [label="X[1] <= 15.5\ngini = 0.077\nsamples = 25\nvalue = [24, 0, 1]"] ;
1185 -> 1186 ;
1187 [label="X[1] <= 11.0\ngini = 0.245\nsamples = 7\nvalue = [6, 0, 1]"] ;
1186 -> 1187 ;
1188 [label="gini = 0.0\nsamples = 6\nvalue = [6, 0, 0]"] ;
1187 -> 1188 ;
1189 [label="gini = 0.0\nsamples = 1\nvalue = [0, 0, 1]"] ;
1187 -> 1189 ;
1190 [label="gini = 0.0\nsamples = 18\nvalue = [18, 0, 0]"] ;
1186 -> 1190 ;
1191 [label="X[9] <= 3.214\ngini = 0.257\nsamples = 33\nvalue = [28, 0, 5]"] ;
1185 -> 1191 ;
1192 [label="X[9] <= 3.208\ngini = 0.175\nsamples = 31\nvalue = [28, 0, 3]"] ;
1191 -> 1192 ;
1193 [label="X[1] <= 155.0\ngini = 0.133\nsamples = 28\nvalue = [26, 0, 2]"] ;
1192 -> 1193 ;
1194 [label="X[1] <= 141.5\ngini = 0.375\nsamples = 4\nvalue = [3, 0, 1]"] ;
1193 -> 1194 ;
1195 [label="gini = 0.0\nsamples = 3\nvalue = [3, 0, 0]"] ;
1194 -> 1195 ;
1196 [label="gini = 0.0\nsamples = 1\nvalue = [0, 0, 1]"] ;
1194 -> 1196 ;
1197 [label="X[1] <= 322.0\ngini = 0.08\nsamples = 24\nvalue = [23, 0, 1]"] ;
1193 -> 1197 ;
1198 [label="gini = 0.0\nsamples = 20\nvalue = [20, 0, 0]"] ;
1197 -> 1198 ;
1199 [label="X[1] <= 326.5\ngini = 0.375\nsamples = 4\nvalue = [3, 0, 1]"] ;
1197 -> 1199 ;
1200 [label="gini = 0.0\nsamples = 1\nvalue = [0, 0, 1]"] ;
1199 -> 1200 ;
1201 [label="gini = 0.0\nsamples = 3\nvalue = [3, 0, 0]"] ;
1199 -> 1201 ;
1202 [label="X[1] <= 175.0\ngini = 0.444\nsamples = 3\nvalue = [2, 0, 1]"] ;
1192 -> 1202 ;
1203 [label="gini = 0.0\nsamples = 2\nvalue = [2, 0, 0]"] ;
1202 -> 1203 ;
1204 [label="gini = 0.0\nsamples = 1\nvalue = [0, 0, 1]"] ;
1202 -> 1204 ;
1205 [label="gini = 0.0\nsamples = 2\nvalue = [0, 0, 2]"] ;
1191 -> 1205 ;
1206 [label="X[1] <= 40.0\ngini = 0.48\nsamples = 5\nvalue = [2, 0, 3]"] ;
1170 -> 1206 ;
1207 [label="gini = 0.0\nsamples = 2\nvalue = [0, 0, 2]"] ;
1206 -> 1207 ;
1208 [label="X[7] <= 8.5\ngini = 0.444\nsamples = 3\nvalue = [2, 0, 1]"] ;
1206 -> 1208 ;
1209 [label="gini = 0.0\nsamples = 2\nvalue = [2, 0, 0]"] ;
1208 -> 1209 ;
1210 [label="gini = 0.0\nsamples = 1\nvalue = [0, 0, 1]"] ;
1208 -> 1210 ;
1211 [label="gini = 0.0\nsamples = 4\nvalue = [0, 0, 4]"] ;
1169 -> 1211 ;
1212 [label="X[2] <= 476.0\ngini = 0.095\nsamples = 40\nvalue = [38, 0, 2]"] ;
1168 -> 1212 ;
1213 [label="gini = 0.0\nsamples = 24\nvalue = [24, 0, 0]"] ;
1212 -> 1213 ;
1214 [label="X[8] <= 0.5\ngini = 0.219\nsamples = 16\nvalue = [14, 0, 2]"] ;
1212 -> 1214 ;
1215 [label="gini = 0.0\nsamples = 1\nvalue = [0, 0, 1]"] ;
1214 -> 1215 ;
1216 [label="X[3] <= 2.5\ngini = 0.124\nsamples = 15\nvalue = [14, 0, 1]"] ;
1214 -> 1216 ;
1217 [label="X[1] <= 1361.0\ngini = 0.278\nsamples = 6\nvalue = [5, 0, 1]"] ;
1216 -> 1217 ;
1218 [label="X[1] <= 1359.5\ngini = 0.5\nsamples = 2\nvalue = [1, 0, 1]"] ;
1217 -> 1218 ;
1219 [label="gini = 0.0\nsamples = 1\nvalue = [1, 0, 0]"] ;
1218 -> 1219 ;
1220 [label="gini = 0.0\nsamples = 1\nvalue = [0, 0, 1]"] ;
1218 -> 1220 ;
1221 [label="gini = 0.0\nsamples = 4\nvalue = [4, 0, 0]"] ;
1217 -> 1221 ;
